{"learner":{"attributes":{"scikit_learn":"{\"_estimator_type\": \"regressor\"}"},"feature_names":["warning_level_lag_1","warning_level_lag_2","warning_level_lag_3","temperature_2m_mean","precipitation_sum","rain_sum","snowfall_sum","wind_speed_10m_max","wind_direction_10m_dominant","snow_load_steep","wind_snow_transport","rain_on_snow_risk","temp_elev","precip_slope_weighted"],"feature_types":["int","int","int","float","float","float","float","float","float","float","float","float","float","float"],"gradient_booster":{"model":{"gbtree_model_param":{"num_parallel_tree":"1","num_trees":"827"},"iteration_indptr":[0,1,2,3,4,5,6,7,8,9,10,11,12,13,14,15,16,17,18,19,20,21,22,23,24,25,26,27,28,29,30,31,32,33,34,35,36,37,38,39,40,41,42,43,44,45,46,47,48,49,50,51,52,53,54,55,56,57,58,59,60,61,62,63,64,65,66,67,68,69,70,71,72,73,74,75,76,77,78,79,80,81,82,83,84,85,86,87,88,89,90,91,92,93,94,95,96,97,98,99,100,101,102,103,104,105,106,107,108,109,110,111,112,113,114,115,116,117,118,119,120,121,122,123,124,125,126,127,128,129,130,131,132,133,134,135,136,137,138,139,140,141,142,143,144,145,146,147,148,149,150,151,152,153,154,155,156,157,158,159,160,161,162,163,164,165,166,167,168,169,170,171,172,173,174,175,176,177,178,179,180,181,182,183,184,185,186,187,188,189,190,191,192,193,194,195,196,197,198,199,200,201,202,203,204,205,206,207,208,209,210,211,212,213,214,215,216,217,218,219,220,221,222,223,224,225,226,227,228,229,230,231,232,233,234,235,236,237,238,239,240,241,242,243,244,245,246,247,248,249,250,251,252,253,254,255,256,257,258,259,260,261,262,263,264,265,266,267,268,269,270,271,272,273,274,275,276,277,278,279,280,281,282,283,284,285,286,287,288,289,290,291,292,293,294,295,296,297,298,299,300,301,302,303,304,305,306,307,308,309,310,311,312,313,314,315,316,317,318,319,320,321,322,323,324,325,326,327,328,329,330,331,332,333,334,335,336,337,338,339,340,341,342,343,344,345,346,347,348,349,350,351,352,353,354,355,356,357,358,359,360,361,362,363,364,365,366,367,368,369,370,371,372,373,374,375,376,377,378,379,380,381,382,383,384,385,386,387,388,389,390,391,392,393,394,395,396,397,398,399,400,401,402,403,404,405,406,407,408,409,410,411,412,413,414,415,416,417,418,419,420,421,422,423,424,425,426,427,428,429,430,431,432,433,434,435,436,437,438,439,440,441,442,443,444,445,446,447,448,449,450,451,452,453,454,455,456,457,458,459,460,461,462,463,464,465,466,467,468,469,470,471,472,473,474,475,476,477,478,479,480,481,482,483,484,485,486,487,488,489,490,491,492,493,494,495,496,497,498,499,500,501,502,503,504,505,506,507,508,509,510,511,512,513,514,515,516,517,518,519,520,521,522,523,524,525,526,527,528,529,530,531,532,533,534,535,536,537,538,539,540,541,542,543,544,545,546,547,548,549,550,551,552,553,554,555,556,557,558,559,560,561,562,563,564,565,566,567,568,569,570,571,572,573,574,575,576,577,578,579,580,581,582,583,584,585,586,587,588,589,590,591,592,593,594,595,596,597,598,599,600,601,602,603,604,605,606,607,608,609,610,611,612,613,614,615,616,617,618,619,620,621,622,623,624,625,626,627,628,629,630,631,632,633,634,635,636,637,638,639,640,641,642,643,644,645,646,647,648,649,650,651,652,653,654,655,656,657,658,659,660,661,662,663,664,665,666,667,668,669,670,671,672,673,674,675,676,677,678,679,680,681,682,683,684,685,686,687,688,689,690,691,692,693,694,695,696,697,698,699,700,701,702,703,704,705,706,707,708,709,710,711,712,713,714,715,716,717,718,719,720,721,722,723,724,725,726,727,728,729,730,731,732,733,734,735,736,737,738,739,740,741,742,743,744,745,746,747,748,749,750,751,752,753,754,755,756,757,758,759,760,761,762,763,764,765,766,767,768,769,770,771,772,773,774,775,776,777,778,779,780,781,782,783,784,785,786,787,788,789,790,791,792,793,794,795,796,797,798,799,800,801,802,803,804,805,806,807,808,809,810,811,812,813,814,815,816,817,818,819,820,821,822,823,824,825,826,827],"tree_info":[0,0,0,0,0,0,0,0,0,0,0,0,0,0,0,0,0,0,0,0,0,0,0,0,0,0,0,0,0,0,0,0,0,0,0,0,0,0,0,0,0,0,0,0,0,0,0,0,0,0,0,0,0,0,0,0,0,0,0,0,0,0,0,0,0,0,0,0,0,0,0,0,0,0,0,0,0,0,0,0,0,0,0,0,0,0,0,0,0,0,0,0,0,0,0,0,0,0,0,0,0,0,0,0,0,0,0,0,0,0,0,0,0,0,0,0,0,0,0,0,0,0,0,0,0,0,0,0,0,0,0,0,0,0,0,0,0,0,0,0,0,0,0,0,0,0,0,0,0,0,0,0,0,0,0,0,0,0,0,0,0,0,0,0,0,0,0,0,0,0,0,0,0,0,0,0,0,0,0,0,0,0,0,0,0,0,0,0,0,0,0,0,0,0,0,0,0,0,0,0,0,0,0,0,0,0,0,0,0,0,0,0,0,0,0,0,0,0,0,0,0,0,0,0,0,0,0,0,0,0,0,0,0,0,0,0,0,0,0,0,0,0,0,0,0,0,0,0,0,0,0,0,0,0,0,0,0,0,0,0,0,0,0,0,0,0,0,0,0,0,0,0,0,0,0,0,0,0,0,0,0,0,0,0,0,0,0,0,0,0,0,0,0,0,0,0,0,0,0,0,0,0,0,0,0,0,0,0,0,0,0,0,0,0,0,0,0,0,0,0,0,0,0,0,0,0,0,0,0,0,0,0,0,0,0,0,0,0,0,0,0,0,0,0,0,0,0,0,0,0,0,0,0,0,0,0,0,0,0,0,0,0,0,0,0,0,0,0,0,0,0,0,0,0,0,0,0,0,0,0,0,0,0,0,0,0,0,0,0,0,0,0,0,0,0,0,0,0,0,0,0,0,0,0,0,0,0,0,0,0,0,0,0,0,0,0,0,0,0,0,0,0,0,0,0,0,0,0,0,0,0,0,0,0,0,0,0,0,0,0,0,0,0,0,0,0,0,0,0,0,0,0,0,0,0,0,0,0,0,0,0,0,0,0,0,0,0,0,0,0,0,0,0,0,0,0,0,0,0,0,0,0,0,0,0,0,0,0,0,0,0,0,0,0,0,0,0,0,0,0,0,0,0,0,0,0,0,0,0,0,0,0,0,0,0,0,0,0,0,0,0,0,0,0,0,0,0,0,0,0,0,0,0,0,0,0,0,0,0,0,0,0,0,0,0,0,0,0,0,0,0,0,0,0,0,0,0,0,0,0,0,0,0,0,0,0,0,0,0,0,0,0,0,0,0,0,0,0,0,0,0,0,0,0,0,0,0,0,0,0,0,0,0,0,0,0,0,0,0,0,0,0,0,0,0,0,0,0,0,0,0,0,0,0,0,0,0,0,0,0,0,0,0,0,0,0,0,0,0,0,0,0,0,0,0,0,0,0,0,0,0,0,0,0,0,0,0,0,0,0,0,0,0,0,0,0,0,0,0,0,0,0,0,0,0,0,0,0,0,0,0,0,0,0,0,0,0,0,0,0,0,0,0,0,0,0,0,0,0,0,0,0,0,0,0,0,0,0,0,0,0,0,0,0,0,0,0,0,0,0,0,0,0,0,0,0,0,0,0,0,0,0,0,0,0,0,0,0,0,0,0,0,0,0,0,0,0,0,0,0,0,0,0,0,0,0,0,0,0,0,0,0,0,0,0,0,0,0,0,0,0,0,0,0,0,0,0,0,0,0,0,0,0,0,0,0,0,0,0,0,0,0,0,0,0,0,0,0,0,0,0,0,0,0,0,0,0,0,0,0,0,0,0,0,0,0,0,0,0,0,0,0,0,0,0,0,0,0,0,0,0,0,0,0,0,0,0],"trees":[{"base_weights":[1.2583799E-2,-1.1120462E0,9.627455E-1,-1.1178823E0,1.3047656E-1,1.09454125E-1,1.139305E0,6.0707547E-2,-1.5653099E-1,-5.3254567E-2,6.058865E-1,9.3587095E-1,1.6799005E0,-1.0828304E-2,1.3047656E-1,2.5550773E-2,1.14273034E-1,8.393229E-1,1.7745684E-1,1.3007549E0,1.9799851E0,8.5297364E-1,-1.449834E-2,1.4495426E0,7.641266E-2,2.3757158E-1,3.148389E-1,1.231211E-1,7.873511E-2,1.5705472E-1,2.3270811E-1],"categories":[],"categories_nodes":[],"categories_segments":[],"categories_sizes":[],"default_left":[0,0,0,0,0,0,0,0,0,0,0,0,0,0,0,0,0,0,0,0,0,0,0,0,0,0,0,0,0,0,0],"id":0,"left_children":[1,3,5,7,-1,9,11,-1,-1,13,15,17,19,-1,-1,-1,-1,21,-1,23,25,27,-1,29,-1,-1,-1,-1,-1,-1,-1],"loss_changes":[1.1946749E3,7.1619873E0,9.117322E1,3.5813599E0,0E0,8.513521E0,5.363556E1,0E0,0E0,1.9975269E0,2.1919518E0,1.0833679E1,1.289801E1,0E0,0E0,0E0,0E0,3.7968445E0,0E0,6.2658997E0,1.8310547E0,1.9107056E0,0E0,1.7986145E0,0E0,0E0,0E0,0E0,0E0,0E0,0E0],"parents":[2147483647,0,0,1,1,2,2,3,3,5,5,6,6,9,9,10,10,11,11,12,12,17,17,19,19,20,20,21,21,23,23],"right_children":[2,4,6,8,-1,10,12,-1,-1,14,16,18,20,-1,-1,-1,-1,22,-1,24,26,28,-1,30,-1,-1,-1,-1,-1,-1,-1],"split_conditions":[1E0,1.498E1,2E0,-1.3970752E1,1.3047656E-1,1.12E0,7.0999994E0,6.0707547E-2,-1.5653099E-1,9.400001E0,8.913181E0,3E0,3E0,-1.0828304E-2,1.3047656E-1,2.5550773E-2,1.14273034E-1,4.1E0,1.7745684E-1,3.4209168E0,2.05484E1,4.395917E0,-1.449834E-2,1.4529915E1,7.641266E-2,2.3757158E-1,3.148389E-1,1.231211E-1,7.873511E-2,1.5705472E-1,2.3270811E-1],"split_indices":[0,6,0,3,0,6,4,0,0,4,7,0,0,0,0,0,0,5,0,3,7,3,0,7,0,0,0,0,0,0,0],"split_type":[0,0,0,0,0,0,0,0,0,0,0,0,0,0,0,0,0,0,0,0,0,0,0,0,0,0,0,0,0,0,0],"sum_hessian":[1.116E3,5.11E2,6.05E2,5.1E2,1E0,1.04E2,5.01E2,1E0,5.09E2,7.9E1,2.5E1,3.66E2,1.35E2,7.8E1,1E0,9E0,1.6E1,2.87E2,7.9E1,6.2E1,7.3E1,2.83E2,4E0,5.1E1,1.1E1,4E1,3.3E1,2.55E2,2.8E1,2.3E1,2.8E1],"tree_param":{"num_deleted":"0","num_feature":"14","num_nodes":"31","size_leaf_vector":"1"}},{"base_weights":[-3.4771883E-3,-9.568702E-1,8.342108E-1,-9.621266E-1,1.2137333E-1,1.3303168E-1,9.9089104E-1,5.647204E-2,-1.3473605E-1,4.245255E-2,1.1918319E-1,8.217371E-1,1.4777522E0,-4.7530816E-3,2.5270894E-1,7.355132E-1,1.5570317E-1,1.2518271E0,2.6005864E-1,3.5169837E-1,-5.2976646E-2,6.639135E-1,8.715738E-1,1.272377E-1,1.9158758E-1,1.1574887E-2,9.6668325E-2,9.398912E-2,-2.13628E-2,9.523859E-1,4.5427346E-1,1.19805306E-1,1.8811509E-1,9.883116E-2,1.1161448E-2],"categories":[],"categories_nodes":[],"categories_segments":[],"categories_sizes":[],"default_left":[0,0,0,0,0,0,0,0,0,0,0,0,0,0,0,0,0,0,0,0,0,0,0,0,0,0,0,0,0,0,0,0,0,0,0],"id":1,"left_children":[1,3,5,7,-1,9,11,-1,-1,13,-1,15,17,-1,19,21,-1,23,-1,25,-1,27,29,-1,-1,-1,-1,-1,-1,31,33,-1,-1,-1,-1],"loss_changes":[8.777114E2,5.7721863E0,6.413678E1,2.816925E0,0E0,7.0178876E0,3.8151123E1,0E0,0E0,1.5691326E0,0E0,8.232574E0,8.305115E0,0E0,1.7610618E0,2.139328E0,0E0,2.0440674E0,0E0,2.0507834E0,0E0,1.5790024E0,2.7035904E0,0E0,0E0,0E0,0E0,0E0,0E0,1.7008133E0,1.5595119E0,0E0,0E0,0E0,0E0],"parents":[2147483647,0,0,1,1,2,2,3,3,5,5,6,6,9,9,11,11,12,12,14,14,15,15,17,17,19,19,21,21,22,22,29,29,30,30],"right_children":[2,4,6,8,-1,10,12,-1,-1,14,-1,16,18,-1,20,22,-1,24,-1,26,-1,28,30,-1,-1,-1,-1,-1,-1,32,34,-1,-1,-1,-1],"split_conditions":[1E0,1.3719999E1,2E0,-1.3970752E1,1.2137333E-1,1.07E1,4.1299996E0,5.647204E-2,-1.3473605E-1,4.2000002E-1,1.1918319E-1,3E0,1.55E1,-4.7530816E-3,2.700084E0,3.9691743E-1,1.5570317E-1,3.470942E-1,2.6005864E-1,2.4200264E-1,-5.2976646E-2,5.6E0,3.7146666E0,1.272377E-1,1.9158758E-1,1.1574887E-2,9.6668325E-2,9.398912E-2,-2.13628E-2,5.1E0,2.2676576E2,1.19805306E-1,1.8811509E-1,9.883116E-2,1.1161448E-2],"split_indices":[0,6,0,3,0,4,6,0,0,6,0,0,4,0,3,10,0,10,0,10,0,4,3,0,0,0,0,0,0,4,8,0,0,0,0],"split_type":[0,0,0,0,0,0,0,0,0,0,0,0,0,0,0,0,0,0,0,0,0,0,0,0,0,0,0,0,0,0,0,0,0,0,0],"sum_hessian":[1.097E3,5.13E2,5.84E2,5.12E2,1E0,1.07E2,4.77E2,1E0,5.11E2,9.6E1,1.1E1,3.56E2,1.21E2,7.1E1,2.5E1,2.78E2,7.8E1,7.9E1,4.2E1,2.2E1,3E0,1.86E2,9.2E1,2.3E1,5.6E1,1.3E1,9E0,1.84E2,2E0,7.6E1,1.6E1,6.4E1,1.2E1,9E0,7E0],"tree_param":{"num_deleted":"0","num_feature":"14","num_nodes":"35","size_leaf_vector":"1"}},{"base_weights":[-2.0159328E-2,-8.2862246E-1,7.2904295E-1,5.253204E-2,-1.16051205E-1,5.615023E-1,1.203528E0,1.0866198E-1,6.865698E-1,1.0111389E0,1.6363784E0,-1.6030544E-2,8.585077E-2,6.150474E-1,1.3440266E-1,1.0954835E-1,1.5640625E-1,2.7878292E-2,2.3244606E-1,1.7637786E-2,-2.2588221E-2,8.886172E-2,2.1538967E-1,8.5270084E-2,-1.622943E-2],"categories":[],"categories_nodes":[],"categories_segments":[],"categories_sizes":[],"default_left":[0,0,0,0,0,0,0,0,0,0,0,0,0,0,0,0,0,0,0,0,0,0,0,0,0],"id":2,"left_children":[1,3,5,-1,-1,7,9,11,13,15,17,19,-1,21,-1,-1,-1,-1,-1,-1,-1,-1,23,-1,-1],"loss_changes":[6.5233997E2,2.2227173E0,4.3762238E1,0E0,0E0,2.3429184E1,1.0420364E1,5.7581267E0,5.837738E0,1.6753998E0,1.4862671E0,1.5576938E0,0E0,2.1347885E0,0E0,0E0,0E0,0E0,0E0,0E0,0E0,0E0,2.0398624E0,0E0,0E0],"parents":[2147483647,0,0,1,1,2,2,5,5,6,6,7,7,8,8,9,9,10,10,11,11,13,13,22,22],"right_children":[2,4,6,-1,-1,8,10,12,14,16,18,20,-1,22,-1,-1,-1,-1,-1,-1,-1,-1,24,-1,-1],"split_conditions":[1E0,-1.3970752E1,3E0,5.253204E-2,-1.16051205E-1,2E0,1.4700002E1,5.599999E0,3.0800002E0,1.22143654E2,7E-2,7.8154686E1,8.585077E-2,7.0188336E0,1.3440266E-1,1.0954835E-1,1.5640625E-1,2.7878292E-2,2.3244606E-1,1.7637786E-2,-2.2588221E-2,8.886172E-2,9.668195E0,8.5270084E-2,-1.622943E-2],"split_indices":[0,3,0,0,0,0,4,4,6,8,6,8,0,3,0,0,0,0,0,0,0,0,7,0,0],"split_type":[0,0,0,0,0,0,0,0,0,0,0,0,0,0,0,0,0,0,0,0,0,0,0,0,0],"sum_hessian":[1.075E3,5.17E2,5.58E2,1E0,5.16E2,4.14E2,1.44E2,9E1,3.24E2,1.02E2,4.2E1,7.3E1,1.7E1,2.6E2,6.4E1,3.6E1,6.6E1,1E0,4.1E1,3.7E1,3.6E1,2.46E2,1.4E1,6E0,8E0],"tree_param":{"num_deleted":"0","num_feature":"14","num_nodes":"25","size_leaf_vector":"1"}},{"base_weights":[-1.9416947E-2,-9.9922135E-2,6.200309E-1,4.588289E-1,1.1049196E0,7.457432E-2,5.6871885E-1,1.1830826E-1,1.3468465E0,3.9022889E-3,1.1056237E-1,5.203884E-1,9.308657E-1,1.5545127E-1,2.206264E-1,4.3481278E-1,5.977439E-1,8.5946634E-2,1.5994161E-1,6.2345747E-2,-4.0962715E-2,9.059206E-2,3.581518E-1,-1.7443568E-2,6.755745E-2],"categories":[],"categories_nodes":[],"categories_segments":[],"categories_sizes":[],"default_left":[0,0,0,0,0,0,0,0,0,0,0,0,0,0,0,0,0,0,0,0,0,0,0,0,0],"id":3,"left_children":[1,-1,3,5,7,9,11,-1,13,-1,-1,15,17,-1,-1,19,21,-1,-1,-1,-1,-1,23,-1,-1],"loss_changes":[4.9894476E2,0E0,4.5141388E1,1.8536903E1,7.8756714E0,3.2898157E0,5.5015106E0,0E0,2.219986E0,0E0,0E0,1.7525024E0,1.9390602E0,0E0,0E0,1.4235001E0,1.7041168E0,0E0,0E0,0E0,0E0,0E0,1.8868587E0,0E0,0E0],"parents":[2147483647,0,0,2,2,3,3,4,4,5,5,6,6,8,8,11,11,12,12,15,15,16,16,22,22],"right_children":[2,-1,4,6,8,10,12,-1,14,-1,-1,16,18,-1,-1,20,22,-1,-1,-1,-1,-1,24,-1,-1],"split_conditions":[1E0,-9.9922135E-2,3E0,2E0,3.7100003E0,6.4399996E0,5.04E0,1.1830826E-1,2.05484E1,3.9022889E-3,1.1056237E-1,1.20694E1,1.4529915E1,1.5545127E-1,2.206264E-1,3.99E0,2.2355106E2,8.5946634E-2,1.5994161E-1,6.2345747E-2,-4.0962715E-2,9.059206E-2,2.4275157E2,-1.7443568E-2,6.755745E-2],"split_indices":[0,0,0,0,6,6,6,0,7,0,0,7,7,0,0,6,8,0,0,0,0,0,8,0,0],"split_type":[0,0,0,0,0,0,0,0,0,0,0,0,0,0,0,0,0,0,0,0,0,0,0,0,0],"sum_hessian":[1.118E3,5.35E2,5.83E2,4.39E2,1.44E2,9.8E1,3.41E2,7.2E1,7.2E1,9.3E1,5E0,3.03E2,3.8E1,3.9E1,3.3E1,1.47E2,1.56E2,1.7E1,2.1E1,1.45E2,2E0,1.27E2,2.9E1,6E0,2.3E1],"tree_param":{"num_deleted":"0","num_feature":"14","num_nodes":"25","size_leaf_vector":"1"}},{"base_weights":[2.4832916E-3,-8.615982E-2,5.263353E-1,4.714462E-2,6.1865014E-1,2.1995646E-3,1.5388303E-1,5.087989E-1,9.204258E-1,5.993627E-3,-7.20393E-2,4.606611E-1,9.3529694E-2,8.247255E-1,2.0250045E-1,6.6494815E-2,7.607136E-3,6.0145773E-2,8.7502885E-1,3.1234838E-2,1.2552479E-1],"categories":[],"categories_nodes":[],"categories_segments":[],"categories_sizes":[],"default_left":[0,0,0,0,0,0,0,0,0,0,0,0,0,0,0,0,0,0,0,0,0],"id":4,"left_children":[1,-1,3,5,7,9,-1,11,13,-1,-1,15,-1,17,-1,-1,-1,-1,19,-1,-1],"loss_changes":[3.5951077E2,0E0,2.651268E1,4.6473465E0,1.620636E1,2.0294878E0,0E0,2.5751572E0,5.559166E0,0E0,0E0,1.8372879E0,0E0,1.9002838E0,0E0,0E0,0E0,0E0,1.4129715E0,0E0,0E0],"parents":[2147483647,0,0,2,2,3,3,4,4,5,5,7,7,8,8,11,11,13,13,18,18],"right_children":[2,-1,4,6,8,10,-1,12,14,-1,-1,16,-1,18,-1,-1,-1,-1,20,-1,-1],"split_conditions":[1E0,-8.615982E-2,2E0,1.3300001E1,7.1999993E0,1.1050083E1,1.5388303E-1,3E0,2.59E1,5.993627E-3,-7.20393E-2,8.656649E-2,9.3529694E-2,2.1699998E0,2.0250045E-1,6.6494815E-2,7.607136E-3,6.0145773E-2,-6.5936656E0,3.1234838E-2,1.2552479E-1],"split_indices":[0,0,0,4,4,3,0,0,4,0,0,11,0,6,0,0,0,0,3,0,0],"split_type":[0,0,0,0,0,0,0,0,0,0,0,0,0,0,0,0,0,0,0,0,0],"sum_hessian":[1.105E3,5.06E2,5.99E2,9.7E1,5.02E2,9.4E1,3E0,3.7E2,1.32E2,8.8E1,6E0,2.88E2,8.2E1,1.14E2,1.8E1,2.77E2,1.1E1,1.4E1,1E2,4E0,9.6E1],"tree_param":{"num_deleted":"0","num_feature":"14","num_nodes":"21","size_leaf_vector":"1"}},{"base_weights":[1.8859433E-2,-5.2193606E-1,4.672933E-1,-5.2673435E-1,1.3398477E-1,3.6362422E-1,7.862433E-1,6.1849687E-2,-7.388765E-2,6.547926E-2,4.4804144E-1,8.3302915E-2,1.429627E-1,-1.0900655E-3,2.7478433E-1,5.2206736E-2,5.891978E-1,5.055038E-2,-7.616744E-2,4.4775525E-1,1.1389464E-1,6.979061E-2,5.780068E-3],"categories":[],"categories_nodes":[],"categories_segments":[],"categories_sizes":[],"default_left":[0,0,0,0,0,0,0,0,0,0,0,0,0,0,0,0,0,0,0,0,0,0,0],"id":5,"left_children":[1,3,5,7,-1,9,11,-1,-1,13,15,-1,-1,-1,17,-1,19,-1,-1,21,-1,-1,-1],"loss_changes":[2.728263E2,4.1327667E0,2.0049225E1,1.6082153E0,0E0,1.1699211E1,6.1531754E0,0E0,0E0,1.5975299E0,3.5662613E0,0E0,0E0,0E0,2.136179E0,0E0,3.5842438E0,0E0,0E0,1.640029E0,0E0,0E0,0E0],"parents":[2147483647,0,0,1,1,2,2,3,3,5,5,6,6,9,9,10,10,14,14,16,16,19,19],"right_children":[2,4,6,8,-1,10,12,-1,-1,14,16,-1,-1,-1,18,-1,20,-1,-1,22,-1,-1,-1],"split_conditions":[1E0,1.3719999E1,3E0,-1.3970752E1,1.3398477E-1,2E0,1.675064E1,6.1849687E-2,-7.388765E-2,6.3E-1,1.4529915E1,8.3302915E-2,1.429627E-1,-1.0900655E-3,3.0105002E0,5.2206736E-2,1.89E0,5.055038E-2,-7.616744E-2,2.2133728E2,1.1389464E-1,6.979061E-2,5.780068E-3],"split_indices":[0,6,0,3,0,0,7,0,0,6,7,0,0,0,3,0,6,0,0,8,0,0,0],"split_type":[0,0,0,0,0,0,0,0,0,0,0,0,0,0,0,0,0,0,0,0,0,0,0],"sum_hessian":[1.123E3,5.09E2,6.14E2,5.08E2,1E0,4.65E2,1.49E2,1E0,5.07E2,1.03E2,3.62E2,8.5E1,6.4E1,7.7E1,2.6E1,2.4E2,1.22E2,2.4E1,2E0,7.7E1,4.5E1,6.8E1,9E0],"tree_param":{"num_deleted":"0","num_feature":"14","num_nodes":"23","size_leaf_vector":"1"}},{"base_weights":[1.15960715E-2,-4.4995028E-1,4.008422E-1,-6.3389935E-2,1.24636784E-1,2.9567868E-1,7.070219E-1,2.1794915E-2,3.8115588E-1,7.282462E-2,9.1575116E-1,-4.267575E-3,6.308534E-2,3.2783344E-1,5.622141E-1,2.928933E-3,1.313075E-1,5.0720636E-2,1.6619577E-1,5.1514395E-3,8.560433E-2,4.232222E-2,-8.579444E-3],"categories":[],"categories_nodes":[],"categories_segments":[],"categories_sizes":[],"default_left":[0,0,0,0,0,0,0,0,0,0,0,0,0,0,0,0,0,0,0,0,0,0,0],"id":6,"left_children":[1,3,5,-1,-1,7,9,11,13,-1,15,-1,-1,17,19,-1,-1,-1,21,-1,-1,-1,-1],"loss_changes":[2.03011E2,3.4153976E0,1.95289E1,0E0,0E0,1.0713844E1,5.550026E0,2.4930968E0,3.1850967E0,0E0,1.607872E0,0E0,0E0,1.5072327E0,2.0780354E0,0E0,0E0,0E0,1.6106898E0,0E0,0E0,0E0,0E0],"parents":[2147483647,0,0,1,1,2,2,5,5,6,6,7,7,8,8,10,10,13,13,14,14,18,18],"right_children":[2,4,6,-1,-1,8,10,12,14,-1,16,-1,-1,18,20,-1,-1,-1,22,-1,-1,-1,-1],"split_conditions":[1E0,1.498E1,3E0,-6.3389935E-2,1.24636784E-1,2E0,8.099999E0,8.5E0,3.1499999E0,7.282462E-2,7.9036193E0,-4.267575E-3,6.308534E-2,2.2355106E2,2E0,2.928933E-3,1.313075E-1,5.0720636E-2,1.4709167E0,5.1514395E-3,8.560433E-2,4.232222E-2,-8.579444E-3],"split_indices":[0,6,0,0,0,0,4,4,6,0,7,0,0,8,2,0,0,0,3,0,0,0,0],"split_type":[0,0,0,0,0,0,0,0,0,0,0,0,0,0,0,0,0,0,0,0,0,0,0],"sum_hessian":[1.128E3,5.16E2,6.12E2,5.15E2,1E0,4.57E2,1.55E2,1.09E2,3.48E2,8.4E1,7.1E1,9.8E1,1.1E1,2.71E2,7.7E1,2E0,6.9E1,2.21E2,5E1,7E0,7E1,3.1E1,1.9E1],"tree_param":{"num_deleted":"0","num_feature":"14","num_nodes":"23","size_leaf_vector":"1"}},{"base_weights":[3.8525795E-3,-3.913952E-1,3.4000376E-1,-5.517517E-2,1.15941E-1,2.5222462E-1,6.225825E-1,1.3971007E-3,3.093417E-1,4.7823513E-1,1.09056585E-1,2.6607826E-1,6.788685E-2,-2.2626393E-2,7.193829E-2,2.190861E-1,4.0293536E-1,3.2743458E-2,-2.5692973E-2,7.975935E-2,2.9262455E-2],"categories":[],"categories_nodes":[],"categories_segments":[],"categories_sizes":[],"default_left":[0,0,0,0,0,0,0,0,0,0,0,0,0,0,0,0,0,0,0,0,0],"id":7,"left_children":[1,3,5,-1,-1,7,9,-1,11,13,-1,15,-1,-1,-1,17,19,-1,-1,-1,-1],"loss_changes":[1.480096E2,2.8430252E0,1.4775284E1,0E0,0E0,6.37459E0,2.884739E0,0E0,2.7295876E0,1.9233932E0,0E0,1.8539467E0,0E0,0E0,0E0,1.4683342E0,2.3569384E0,0E0,0E0,0E0,0E0],"parents":[2147483647,0,0,1,1,2,2,5,5,6,6,8,8,9,9,11,11,15,15,16,16],"right_children":[2,4,6,-1,-1,8,10,-1,12,14,-1,16,-1,-1,-1,18,20,-1,-1,-1,-1],"split_conditions":[1E0,1.498E1,6.8999996E0,-5.517517E-2,1.15941E-1,2E0,3E0,1.3971007E-3,1.6299694E1,8.373386E0,1.09056585E-1,3E0,6.788685E-2,-2.2626393E-2,7.193829E-2,2.6E0,1.08955765E1,3.2743458E-2,-2.5692973E-2,7.975935E-2,2.9262455E-2],"split_indices":[0,6,4,0,0,0,0,0,7,7,0,1,0,0,0,5,7,0,0,0,0],"split_type":[0,0,0,0,0,0,0,0,0,0,0,0,0,0,0,0,0,0,0,0,0],"sum_hessian":[1.112E3,5.11E2,6.01E2,5.1E2,1E0,4.6E2,1.41E2,8.8E1,3.72E2,7.6E1,6.5E1,3.01E2,7.1E1,4E0,7.2E1,2.26E2,7.5E1,2.18E2,8E0,3.9E1,3.6E1],"tree_param":{"num_deleted":"0","num_feature":"14","num_nodes":"21","size_leaf_vector":"1"}},{"base_weights":[1.5055847E-2,-3.3095676E-1,3.0327827E-1,-4.6706922E-2,1.0785191E-1,2.2890037E-1,5.148582E-1,4.8136286E-2,3.8405325E-2,4.2994797E-2,6.387049E-1,1.2920698E-2,-4.544685E-2,8.15079E-2,1.4646795E-1],"categories":[],"categories_nodes":[],"categories_segments":[],"categories_sizes":[],"default_left":[0,0,0,0,0,0,0,0,0,0,0,0,0,0,0],"id":8,"left_children":[1,3,5,-1,-1,7,9,11,-1,-1,13,-1,-1,-1,-1],"loss_changes":[1.0950263E2,2.3346329E0,9.308533E0,0E0,0E0,3.7136688E0,3.7717476E0,1.5592471E0,0E0,0E0,1.5400772E0,0E0,0E0,0E0,0E0],"parents":[2147483647,0,0,1,1,2,2,5,5,6,6,7,7,10,10],"right_children":[2,4,6,-1,-1,8,10,12,-1,-1,14,-1,-1,-1,-1],"split_conditions":[1E0,1.3719999E1,3.71E0,-4.6706922E-2,1.0785191E-1,2E0,1.4529915E1,1.1325085E1,3.8405325E-2,4.2994797E-2,4E0,1.2920698E-2,-4.544685E-2,8.15079E-2,1.4646795E-1],"split_indices":[0,6,6,0,0,0,7,3,0,0,0,0,0,0,0],"split_type":[0,0,0,0,0,0,0,0,0,0,0,0,0,0,0],"sum_hessian":[1.096E3,4.98E2,5.98E2,4.97E2,1E0,4.44E2,1.54E2,9.1E1,3.53E2,5.9E1,9.5E1,8.2E1,9E0,8.6E1,9E0],"tree_param":{"num_deleted":"0","num_feature":"14","num_nodes":"15","size_leaf_vector":"1"}},{"base_weights":[1.9200608E-2,-2.4339524E-1,3.170103E-1,-2.8968662E-1,-1.415565E-2,2.9517874E-1,1.1378987E-1,-4.092039E-2,1.00327194E-1,-9.50061E-3,4.8538707E-2,2.6890215E-1,7.8772545E-2,2.0224974E-1,4.7288314E-2,2.06128E-2,4.4077195E-2],"categories":[],"categories_nodes":[],"categories_segments":[],"categories_sizes":[],"default_left":[0,0,0,0,0,0,0,0,0,0,0,0,0,0,0,0,0],"id":9,"left_children":[1,3,5,7,9,11,-1,-1,-1,-1,-1,13,-1,15,-1,-1,-1],"loss_changes":[8.57883E1,6.1825867E0,5.3527718E0,1.9571266E0,1.9564918E0,3.344471E0,0E0,0E0,0E0,0E0,0E0,2.0400314E0,0E0,1.403203E0,0E0,0E0,0E0],"parents":[2147483647,0,0,1,1,2,2,3,3,4,4,5,5,11,11,13,13],"right_children":[2,4,6,8,10,12,-1,-1,-1,-1,-1,14,-1,16,-1,-1,-1],"split_conditions":[2E0,1E0,4E0,1.498E1,8.5E0,9.870001E0,1.1378987E-1,-4.092039E-2,1.00327194E-1,-9.50061E-3,4.8538707E-2,1.2768586E1,7.8772545E-2,3E0,4.7288314E-2,2.06128E-2,4.4077195E-2],"split_indices":[0,0,0,6,4,6,0,0,0,0,0,7,0,1,0,0,0],"split_type":[0,0,0,0,0,0,0,0,0,0,0,0,0,0,0,0,0],"sum_hessian":[1.095E3,5.82E2,5.13E2,4.84E2,9.8E1,4.93E2,2E1,4.83E2,1E0,8.6E1,1.2E1,4.51E2,4.2E1,2.33E2,2.18E2,1.59E2,7.4E1],"tree_param":{"num_deleted":"0","num_feature":"14","num_nodes":"17","size_leaf_vector":"1"}},{"base_weights":[8.369911E-3,-3.5256658E-2,2.3588122E-1,1.3418603E-1,3.754285E-1,5.72765E-4,2.35267E-2,3.4201697E-1,1.0631165E-1,3.127817E-2,5.7262957E-2],"categories":[],"categories_nodes":[],"categories_segments":[],"categories_sizes":[],"default_left":[0,0,0,0,0,0,0,0,0,0,0],"id":10,"left_children":[1,-1,3,5,7,-1,-1,9,-1,-1,-1],"loss_changes":[6.580307E1,0E0,8.350864E0,1.5394516E0,2.9545212E0,0E0,0E0,1.7691422E0,0E0,0E0,0E0],"parents":[2147483647,0,0,2,2,3,3,4,4,7,7],"right_children":[2,-1,4,6,8,-1,-1,10,-1,-1,-1],"split_conditions":[1E0,-3.5256658E-2,1.3299999E0,2E0,4E0,5.72765E-4,2.35267E-2,1.3049689E1,1.0631165E-1,3.127817E-2,5.7262957E-2],"split_indices":[0,0,6,1,1,0,0,7,0,0,0],"split_type":[0,0,0,0,0,0,0,0,0,0,0],"sum_hessian":[1.106E3,5.15E2,5.91E2,3.43E2,2.48E2,7.2E1,2.71E2,2.3E2,1.8E1,8.6E1,1.44E2],"tree_param":{"num_deleted":"0","num_feature":"14","num_nodes":"11","size_leaf_vector":"1"}},{"base_weights":[1.2520847E-3,-3.0457461E-2,1.9242632E-1,1.271376E-1,3.058069E-1,-3.1067102E-4,2.2856072E-2,2.7656314E-1,6.8703383E-1,4.031472E-2,-3.876233E-2,-1.6299203E-2,1.1437752E-1],"categories":[],"categories_nodes":[],"categories_segments":[],"categories_sizes":[],"default_left":[0,0,0,0,0,0,0,0,0,0,0,0,0],"id":11,"left_children":[1,-1,3,5,7,-1,-1,9,11,-1,-1,-1,-1],"loss_changes":[4.7423477E1,0E0,4.432213E0,1.8262496E0,2.262661E0,0E0,0E0,1.4908743E0,1.695231E0,0E0,0E0,0E0,0E0],"parents":[2147483647,0,0,2,2,3,3,4,4,7,7,8,8],"right_children":[2,-1,4,6,8,-1,-1,10,12,-1,-1,-1,-1],"split_conditions":[1E0,-3.0457461E-2,1.4618837E1,2E0,3.24E1,-3.1067102E-4,2.2856072E-2,1.3764667E1,8.190001E0,4.031472E-2,-3.876233E-2,-1.6299203E-2,1.1437752E-1],"split_indices":[0,0,7,0,4,0,0,3,6,0,0,0,0],"split_type":[0,0,0,0,0,0,0,0,0,0,0,0,0],"sum_hessian":[1.128E3,5.25E2,6.03E2,3.84E2,2.19E2,8.5E1,2.99E2,2.05E2,1.4E1,2.01E2,4E0,2E0,1.2E1],"tree_param":{"num_deleted":"0","num_feature":"14","num_nodes":"13","size_leaf_vector":"1"}},{"base_weights":[1.9406022E-3,-2.5941418E-2,1.6524407E-1,1.372896E-1,6.534846E-2,1.2716836E-1,7.591363E-2,-1.1437783E-2,1.9436603E-2],"categories":[],"categories_nodes":[],"categories_segments":[],"categories_sizes":[],"default_left":[0,0,0,0,0,0,0,0,0],"id":12,"left_children":[1,-1,3,5,-1,7,-1,-1,-1],"loss_changes":[3.4235065E1,0E0,4.993685E0,2.1868067E0,0E0,1.3705072E0,0E0,0E0,0E0],"parents":[2147483647,0,0,2,2,3,3,5,5],"right_children":[2,-1,4,6,-1,8,-1,-1,-1],"split_conditions":[1E0,-2.5941418E-2,1.75E1,4E0,6.534846E-2,4.2929996E1,7.591363E-2,-1.1437783E-2,1.9436603E-2],"split_indices":[0,0,4,0,0,8,0,0,0],"split_type":[0,0,0,0,0,0,0,0,0],"sum_hessian":[1.114E3,5.18E2,5.96E2,5.47E2,4.9E1,5.35E2,1.2E1,2.9E1,5.06E2],"tree_param":{"num_deleted":"0","num_feature":"14","num_nodes":"9","size_leaf_vector":"1"}},{"base_weights":[-8.604895E-3,-1.3337365E-1,1.462459E-1,-2.2291163E-2,-8.738906E-3,1.3197312E-1,6.964678E-2,-4.3857163E-3,8.299255E-2,8.8871695E-2,2.8194703E-2,1.4503796E-2,-3.144232E-2],"categories":[],"categories_nodes":[],"categories_segments":[],"categories_sizes":[],"default_left":[0,0,0,0,0,0,0,0,0,0,0,0,0],"id":13,"left_children":[1,3,5,-1,7,9,-1,-1,-1,11,-1,-1,-1],"loss_changes":[2.1561907E1,2.0302038E0,2.4423304E0,0E0,1.5113786E0,1.4319973E0,0E0,0E0,0E0,1.4391842E0,0E0,0E0,0E0],"parents":[2147483647,0,0,1,1,2,2,4,4,5,5,9,9],"right_children":[2,4,6,-1,8,10,-1,-1,-1,12,-1,-1,-1],"split_conditions":[2E0,1E0,2.9301876E1,-2.2291163E-2,9.3E0,1.4512064E1,6.964678E-2,-4.3857163E-3,8.299255E-2,1.4050382E1,2.8194703E-2,1.4503796E-2,-3.144232E-2],"split_indices":[1,0,7,0,5,7,0,0,0,7,0,0,0],"split_type":[0,0,0,0,0,0,0,0,0,0,0,0,0],"sum_hessian":[1.114E3,6.17E2,4.97E2,5.09E2,1.08E2,4.79E2,1.8E1,1.05E2,3E0,2.98E2,1.81E2,2.85E2,1.3E1],"tree_param":{"num_deleted":"0","num_feature":"14","num_nodes":"13","size_leaf_vector":"1"}},{"base_weights":[5.6121135E-3,-1.3102768E-1,1.1977488E-1,-1.8727686E-2,1.0127742E-1,1.2338586E-2,3.360826E-2],"categories":[],"categories_nodes":[],"categories_segments":[],"categories_sizes":[],"default_left":[0,0,0,0,0,0,0],"id":14,"left_children":[1,3,5,-1,-1,-1,-1],"loss_changes":[1.7065592E1,1.4561958E0,2.2410383E0,0E0,0E0,0E0,0E0],"parents":[2147483647,0,0,1,1,2,2],"right_children":[2,4,6,-1,-1,-1,-1],"split_conditions":[1E0,1.0219999E1,8.599999E0,-1.8727686E-2,1.0127742E-1,1.2338586E-2,3.360826E-2],"split_indices":[1,6,4,0,0,0,0],"split_type":[0,0,0,0,0,0,0],"sum_hessian":[1.092E3,4.97E2,5.95E2,4.96E2,1E0,4.74E2,1.21E2],"tree_param":{"num_deleted":"0","num_feature":"14","num_nodes":"7","size_leaf_vector":"1"}},{"base_weights":[9.658807E-3,-1.3313722E-2,1.2880205E-1,1.5912749E-2,8.2126796E-2],"categories":[],"categories_nodes":[],"categories_segments":[],"categories_sizes":[],"default_left":[0,0,0,0,0],"id":15,"left_children":[1,-1,3,-1,-1],"loss_changes":[1.394547E1,0E0,3.4759808E0,0E0,0E0],"parents":[2147483647,0,0,2,2],"right_children":[2,-1,4,-1,-1],"split_conditions":[2E0,-1.3313722E-2,2.59E1,1.5912749E-2,8.2126796E-2],"split_indices":[1,0,4,0,0],"split_type":[0,0,0,0,0],"sum_hessian":[1.112E3,5.91E2,5.21E2,5.06E2,1.5E1],"tree_param":{"num_deleted":"0","num_feature":"14","num_nodes":"5","size_leaf_vector":"1"}},{"base_weights":[1.0472424E-3,-1.2465305E-2,1.20199725E-1,1.4351325E-2,6.299162E-2],"categories":[],"categories_nodes":[],"categories_segments":[],"categories_sizes":[],"default_left":[0,0,0,0,0],"id":16,"left_children":[1,-1,3,-1,-1],"loss_changes":[1.1684325E1,0E0,2.6432285E0,0E0,0E0],"parents":[2147483647,0,0,2,2],"right_children":[2,-1,4,-1,-1],"split_conditions":[2E0,-1.2465305E-2,4E0,1.4351325E-2,6.299162E-2],"split_indices":[0,0,0,0,0],"split_type":[0,0,0,0,0],"sum_hessian":[1.083E3,6.16E2,4.67E2,4.45E2,2.2E1],"tree_param":{"num_deleted":"0","num_feature":"14","num_nodes":"5","size_leaf_vector":"1"}},{"base_weights":[-4.1466546E-3,-1.1374417E-2,9.130371E-2,6.6713747E-3,2.7628705E-2],"categories":[],"categories_nodes":[],"categories_segments":[],"categories_sizes":[],"default_left":[0,0,0,0,0],"id":17,"left_children":[1,-1,3,-1,-1],"loss_changes":[8.04951E0,0E0,2.2551584E0,0E0,0E0],"parents":[2147483647,0,0,2,2],"right_children":[2,-1,4,-1,-1],"split_conditions":[2E0,-1.1374417E-2,3E0,6.6713747E-3,2.7628705E-2],"split_indices":[0,0,0,0,0],"split_type":[0,0,0,0,0],"sum_hessian":[1.088E3,6.01E2,4.87E2,3.47E2,1.4E2],"tree_param":{"num_deleted":"0","num_feature":"14","num_nodes":"5","size_leaf_vector":"1"}},{"base_weights":[4.794557E-3,-1.0886966E-2,7.65972E-2,2.9792031E-2,2.0253701E-2,-1.5665461E-4,1.5973964E-1,9.933973E-2,1.3374839E-2],"categories":[],"categories_nodes":[],"categories_segments":[],"categories_sizes":[],"default_left":[0,0,0,0,0,0,0,0,0],"id":18,"left_children":[1,-1,3,5,-1,-1,7,-1,-1],"loss_changes":[6.6837974E0,0E0,1.9272189E0,1.4423869E0,0E0,0E0,2.3659472E0,0E0,0E0],"parents":[2147483647,0,0,2,2,3,3,6,6],"right_children":[2,-1,4,6,-1,-1,8,-1,-1],"split_conditions":[1E0,-1.0886966E-2,1.19E0,3E0,2.0253701E-2,-1.5665461E-4,6.989936E0,9.933973E-2,1.3374839E-2],"split_indices":[0,0,6,2,0,0,7,0,0],"split_type":[0,0,0,0,0,0,0,0,0],"sum_hessian":[1.122E3,5.21E2,6.01E2,3.58E2,2.43E2,2.9E2,6.8E1,6E0,6.2E1],"tree_param":{"num_deleted":"0","num_feature":"14","num_nodes":"9","size_leaf_vector":"1"}},{"base_weights":[4.658697E-3,-9.92324E-3,7.284709E-2,2.620124E-2,1.7658176E-2,-1.4617674E-3,2.5601832E-2],"categories":[],"categories_nodes":[],"categories_segments":[],"categories_sizes":[],"default_left":[0,0,0,0,0,0,0],"id":19,"left_children":[1,-1,3,5,-1,-1,-1],"loss_changes":[5.792091E0,0E0,1.4745736E0,1.8304908E0,0E0,0E0,0E0],"parents":[2147483647,0,0,2,2,3,3],"right_children":[2,-1,4,6,-1,-1,-1],"split_conditions":[1E0,-9.92324E-3,9.8E-1,3E0,1.7658176E-2,-1.4617674E-3,2.5601832E-2],"split_indices":[0,0,6,2,0,0,0],"split_type":[0,0,0,0,0,0,0],"sum_hessian":[1.119E3,5.3E2,5.89E2,3.16E2,2.73E2,2.57E2,5.9E1],"tree_param":{"num_deleted":"0","num_feature":"14","num_nodes":"7","size_leaf_vector":"1"}},{"base_weights":[-5.4490133E-3,-7.7535245E-3,5.5739198E-2,6.336455E-3,4.484173E-2],"categories":[],"categories_nodes":[],"categories_segments":[],"categories_sizes":[],"default_left":[0,0,0,0,0],"id":20,"left_children":[1,-1,3,-1,-1],"loss_changes":[3.486697E0,0E0,1.3901154E0,0E0,0E0],"parents":[2147483647,0,0,2,2],"right_children":[2,-1,4,-1,-1],"split_conditions":[2E0,-7.7535245E-3,2.9301876E1,6.336455E-3,4.484173E-2],"split_indices":[2,0,7,0,0],"split_type":[0,0,0,0,0],"sum_hessian":[1.135E3,6.24E2,5.11E2,4.93E2,1.8E1],"tree_param":{"num_deleted":"0","num_feature":"14","num_nodes":"5","size_leaf_vector":"1"}},{"base_weights":[6.8579824E-3,-7.0819953E-3,5.8218747E-2,7.075477E-3,6.2751964E-2],"categories":[],"categories_nodes":[],"categories_segments":[],"categories_sizes":[],"default_left":[0,0,0,0,0],"id":21,"left_children":[1,-1,3,-1,-1],"loss_changes":[3.3081045E0,0E0,1.7153385E0,0E0,0E0],"parents":[2147483647,0,0,2,2],"right_children":[2,-1,4,-1,-1],"split_conditions":[1E0,-7.0819953E-3,3.24E1,7.075477E-3,6.2751964E-2],"split_indices":[0,0,4,0,0],"split_type":[0,0,0,0,0],"sum_hessian":[1.116E3,5.26E2,5.9E2,5.8E2,1E1],"tree_param":{"num_deleted":"0","num_feature":"14","num_nodes":"5","size_leaf_vector":"1"}},{"base_weights":[1.1836059E-3,-2.1161414E-3,1.8778406E-2],"categories":[],"categories_nodes":[],"categories_segments":[],"categories_sizes":[],"default_left":[0,0,0],"id":22,"left_children":[1,-1,-1],"loss_changes":[2.376951E0,0E0,0E0],"parents":[2147483647,0,0],"right_children":[2,-1,-1],"split_conditions":[9.481604E-2,-2.1161414E-3,1.8778406E-2],"split_indices":[9,0,0],"split_type":[0,0,0],"sum_hessian":[1.088E3,9.7E2,1.18E2],"tree_param":{"num_deleted":"0","num_feature":"14","num_nodes":"3","size_leaf_vector":"1"}},{"base_weights":[-2.0284993E-3,-5.3900066E-3,4.5969438E-2,4.893555E-3,4.345973E-2],"categories":[],"categories_nodes":[],"categories_segments":[],"categories_sizes":[],"default_left":[0,0,0,0,0],"id":23,"left_children":[1,-1,3,-1,-1],"loss_changes":[1.969254E0,0E0,1.3925312E0,0E0,0E0],"parents":[2147483647,0,0,2,2],"right_children":[2,-1,4,-1,-1],"split_conditions":[2E0,-5.3900066E-3,4E0,4.893555E-3,4.345973E-2],"split_indices":[0,0,0,0,0],"split_type":[0,0,0,0,0],"sum_hessian":[1.119E3,6.35E2,4.84E2,4.66E2,1.8E1],"tree_param":{"num_deleted":"0","num_feature":"14","num_nodes":"5","size_leaf_vector":"1"}},{"base_weights":[8.2548155E-4,-1.5235636E-2,1.3954185E-2,9.063256E-3,-6.575509E-3],"categories":[],"categories_nodes":[],"categories_segments":[],"categories_sizes":[],"default_left":[0,0,0,0,0],"id":24,"left_children":[1,3,-1,-1,-1],"loss_changes":[1.7600827E0,2.4347696E0,0E0,0E0,0E0],"parents":[2147483647,0,0,1,1],"right_children":[2,4,-1,-1,-1],"split_conditions":[3E0,-1.5915833E0,1.3954185E-2,9.063256E-3,-6.575509E-3],"split_indices":[0,3,0,0,0],"split_type":[0,0,0,0,0],"sum_hessian":[1.103E3,9.5E2,1.53E2,2.7E2,6.8E2],"tree_param":{"num_deleted":"0","num_feature":"14","num_nodes":"5","size_leaf_vector":"1"}},{"base_weights":[-6.01845E-4,-6.9563335E-4,3.9534494E-2],"categories":[],"categories_nodes":[],"categories_segments":[],"categories_sizes":[],"default_left":[0,0,0],"id":25,"left_children":[1,-1,-1],"loss_changes":[1.3915924E0,0E0,0E0],"parents":[2147483647,0,0],"right_children":[2,-1,-1],"split_conditions":[4E0,-6.9563335E-4,3.9534494E-2],"split_indices":[0,0,0],"split_type":[0,0,0],"sum_hessian":[1.116E3,1.1E3,1.6E1],"tree_param":{"num_deleted":"0","num_feature":"14","num_nodes":"3","size_leaf_vector":"1"}},{"base_weights":[2.213501E-3,-1.9442741E-3,1.5013902E-2],"categories":[],"categories_nodes":[],"categories_segments":[],"categories_sizes":[],"default_left":[0,0,0],"id":26,"left_children":[1,-1,-1],"loss_changes":[1.8699075E0,0E0,0E0],"parents":[2147483647,0,0],"right_children":[2,-1,-1],"split_conditions":[3E0,-1.9442741E-3,1.5013902E-2],"split_indices":[0,0,0],"split_type":[0,0,0],"sum_hessian":[1.097E3,9.52E2,1.45E2],"tree_param":{"num_deleted":"0","num_feature":"14","num_nodes":"3","size_leaf_vector":"1"}},{"base_weights":[1.8363284E-3],"categories":[],"categories_nodes":[],"categories_segments":[],"categories_sizes":[],"default_left":[0],"id":27,"left_children":[-1],"loss_changes":[0E0],"parents":[2147483647],"right_children":[-1],"split_conditions":[2.5623763E-4],"split_indices":[0],"split_type":[0],"sum_hessian":[1.159E3],"tree_param":{"num_deleted":"0","num_feature":"14","num_nodes":"1","size_leaf_vector":"1"}},{"base_weights":[-1.0753137E-3,-6.7512784E-4,6.4276524E-2],"categories":[],"categories_nodes":[],"categories_segments":[],"categories_sizes":[],"default_left":[0,0,0],"id":28,"left_children":[1,-1,-1],"loss_changes":[1.934245E0,0E0,0E0],"parents":[2147483647,0,0],"right_children":[2,-1,-1],"split_conditions":[1.7500002E1,-6.7512784E-4,6.4276524E-2],"split_indices":[6,0,0],"split_type":[0,0,0],"sum_hessian":[1.111E3,1.103E3,8E0],"tree_param":{"num_deleted":"0","num_feature":"14","num_nodes":"3","size_leaf_vector":"1"}},{"base_weights":[3.091193E-3,5.707809E-3,-4.27543E-3],"categories":[],"categories_nodes":[],"categories_segments":[],"categories_sizes":[],"default_left":[0,0,0],"id":29,"left_children":[1,-1,-1],"loss_changes":[1.4285405E0,0E0,0E0],"parents":[2147483647,0,0],"right_children":[2,-1,-1],"split_conditions":[1.6146669E0,5.707809E-3,-4.27543E-3],"split_indices":[3,0,0],"split_type":[0,0,0],"sum_hessian":[1.118E3,5.27E2,5.91E2],"tree_param":{"num_deleted":"0","num_feature":"14","num_nodes":"3","size_leaf_vector":"1"}},{"base_weights":[1.2932695E-3],"categories":[],"categories_nodes":[],"categories_segments":[],"categories_sizes":[],"default_left":[0],"id":30,"left_children":[-1],"loss_changes":[0E0],"parents":[2147483647],"right_children":[-1],"split_conditions":[1.8046027E-4],"split_indices":[0],"split_type":[0],"sum_hessian":[1.104E3],"tree_param":{"num_deleted":"0","num_feature":"14","num_nodes":"1","size_leaf_vector":"1"}},{"base_weights":[-4.3136257E-4],"categories":[],"categories_nodes":[],"categories_segments":[],"categories_sizes":[],"default_left":[0],"id":31,"left_children":[-1],"loss_changes":[0E0],"parents":[2147483647],"right_children":[-1],"split_conditions":[-6.019148E-5],"split_indices":[0],"split_type":[0],"sum_hessian":[1.106E3],"tree_param":{"num_deleted":"0","num_feature":"14","num_nodes":"1","size_leaf_vector":"1"}},{"base_weights":[-3.992101E-3,-2.7214235E-3,9.520147E-2,9.608376E-3,6.3785255E-2],"categories":[],"categories_nodes":[],"categories_segments":[],"categories_sizes":[],"default_left":[0,0,0,0,0],"id":32,"left_children":[1,-1,3,-1,-1],"loss_changes":[1.7066154E0,0E0,1.3986156E0,0E0,0E0],"parents":[2147483647,0,0,2,2],"right_children":[2,-1,4,-1,-1],"split_conditions":[3E0,-2.7214235E-3,9.7721405E-2,9.608376E-3,6.3785255E-2],"split_indices":[0,0,12,0,0],"split_type":[0,0,0,0,0],"sum_hessian":[1.107E3,9.58E2,1.49E2,1.4E2,9E0],"tree_param":{"num_deleted":"0","num_feature":"14","num_nodes":"5","size_leaf_vector":"1"}},{"base_weights":[-6.103319E-3],"categories":[],"categories_nodes":[],"categories_segments":[],"categories_sizes":[],"default_left":[0],"id":33,"left_children":[-1],"loss_changes":[0E0],"parents":[2147483647],"right_children":[-1],"split_conditions":[-8.516451E-4],"split_indices":[0],"split_type":[0],"sum_hessian":[1.106E3],"tree_param":{"num_deleted":"0","num_feature":"14","num_nodes":"1","size_leaf_vector":"1"}},{"base_weights":[1.2321094E-4],"categories":[],"categories_nodes":[],"categories_segments":[],"categories_sizes":[],"default_left":[0],"id":34,"left_children":[-1],"loss_changes":[0E0],"parents":[2147483647],"right_children":[-1],"split_conditions":[1.719261E-5],"split_indices":[0],"split_type":[0],"sum_hessian":[1.094E3],"tree_param":{"num_deleted":"0","num_feature":"14","num_nodes":"1","size_leaf_vector":"1"}},{"base_weights":[7.1719725E-4],"categories":[],"categories_nodes":[],"categories_segments":[],"categories_sizes":[],"default_left":[0],"id":35,"left_children":[-1],"loss_changes":[0E0],"parents":[2147483647],"right_children":[-1],"split_conditions":[1.00076286E-4],"split_indices":[0],"split_type":[0],"sum_hessian":[1.114E3],"tree_param":{"num_deleted":"0","num_feature":"14","num_nodes":"1","size_leaf_vector":"1"}},{"base_weights":[-1.4519392E-2],"categories":[],"categories_nodes":[],"categories_segments":[],"categories_sizes":[],"default_left":[0],"id":36,"left_children":[-1],"loss_changes":[0E0],"parents":[2147483647],"right_children":[-1],"split_conditions":[-2.026007E-3],"split_indices":[0],"split_type":[0],"sum_hessian":[1.086E3],"tree_param":{"num_deleted":"0","num_feature":"14","num_nodes":"1","size_leaf_vector":"1"}},{"base_weights":[5.8529554E-3],"categories":[],"categories_nodes":[],"categories_segments":[],"categories_sizes":[],"default_left":[0],"id":37,"left_children":[-1],"loss_changes":[0E0],"parents":[2147483647],"right_children":[-1],"split_conditions":[8.167098E-4],"split_indices":[0],"split_type":[0],"sum_hessian":[1.115E3],"tree_param":{"num_deleted":"0","num_feature":"14","num_nodes":"1","size_leaf_vector":"1"}},{"base_weights":[2.1742792E-3],"categories":[],"categories_nodes":[],"categories_segments":[],"categories_sizes":[],"default_left":[0],"id":38,"left_children":[-1],"loss_changes":[0E0],"parents":[2147483647],"right_children":[-1],"split_conditions":[3.0339463E-4],"split_indices":[0],"split_type":[0],"sum_hessian":[1.137E3],"tree_param":{"num_deleted":"0","num_feature":"14","num_nodes":"1","size_leaf_vector":"1"}},{"base_weights":[4.5513306E-3],"categories":[],"categories_nodes":[],"categories_segments":[],"categories_sizes":[],"default_left":[0],"id":39,"left_children":[-1],"loss_changes":[0E0],"parents":[2147483647],"right_children":[-1],"split_conditions":[6.3508365E-4],"split_indices":[0],"split_type":[0],"sum_hessian":[1.059E3],"tree_param":{"num_deleted":"0","num_feature":"14","num_nodes":"1","size_leaf_vector":"1"}},{"base_weights":[1.953877E-3],"categories":[],"categories_nodes":[],"categories_segments":[],"categories_sizes":[],"default_left":[0],"id":40,"left_children":[-1],"loss_changes":[0E0],"parents":[2147483647],"right_children":[-1],"split_conditions":[2.7264014E-4],"split_indices":[0],"split_type":[0],"sum_hessian":[1.105E3],"tree_param":{"num_deleted":"0","num_feature":"14","num_nodes":"1","size_leaf_vector":"1"}},{"base_weights":[-7.128409E-4],"categories":[],"categories_nodes":[],"categories_segments":[],"categories_sizes":[],"default_left":[0],"id":41,"left_children":[-1],"loss_changes":[0E0],"parents":[2147483647],"right_children":[-1],"split_conditions":[-9.94684E-5],"split_indices":[0],"split_type":[0],"sum_hessian":[1.099E3],"tree_param":{"num_deleted":"0","num_feature":"14","num_nodes":"1","size_leaf_vector":"1"}},{"base_weights":[1.2449663E-3],"categories":[],"categories_nodes":[],"categories_segments":[],"categories_sizes":[],"default_left":[0],"id":42,"left_children":[-1],"loss_changes":[0E0],"parents":[2147483647],"right_children":[-1],"split_conditions":[1.7372012E-4],"split_indices":[0],"split_type":[0],"sum_hessian":[1.108E3],"tree_param":{"num_deleted":"0","num_feature":"14","num_nodes":"1","size_leaf_vector":"1"}},{"base_weights":[2.932352E-3],"categories":[],"categories_nodes":[],"categories_segments":[],"categories_sizes":[],"default_left":[0],"id":43,"left_children":[-1],"loss_changes":[0E0],"parents":[2147483647],"right_children":[-1],"split_conditions":[4.091746E-4],"split_indices":[0],"split_type":[0],"sum_hessian":[1.097E3],"tree_param":{"num_deleted":"0","num_feature":"14","num_nodes":"1","size_leaf_vector":"1"}},{"base_weights":[1.5657819E-3],"categories":[],"categories_nodes":[],"categories_segments":[],"categories_sizes":[],"default_left":[0],"id":44,"left_children":[-1],"loss_changes":[0E0],"parents":[2147483647],"right_children":[-1],"split_conditions":[2.1848611E-4],"split_indices":[0],"split_type":[0],"sum_hessian":[1.077E3],"tree_param":{"num_deleted":"0","num_feature":"14","num_nodes":"1","size_leaf_vector":"1"}},{"base_weights":[7.7042333E-3,6.639406E-3,-3.3998515E-3],"categories":[],"categories_nodes":[],"categories_segments":[],"categories_sizes":[],"default_left":[0,0,0],"id":45,"left_children":[1,-1,-1],"loss_changes":[1.4232188E0,0E0,0E0],"parents":[2147483647,0,0],"right_children":[2,-1,-1],"split_conditions":[3.678317E-2,6.639406E-3,-3.3998515E-3],"split_indices":[12,0,0],"split_type":[0,0,0],"sum_hessian":[1.111E3,4.95E2,6.16E2],"tree_param":{"num_deleted":"0","num_feature":"14","num_nodes":"3","size_leaf_vector":"1"}},{"base_weights":[3.3217047E-3],"categories":[],"categories_nodes":[],"categories_segments":[],"categories_sizes":[],"default_left":[0],"id":46,"left_children":[-1],"loss_changes":[0E0],"parents":[2147483647],"right_children":[-1],"split_conditions":[4.6350408E-4],"split_indices":[0],"split_type":[0],"sum_hessian":[1.126E3],"tree_param":{"num_deleted":"0","num_feature":"14","num_nodes":"1","size_leaf_vector":"1"}},{"base_weights":[6.0601044E-3],"categories":[],"categories_nodes":[],"categories_segments":[],"categories_sizes":[],"default_left":[0],"id":47,"left_children":[-1],"loss_changes":[0E0],"parents":[2147483647],"right_children":[-1],"split_conditions":[8.4561494E-4],"split_indices":[0],"split_type":[0],"sum_hessian":[1.111E3],"tree_param":{"num_deleted":"0","num_feature":"14","num_nodes":"1","size_leaf_vector":"1"}},{"base_weights":[2.6332068E-3],"categories":[],"categories_nodes":[],"categories_segments":[],"categories_sizes":[],"default_left":[0],"id":48,"left_children":[-1],"loss_changes":[0E0],"parents":[2147483647],"right_children":[-1],"split_conditions":[3.6743245E-4],"split_indices":[0],"split_type":[0],"sum_hessian":[1.092E3],"tree_param":{"num_deleted":"0","num_feature":"14","num_nodes":"1","size_leaf_vector":"1"}},{"base_weights":[7.22026E-3],"categories":[],"categories_nodes":[],"categories_segments":[],"categories_sizes":[],"default_left":[0],"id":49,"left_children":[-1],"loss_changes":[0E0],"parents":[2147483647],"right_children":[-1],"split_conditions":[1.0075008E-3],"split_indices":[0],"split_type":[0],"sum_hessian":[1.132E3],"tree_param":{"num_deleted":"0","num_feature":"14","num_nodes":"1","size_leaf_vector":"1"}},{"base_weights":[-5.57347E-3],"categories":[],"categories_nodes":[],"categories_segments":[],"categories_sizes":[],"default_left":[0],"id":50,"left_children":[-1],"loss_changes":[0E0],"parents":[2147483647],"right_children":[-1],"split_conditions":[-7.77711E-4],"split_indices":[0],"split_type":[0],"sum_hessian":[1.098E3],"tree_param":{"num_deleted":"0","num_feature":"14","num_nodes":"1","size_leaf_vector":"1"}},{"base_weights":[3.1360416E-4],"categories":[],"categories_nodes":[],"categories_segments":[],"categories_sizes":[],"default_left":[0],"id":51,"left_children":[-1],"loss_changes":[0E0],"parents":[2147483647],"right_children":[-1],"split_conditions":[4.3759705E-5],"split_indices":[0],"split_type":[0],"sum_hessian":[1.115E3],"tree_param":{"num_deleted":"0","num_feature":"14","num_nodes":"1","size_leaf_vector":"1"}},{"base_weights":[-2.5884213E-3],"categories":[],"categories_nodes":[],"categories_segments":[],"categories_sizes":[],"default_left":[0],"id":52,"left_children":[-1],"loss_changes":[0E0],"parents":[2147483647],"right_children":[-1],"split_conditions":[-3.611832E-4],"split_indices":[0],"split_type":[0],"sum_hessian":[1.094E3],"tree_param":{"num_deleted":"0","num_feature":"14","num_nodes":"1","size_leaf_vector":"1"}},{"base_weights":[-4.0186374E-3],"categories":[],"categories_nodes":[],"categories_segments":[],"categories_sizes":[],"default_left":[0],"id":53,"left_children":[-1],"loss_changes":[0E0],"parents":[2147483647],"right_children":[-1],"split_conditions":[-5.607527E-4],"split_indices":[0],"split_type":[0],"sum_hessian":[1.108E3],"tree_param":{"num_deleted":"0","num_feature":"14","num_nodes":"1","size_leaf_vector":"1"}},{"base_weights":[-2.9091472E-3],"categories":[],"categories_nodes":[],"categories_segments":[],"categories_sizes":[],"default_left":[0],"id":54,"left_children":[-1],"loss_changes":[0E0],"parents":[2147483647],"right_children":[-1],"split_conditions":[-4.0593665E-4],"split_indices":[0],"split_type":[0],"sum_hessian":[1.097E3],"tree_param":{"num_deleted":"0","num_feature":"14","num_nodes":"1","size_leaf_vector":"1"}},{"base_weights":[-2.3290082E-3],"categories":[],"categories_nodes":[],"categories_segments":[],"categories_sizes":[],"default_left":[0],"id":55,"left_children":[-1],"loss_changes":[0E0],"parents":[2147483647],"right_children":[-1],"split_conditions":[-3.249852E-4],"split_indices":[0],"split_type":[0],"sum_hessian":[1.082E3],"tree_param":{"num_deleted":"0","num_feature":"14","num_nodes":"1","size_leaf_vector":"1"}},{"base_weights":[-6.981659E-4,-4.656745E-4,6.755477E-2],"categories":[],"categories_nodes":[],"categories_segments":[],"categories_sizes":[],"default_left":[0,0,0],"id":56,"left_children":[1,-1,-1],"loss_changes":[1.4180344E0,0E0,0E0],"parents":[2147483647,0,0],"right_children":[2,-1,-1],"split_conditions":[1.7500002E1,-4.656745E-4,6.755477E-2],"split_indices":[6,0,0],"split_type":[0,0,0],"sum_hessian":[1.106E3,1.101E3,5E0],"tree_param":{"num_deleted":"0","num_feature":"14","num_nodes":"3","size_leaf_vector":"1"}},{"base_weights":[-2.7165841E-3],"categories":[],"categories_nodes":[],"categories_segments":[],"categories_sizes":[],"default_left":[0],"id":57,"left_children":[-1],"loss_changes":[0E0],"parents":[2147483647],"right_children":[-1],"split_conditions":[-3.7906677E-4],"split_indices":[0],"split_type":[0],"sum_hessian":[1.118E3],"tree_param":{"num_deleted":"0","num_feature":"14","num_nodes":"1","size_leaf_vector":"1"}},{"base_weights":[2.8528434E-3],"categories":[],"categories_nodes":[],"categories_segments":[],"categories_sizes":[],"default_left":[0],"id":58,"left_children":[-1],"loss_changes":[0E0],"parents":[2147483647],"right_children":[-1],"split_conditions":[3.9808013E-4],"split_indices":[0],"split_type":[0],"sum_hessian":[1.082E3],"tree_param":{"num_deleted":"0","num_feature":"14","num_nodes":"1","size_leaf_vector":"1"}},{"base_weights":[-1.192545E-2],"categories":[],"categories_nodes":[],"categories_segments":[],"categories_sizes":[],"default_left":[0],"id":59,"left_children":[-1],"loss_changes":[0E0],"parents":[2147483647],"right_children":[-1],"split_conditions":[-1.6640536E-3],"split_indices":[0],"split_type":[0],"sum_hessian":[1.109E3],"tree_param":{"num_deleted":"0","num_feature":"14","num_nodes":"1","size_leaf_vector":"1"}},{"base_weights":[-2.922753E-3],"categories":[],"categories_nodes":[],"categories_segments":[],"categories_sizes":[],"default_left":[0],"id":60,"left_children":[-1],"loss_changes":[0E0],"parents":[2147483647],"right_children":[-1],"split_conditions":[-4.0783518E-4],"split_indices":[0],"split_type":[0],"sum_hessian":[1.132E3],"tree_param":{"num_deleted":"0","num_feature":"14","num_nodes":"1","size_leaf_vector":"1"}},{"base_weights":[3.8869635E-3],"categories":[],"categories_nodes":[],"categories_segments":[],"categories_sizes":[],"default_left":[0],"id":61,"left_children":[-1],"loss_changes":[0E0],"parents":[2147483647],"right_children":[-1],"split_conditions":[5.4237916E-4],"split_indices":[0],"split_type":[0],"sum_hessian":[1.122E3],"tree_param":{"num_deleted":"0","num_feature":"14","num_nodes":"1","size_leaf_vector":"1"}},{"base_weights":[-7.111501E-3],"categories":[],"categories_nodes":[],"categories_segments":[],"categories_sizes":[],"default_left":[0],"id":62,"left_children":[-1],"loss_changes":[0E0],"parents":[2147483647],"right_children":[-1],"split_conditions":[-9.923248E-4],"split_indices":[0],"split_type":[0],"sum_hessian":[1.119E3],"tree_param":{"num_deleted":"0","num_feature":"14","num_nodes":"1","size_leaf_vector":"1"}},{"base_weights":[5.76105E-4],"categories":[],"categories_nodes":[],"categories_segments":[],"categories_sizes":[],"default_left":[0],"id":63,"left_children":[-1],"loss_changes":[0E0],"parents":[2147483647],"right_children":[-1],"split_conditions":[8.0388556E-5],"split_indices":[0],"split_type":[0],"sum_hessian":[1.081E3],"tree_param":{"num_deleted":"0","num_feature":"14","num_nodes":"1","size_leaf_vector":"1"}},{"base_weights":[4.555134E-4,-3.1186035E-3,7.6582646E-3],"categories":[],"categories_nodes":[],"categories_segments":[],"categories_sizes":[],"default_left":[0,0,0],"id":64,"left_children":[1,-1,-1],"loss_changes":[1.3913918E0,0E0,0E0],"parents":[2147483647,0,0],"right_children":[2,-1,-1],"split_conditions":[1.05E0,-3.1186035E-3,7.6582646E-3],"split_indices":[6,0,0],"split_type":[0,0,0],"sum_hessian":[1.119E3,7.89E2,3.3E2],"tree_param":{"num_deleted":"0","num_feature":"14","num_nodes":"3","size_leaf_vector":"1"}},{"base_weights":[2.4346835E-3],"categories":[],"categories_nodes":[],"categories_segments":[],"categories_sizes":[],"default_left":[0],"id":65,"left_children":[-1],"loss_changes":[0E0],"parents":[2147483647],"right_children":[-1],"split_conditions":[3.397309E-4],"split_indices":[0],"split_type":[0],"sum_hessian":[1.139E3],"tree_param":{"num_deleted":"0","num_feature":"14","num_nodes":"1","size_leaf_vector":"1"}},{"base_weights":[-1.0048111E-2],"categories":[],"categories_nodes":[],"categories_segments":[],"categories_sizes":[],"default_left":[0],"id":66,"left_children":[-1],"loss_changes":[0E0],"parents":[2147483647],"right_children":[-1],"split_conditions":[-1.4020936E-3],"split_indices":[0],"split_type":[0],"sum_hessian":[1.125E3],"tree_param":{"num_deleted":"0","num_feature":"14","num_nodes":"1","size_leaf_vector":"1"}},{"base_weights":[2.5903773E-3],"categories":[],"categories_nodes":[],"categories_segments":[],"categories_sizes":[],"default_left":[0],"id":67,"left_children":[-1],"loss_changes":[0E0],"parents":[2147483647],"right_children":[-1],"split_conditions":[3.6145613E-4],"split_indices":[0],"split_type":[0],"sum_hessian":[1.129E3],"tree_param":{"num_deleted":"0","num_feature":"14","num_nodes":"1","size_leaf_vector":"1"}},{"base_weights":[2.1708612E-3],"categories":[],"categories_nodes":[],"categories_segments":[],"categories_sizes":[],"default_left":[0],"id":68,"left_children":[-1],"loss_changes":[0E0],"parents":[2147483647],"right_children":[-1],"split_conditions":[3.0291767E-4],"split_indices":[0],"split_type":[0],"sum_hessian":[1.116E3],"tree_param":{"num_deleted":"0","num_feature":"14","num_nodes":"1","size_leaf_vector":"1"}},{"base_weights":[7.1864515E-3],"categories":[],"categories_nodes":[],"categories_segments":[],"categories_sizes":[],"default_left":[0],"id":69,"left_children":[-1],"loss_changes":[0E0],"parents":[2147483647],"right_children":[-1],"split_conditions":[1.0027832E-3],"split_indices":[0],"split_type":[0],"sum_hessian":[1.113E3],"tree_param":{"num_deleted":"0","num_feature":"14","num_nodes":"1","size_leaf_vector":"1"}},{"base_weights":[5.1357313E-3],"categories":[],"categories_nodes":[],"categories_segments":[],"categories_sizes":[],"default_left":[0],"id":70,"left_children":[-1],"loss_changes":[0E0],"parents":[2147483647],"right_children":[-1],"split_conditions":[7.166298E-4],"split_indices":[0],"split_type":[0],"sum_hessian":[1.129E3],"tree_param":{"num_deleted":"0","num_feature":"14","num_nodes":"1","size_leaf_vector":"1"}},{"base_weights":[-1.0377996E-2],"categories":[],"categories_nodes":[],"categories_segments":[],"categories_sizes":[],"default_left":[0],"id":71,"left_children":[-1],"loss_changes":[0E0],"parents":[2147483647],"right_children":[-1],"split_conditions":[-1.448125E-3],"split_indices":[0],"split_type":[0],"sum_hessian":[1.126E3],"tree_param":{"num_deleted":"0","num_feature":"14","num_nodes":"1","size_leaf_vector":"1"}},{"base_weights":[-4.165805E-3],"categories":[],"categories_nodes":[],"categories_segments":[],"categories_sizes":[],"default_left":[0],"id":72,"left_children":[-1],"loss_changes":[0E0],"parents":[2147483647],"right_children":[-1],"split_conditions":[-5.812882E-4],"split_indices":[0],"split_type":[0],"sum_hessian":[1.104E3],"tree_param":{"num_deleted":"0","num_feature":"14","num_nodes":"1","size_leaf_vector":"1"}},{"base_weights":[5.360073E-3],"categories":[],"categories_nodes":[],"categories_segments":[],"categories_sizes":[],"default_left":[0],"id":73,"left_children":[-1],"loss_changes":[0E0],"parents":[2147483647],"right_children":[-1],"split_conditions":[7.47934E-4],"split_indices":[0],"split_type":[0],"sum_hessian":[1.093E3],"tree_param":{"num_deleted":"0","num_feature":"14","num_nodes":"1","size_leaf_vector":"1"}},{"base_weights":[8.742884E-5],"categories":[],"categories_nodes":[],"categories_segments":[],"categories_sizes":[],"default_left":[0],"id":74,"left_children":[-1],"loss_changes":[0E0],"parents":[2147483647],"right_children":[-1],"split_conditions":[1.2199647E-5],"split_indices":[0],"split_type":[0],"sum_hessian":[1.136E3],"tree_param":{"num_deleted":"0","num_feature":"14","num_nodes":"1","size_leaf_vector":"1"}},{"base_weights":[6.348857E-3],"categories":[],"categories_nodes":[],"categories_segments":[],"categories_sizes":[],"default_left":[0],"id":75,"left_children":[-1],"loss_changes":[0E0],"parents":[2147483647],"right_children":[-1],"split_conditions":[8.85907E-4],"split_indices":[0],"split_type":[0],"sum_hessian":[1.133E3],"tree_param":{"num_deleted":"0","num_feature":"14","num_nodes":"1","size_leaf_vector":"1"}},{"base_weights":[-7.051497E-3],"categories":[],"categories_nodes":[],"categories_segments":[],"categories_sizes":[],"default_left":[0],"id":76,"left_children":[-1],"loss_changes":[0E0],"parents":[2147483647],"right_children":[-1],"split_conditions":[-9.83952E-4],"split_indices":[0],"split_type":[0],"sum_hessian":[1.125E3],"tree_param":{"num_deleted":"0","num_feature":"14","num_nodes":"1","size_leaf_vector":"1"}},{"base_weights":[-1.3919912E-3],"categories":[],"categories_nodes":[],"categories_segments":[],"categories_sizes":[],"default_left":[0],"id":77,"left_children":[-1],"loss_changes":[0E0],"parents":[2147483647],"right_children":[-1],"split_conditions":[-1.9423569E-4],"split_indices":[0],"split_type":[0],"sum_hessian":[1.099E3],"tree_param":{"num_deleted":"0","num_feature":"14","num_nodes":"1","size_leaf_vector":"1"}},{"base_weights":[-3.2668528E-3],"categories":[],"categories_nodes":[],"categories_segments":[],"categories_sizes":[],"default_left":[0],"id":78,"left_children":[-1],"loss_changes":[0E0],"parents":[2147483647],"right_children":[-1],"split_conditions":[-4.5585018E-4],"split_indices":[0],"split_type":[0],"sum_hessian":[1.097E3],"tree_param":{"num_deleted":"0","num_feature":"14","num_nodes":"1","size_leaf_vector":"1"}},{"base_weights":[2.8945673E-3],"categories":[],"categories_nodes":[],"categories_segments":[],"categories_sizes":[],"default_left":[0],"id":79,"left_children":[-1],"loss_changes":[0E0],"parents":[2147483647],"right_children":[-1],"split_conditions":[4.039022E-4],"split_indices":[0],"split_type":[0],"sum_hessian":[1.101E3],"tree_param":{"num_deleted":"0","num_feature":"14","num_nodes":"1","size_leaf_vector":"1"}},{"base_weights":[-2.5091326E-4],"categories":[],"categories_nodes":[],"categories_segments":[],"categories_sizes":[],"default_left":[0],"id":80,"left_children":[-1],"loss_changes":[0E0],"parents":[2147483647],"right_children":[-1],"split_conditions":[-3.501194E-5],"split_indices":[0],"split_type":[0],"sum_hessian":[1.118E3],"tree_param":{"num_deleted":"0","num_feature":"14","num_nodes":"1","size_leaf_vector":"1"}},{"base_weights":[1.0732667E-2],"categories":[],"categories_nodes":[],"categories_segments":[],"categories_sizes":[],"default_left":[0],"id":81,"left_children":[-1],"loss_changes":[0E0],"parents":[2147483647],"right_children":[-1],"split_conditions":[1.497615E-3],"split_indices":[0],"split_type":[0],"sum_hessian":[1.104E3],"tree_param":{"num_deleted":"0","num_feature":"14","num_nodes":"1","size_leaf_vector":"1"}},{"base_weights":[2.53694E-3],"categories":[],"categories_nodes":[],"categories_segments":[],"categories_sizes":[],"default_left":[0],"id":82,"left_children":[-1],"loss_changes":[0E0],"parents":[2147483647],"right_children":[-1],"split_conditions":[3.5399958E-4],"split_indices":[0],"split_type":[0],"sum_hessian":[1.112E3],"tree_param":{"num_deleted":"0","num_feature":"14","num_nodes":"1","size_leaf_vector":"1"}},{"base_weights":[-6.874732E-3],"categories":[],"categories_nodes":[],"categories_segments":[],"categories_sizes":[],"default_left":[0],"id":83,"left_children":[-1],"loss_changes":[0E0],"parents":[2147483647],"right_children":[-1],"split_conditions":[-9.592865E-4],"split_indices":[0],"split_type":[0],"sum_hessian":[1.13E3],"tree_param":{"num_deleted":"0","num_feature":"14","num_nodes":"1","size_leaf_vector":"1"}},{"base_weights":[-3.046467E-4],"categories":[],"categories_nodes":[],"categories_segments":[],"categories_sizes":[],"default_left":[0],"id":84,"left_children":[-1],"loss_changes":[0E0],"parents":[2147483647],"right_children":[-1],"split_conditions":[-4.2509797E-5],"split_indices":[0],"split_type":[0],"sum_hessian":[1.101E3],"tree_param":{"num_deleted":"0","num_feature":"14","num_nodes":"1","size_leaf_vector":"1"}},{"base_weights":[-2.4131827E-4],"categories":[],"categories_nodes":[],"categories_segments":[],"categories_sizes":[],"default_left":[0],"id":85,"left_children":[-1],"loss_changes":[0E0],"parents":[2147483647],"right_children":[-1],"split_conditions":[-3.3673074E-5],"split_indices":[0],"split_type":[0],"sum_hessian":[1.094E3],"tree_param":{"num_deleted":"0","num_feature":"14","num_nodes":"1","size_leaf_vector":"1"}},{"base_weights":[4.049498E-3],"categories":[],"categories_nodes":[],"categories_segments":[],"categories_sizes":[],"default_left":[0],"id":86,"left_children":[-1],"loss_changes":[0E0],"parents":[2147483647],"right_children":[-1],"split_conditions":[5.6505896E-4],"split_indices":[0],"split_type":[0],"sum_hessian":[1.133E3],"tree_param":{"num_deleted":"0","num_feature":"14","num_nodes":"1","size_leaf_vector":"1"}},{"base_weights":[-5.690142E-3],"categories":[],"categories_nodes":[],"categories_segments":[],"categories_sizes":[],"default_left":[0],"id":87,"left_children":[-1],"loss_changes":[0E0],"parents":[2147483647],"right_children":[-1],"split_conditions":[-7.9399114E-4],"split_indices":[0],"split_type":[0],"sum_hessian":[1.084E3],"tree_param":{"num_deleted":"0","num_feature":"14","num_nodes":"1","size_leaf_vector":"1"}},{"base_weights":[4.512977E-3],"categories":[],"categories_nodes":[],"categories_segments":[],"categories_sizes":[],"default_left":[0],"id":88,"left_children":[-1],"loss_changes":[0E0],"parents":[2147483647],"right_children":[-1],"split_conditions":[6.2973186E-4],"split_indices":[0],"split_type":[0],"sum_hessian":[1.117E3],"tree_param":{"num_deleted":"0","num_feature":"14","num_nodes":"1","size_leaf_vector":"1"}},{"base_weights":[1.3366526E-3],"categories":[],"categories_nodes":[],"categories_segments":[],"categories_sizes":[],"default_left":[0],"id":89,"left_children":[-1],"loss_changes":[0E0],"parents":[2147483647],"right_children":[-1],"split_conditions":[1.8651385E-4],"split_indices":[0],"split_type":[0],"sum_hessian":[1.136E3],"tree_param":{"num_deleted":"0","num_feature":"14","num_nodes":"1","size_leaf_vector":"1"}},{"base_weights":[-4.298357E-3],"categories":[],"categories_nodes":[],"categories_segments":[],"categories_sizes":[],"default_left":[0],"id":90,"left_children":[-1],"loss_changes":[0E0],"parents":[2147483647],"right_children":[-1],"split_conditions":[-5.997842E-4],"split_indices":[0],"split_type":[0],"sum_hessian":[1.127E3],"tree_param":{"num_deleted":"0","num_feature":"14","num_nodes":"1","size_leaf_vector":"1"}},{"base_weights":[4.145065E-3],"categories":[],"categories_nodes":[],"categories_segments":[],"categories_sizes":[],"default_left":[0],"id":91,"left_children":[-1],"loss_changes":[0E0],"parents":[2147483647],"right_children":[-1],"split_conditions":[5.7839416E-4],"split_indices":[0],"split_type":[0],"sum_hessian":[1.105E3],"tree_param":{"num_deleted":"0","num_feature":"14","num_nodes":"1","size_leaf_vector":"1"}},{"base_weights":[-2.153766E-3],"categories":[],"categories_nodes":[],"categories_segments":[],"categories_sizes":[],"default_left":[0],"id":92,"left_children":[-1],"loss_changes":[0E0],"parents":[2147483647],"right_children":[-1],"split_conditions":[-3.0053227E-4],"split_indices":[0],"split_type":[0],"sum_hessian":[1.1E3],"tree_param":{"num_deleted":"0","num_feature":"14","num_nodes":"1","size_leaf_vector":"1"}},{"base_weights":[9.176699E-3],"categories":[],"categories_nodes":[],"categories_segments":[],"categories_sizes":[],"default_left":[0],"id":93,"left_children":[-1],"loss_changes":[0E0],"parents":[2147483647],"right_children":[-1],"split_conditions":[1.2804985E-3],"split_indices":[0],"split_type":[0],"sum_hessian":[1.103E3],"tree_param":{"num_deleted":"0","num_feature":"14","num_nodes":"1","size_leaf_vector":"1"}},{"base_weights":[-4.1889143E-3],"categories":[],"categories_nodes":[],"categories_segments":[],"categories_sizes":[],"default_left":[0],"id":94,"left_children":[-1],"loss_changes":[0E0],"parents":[2147483647],"right_children":[-1],"split_conditions":[-5.8451283E-4],"split_indices":[0],"split_type":[0],"sum_hessian":[1.094E3],"tree_param":{"num_deleted":"0","num_feature":"14","num_nodes":"1","size_leaf_vector":"1"}},{"base_weights":[-3.4867803E-4],"categories":[],"categories_nodes":[],"categories_segments":[],"categories_sizes":[],"default_left":[0],"id":95,"left_children":[-1],"loss_changes":[0E0],"parents":[2147483647],"right_children":[-1],"split_conditions":[-4.865384E-5],"split_indices":[0],"split_type":[0],"sum_hessian":[1.108E3],"tree_param":{"num_deleted":"0","num_feature":"14","num_nodes":"1","size_leaf_vector":"1"}},{"base_weights":[-3.4793064E-3],"categories":[],"categories_nodes":[],"categories_segments":[],"categories_sizes":[],"default_left":[0],"id":96,"left_children":[-1],"loss_changes":[0E0],"parents":[2147483647],"right_children":[-1],"split_conditions":[-4.8549552E-4],"split_indices":[0],"split_type":[0],"sum_hessian":[1.129E3],"tree_param":{"num_deleted":"0","num_feature":"14","num_nodes":"1","size_leaf_vector":"1"}},{"base_weights":[-8.808493E-3],"categories":[],"categories_nodes":[],"categories_segments":[],"categories_sizes":[],"default_left":[0],"id":97,"left_children":[-1],"loss_changes":[0E0],"parents":[2147483647],"right_children":[-1],"split_conditions":[-1.2291196E-3],"split_indices":[0],"split_type":[0],"sum_hessian":[1.163E3],"tree_param":{"num_deleted":"0","num_feature":"14","num_nodes":"1","size_leaf_vector":"1"}},{"base_weights":[6.6862614E-3],"categories":[],"categories_nodes":[],"categories_segments":[],"categories_sizes":[],"default_left":[0],"id":98,"left_children":[-1],"loss_changes":[0E0],"parents":[2147483647],"right_children":[-1],"split_conditions":[9.3298766E-4],"split_indices":[0],"split_type":[0],"sum_hessian":[1.077E3],"tree_param":{"num_deleted":"0","num_feature":"14","num_nodes":"1","size_leaf_vector":"1"}},{"base_weights":[2.5323285E-3],"categories":[],"categories_nodes":[],"categories_segments":[],"categories_sizes":[],"default_left":[0],"id":99,"left_children":[-1],"loss_changes":[0E0],"parents":[2147483647],"right_children":[-1],"split_conditions":[3.533561E-4],"split_indices":[0],"split_type":[0],"sum_hessian":[1.114E3],"tree_param":{"num_deleted":"0","num_feature":"14","num_nodes":"1","size_leaf_vector":"1"}},{"base_weights":[4.500169E-4],"categories":[],"categories_nodes":[],"categories_segments":[],"categories_sizes":[],"default_left":[0],"id":100,"left_children":[-1],"loss_changes":[0E0],"parents":[2147483647],"right_children":[-1],"split_conditions":[6.279447E-5],"split_indices":[0],"split_type":[0],"sum_hessian":[1.151E3],"tree_param":{"num_deleted":"0","num_feature":"14","num_nodes":"1","size_leaf_vector":"1"}},{"base_weights":[-7.852038E-4],"categories":[],"categories_nodes":[],"categories_segments":[],"categories_sizes":[],"default_left":[0],"id":101,"left_children":[-1],"loss_changes":[0E0],"parents":[2147483647],"right_children":[-1],"split_conditions":[-1.09565786E-4],"split_indices":[0],"split_type":[0],"sum_hessian":[1.109E3],"tree_param":{"num_deleted":"0","num_feature":"14","num_nodes":"1","size_leaf_vector":"1"}},{"base_weights":[2.426205E-3],"categories":[],"categories_nodes":[],"categories_segments":[],"categories_sizes":[],"default_left":[0],"id":102,"left_children":[-1],"loss_changes":[0E0],"parents":[2147483647],"right_children":[-1],"split_conditions":[3.3854783E-4],"split_indices":[0],"split_type":[0],"sum_hessian":[1.099E3],"tree_param":{"num_deleted":"0","num_feature":"14","num_nodes":"1","size_leaf_vector":"1"}},{"base_weights":[-1.2947944E-2],"categories":[],"categories_nodes":[],"categories_segments":[],"categories_sizes":[],"default_left":[0],"id":103,"left_children":[-1],"loss_changes":[0E0],"parents":[2147483647],"right_children":[-1],"split_conditions":[-1.8067305E-3],"split_indices":[0],"split_type":[0],"sum_hessian":[1.106E3],"tree_param":{"num_deleted":"0","num_feature":"14","num_nodes":"1","size_leaf_vector":"1"}},{"base_weights":[-4.3680673E-4],"categories":[],"categories_nodes":[],"categories_segments":[],"categories_sizes":[],"default_left":[0],"id":104,"left_children":[-1],"loss_changes":[0E0],"parents":[2147483647],"right_children":[-1],"split_conditions":[-6.0951148E-5],"split_indices":[0],"split_type":[0],"sum_hessian":[1.096E3],"tree_param":{"num_deleted":"0","num_feature":"14","num_nodes":"1","size_leaf_vector":"1"}},{"base_weights":[-4.871736E-3],"categories":[],"categories_nodes":[],"categories_segments":[],"categories_sizes":[],"default_left":[0],"id":105,"left_children":[-1],"loss_changes":[0E0],"parents":[2147483647],"right_children":[-1],"split_conditions":[-6.7979237E-4],"split_indices":[0],"split_type":[0],"sum_hessian":[1.139E3],"tree_param":{"num_deleted":"0","num_feature":"14","num_nodes":"1","size_leaf_vector":"1"}},{"base_weights":[2.9873385E-3],"categories":[],"categories_nodes":[],"categories_segments":[],"categories_sizes":[],"default_left":[0],"id":106,"left_children":[-1],"loss_changes":[0E0],"parents":[2147483647],"right_children":[-1],"split_conditions":[4.168473E-4],"split_indices":[0],"split_type":[0],"sum_hessian":[1.094E3],"tree_param":{"num_deleted":"0","num_feature":"14","num_nodes":"1","size_leaf_vector":"1"}},{"base_weights":[-4.3538734E-3],"categories":[],"categories_nodes":[],"categories_segments":[],"categories_sizes":[],"default_left":[0],"id":107,"left_children":[-1],"loss_changes":[0E0],"parents":[2147483647],"right_children":[-1],"split_conditions":[-6.075309E-4],"split_indices":[0],"split_type":[0],"sum_hessian":[1.107E3],"tree_param":{"num_deleted":"0","num_feature":"14","num_nodes":"1","size_leaf_vector":"1"}},{"base_weights":[5.175731E-3],"categories":[],"categories_nodes":[],"categories_segments":[],"categories_sizes":[],"default_left":[0],"id":108,"left_children":[-1],"loss_changes":[0E0],"parents":[2147483647],"right_children":[-1],"split_conditions":[7.2221126E-4],"split_indices":[0],"split_type":[0],"sum_hessian":[1.104E3],"tree_param":{"num_deleted":"0","num_feature":"14","num_nodes":"1","size_leaf_vector":"1"}},{"base_weights":[-6.5465355E-3],"categories":[],"categories_nodes":[],"categories_segments":[],"categories_sizes":[],"default_left":[0],"id":109,"left_children":[-1],"loss_changes":[0E0],"parents":[2147483647],"right_children":[-1],"split_conditions":[-9.134906E-4],"split_indices":[0],"split_type":[0],"sum_hessian":[1.102E3],"tree_param":{"num_deleted":"0","num_feature":"14","num_nodes":"1","size_leaf_vector":"1"}},{"base_weights":[-4.694211E-3],"categories":[],"categories_nodes":[],"categories_segments":[],"categories_sizes":[],"default_left":[0],"id":110,"left_children":[-1],"loss_changes":[0E0],"parents":[2147483647],"right_children":[-1],"split_conditions":[-6.550209E-4],"split_indices":[0],"split_type":[0],"sum_hessian":[1.109E3],"tree_param":{"num_deleted":"0","num_feature":"14","num_nodes":"1","size_leaf_vector":"1"}},{"base_weights":[-3.2044873E-3],"categories":[],"categories_nodes":[],"categories_segments":[],"categories_sizes":[],"default_left":[0],"id":111,"left_children":[-1],"loss_changes":[0E0],"parents":[2147483647],"right_children":[-1],"split_conditions":[-4.4714782E-4],"split_indices":[0],"split_type":[0],"sum_hessian":[1.116E3],"tree_param":{"num_deleted":"0","num_feature":"14","num_nodes":"1","size_leaf_vector":"1"}},{"base_weights":[7.857116E-4],"categories":[],"categories_nodes":[],"categories_segments":[],"categories_sizes":[],"default_left":[0],"id":112,"left_children":[-1],"loss_changes":[0E0],"parents":[2147483647],"right_children":[-1],"split_conditions":[1.0963665E-4],"split_indices":[0],"split_type":[0],"sum_hessian":[1.119E3],"tree_param":{"num_deleted":"0","num_feature":"14","num_nodes":"1","size_leaf_vector":"1"}},{"base_weights":[4.339576E-3],"categories":[],"categories_nodes":[],"categories_segments":[],"categories_sizes":[],"default_left":[0],"id":113,"left_children":[-1],"loss_changes":[0E0],"parents":[2147483647],"right_children":[-1],"split_conditions":[6.055358E-4],"split_indices":[0],"split_type":[0],"sum_hessian":[1.09E3],"tree_param":{"num_deleted":"0","num_feature":"14","num_nodes":"1","size_leaf_vector":"1"}},{"base_weights":[4.8193117E-3],"categories":[],"categories_nodes":[],"categories_segments":[],"categories_sizes":[],"default_left":[0],"id":114,"left_children":[-1],"loss_changes":[0E0],"parents":[2147483647],"right_children":[-1],"split_conditions":[6.724772E-4],"split_indices":[0],"split_type":[0],"sum_hessian":[1.124E3],"tree_param":{"num_deleted":"0","num_feature":"14","num_nodes":"1","size_leaf_vector":"1"}},{"base_weights":[1.1550102E-3],"categories":[],"categories_nodes":[],"categories_segments":[],"categories_sizes":[],"default_left":[0],"id":115,"left_children":[-1],"loss_changes":[0E0],"parents":[2147483647],"right_children":[-1],"split_conditions":[1.6116783E-4],"split_indices":[0],"split_type":[0],"sum_hessian":[1.132E3],"tree_param":{"num_deleted":"0","num_feature":"14","num_nodes":"1","size_leaf_vector":"1"}},{"base_weights":[-2.1366717E-3],"categories":[],"categories_nodes":[],"categories_segments":[],"categories_sizes":[],"default_left":[0],"id":116,"left_children":[-1],"loss_changes":[0E0],"parents":[2147483647],"right_children":[-1],"split_conditions":[-2.9814694E-4],"split_indices":[0],"split_type":[0],"sum_hessian":[1.098E3],"tree_param":{"num_deleted":"0","num_feature":"14","num_nodes":"1","size_leaf_vector":"1"}},{"base_weights":[-1.8412952E-3],"categories":[],"categories_nodes":[],"categories_segments":[],"categories_sizes":[],"default_left":[0],"id":117,"left_children":[-1],"loss_changes":[0E0],"parents":[2147483647],"right_children":[-1],"split_conditions":[-2.5693068E-4],"split_indices":[0],"split_type":[0],"sum_hessian":[1.11E3],"tree_param":{"num_deleted":"0","num_feature":"14","num_nodes":"1","size_leaf_vector":"1"}},{"base_weights":[-2.3443867E-3],"categories":[],"categories_nodes":[],"categories_segments":[],"categories_sizes":[],"default_left":[0],"id":118,"left_children":[-1],"loss_changes":[0E0],"parents":[2147483647],"right_children":[-1],"split_conditions":[-3.2713107E-4],"split_indices":[0],"split_type":[0],"sum_hessian":[1.098E3],"tree_param":{"num_deleted":"0","num_feature":"14","num_nodes":"1","size_leaf_vector":"1"}},{"base_weights":[-3.673368E-3],"categories":[],"categories_nodes":[],"categories_segments":[],"categories_sizes":[],"default_left":[0],"id":119,"left_children":[-1],"loss_changes":[0E0],"parents":[2147483647],"right_children":[-1],"split_conditions":[-5.125745E-4],"split_indices":[0],"split_type":[0],"sum_hessian":[1.125E3],"tree_param":{"num_deleted":"0","num_feature":"14","num_nodes":"1","size_leaf_vector":"1"}},{"base_weights":[6.236732E-3],"categories":[],"categories_nodes":[],"categories_segments":[],"categories_sizes":[],"default_left":[0],"id":120,"left_children":[-1],"loss_changes":[0E0],"parents":[2147483647],"right_children":[-1],"split_conditions":[8.702612E-4],"split_indices":[0],"split_type":[0],"sum_hessian":[1.132E3],"tree_param":{"num_deleted":"0","num_feature":"14","num_nodes":"1","size_leaf_vector":"1"}},{"base_weights":[9.918438E-3],"categories":[],"categories_nodes":[],"categories_segments":[],"categories_sizes":[],"default_left":[0],"id":121,"left_children":[-1],"loss_changes":[0E0],"parents":[2147483647],"right_children":[-1],"split_conditions":[1.3839992E-3],"split_indices":[0],"split_type":[0],"sum_hessian":[1.127E3],"tree_param":{"num_deleted":"0","num_feature":"14","num_nodes":"1","size_leaf_vector":"1"}},{"base_weights":[2.8891766E-3],"categories":[],"categories_nodes":[],"categories_segments":[],"categories_sizes":[],"default_left":[0],"id":122,"left_children":[-1],"loss_changes":[0E0],"parents":[2147483647],"right_children":[-1],"split_conditions":[4.0314998E-4],"split_indices":[0],"split_type":[0],"sum_hessian":[1.141E3],"tree_param":{"num_deleted":"0","num_feature":"14","num_nodes":"1","size_leaf_vector":"1"}},{"base_weights":[8.0800895E-4],"categories":[],"categories_nodes":[],"categories_segments":[],"categories_sizes":[],"default_left":[0],"id":123,"left_children":[-1],"loss_changes":[0E0],"parents":[2147483647],"right_children":[-1],"split_conditions":[1.1274797E-4],"split_indices":[0],"split_type":[0],"sum_hessian":[1.136E3],"tree_param":{"num_deleted":"0","num_feature":"14","num_nodes":"1","size_leaf_vector":"1"}},{"base_weights":[1.8317527E-3],"categories":[],"categories_nodes":[],"categories_segments":[],"categories_sizes":[],"default_left":[0],"id":124,"left_children":[-1],"loss_changes":[0E0],"parents":[2147483647],"right_children":[-1],"split_conditions":[2.5559915E-4],"split_indices":[0],"split_type":[0],"sum_hessian":[1.124E3],"tree_param":{"num_deleted":"0","num_feature":"14","num_nodes":"1","size_leaf_vector":"1"}},{"base_weights":[7.847928E-4],"categories":[],"categories_nodes":[],"categories_segments":[],"categories_sizes":[],"default_left":[0],"id":125,"left_children":[-1],"loss_changes":[0E0],"parents":[2147483647],"right_children":[-1],"split_conditions":[1.0950844E-4],"split_indices":[0],"split_type":[0],"sum_hessian":[1.051E3],"tree_param":{"num_deleted":"0","num_feature":"14","num_nodes":"1","size_leaf_vector":"1"}},{"base_weights":[-1.2046809E-3],"categories":[],"categories_nodes":[],"categories_segments":[],"categories_sizes":[],"default_left":[0],"id":126,"left_children":[-1],"loss_changes":[0E0],"parents":[2147483647],"right_children":[-1],"split_conditions":[-1.6809879E-4],"split_indices":[0],"split_type":[0],"sum_hessian":[1.121E3],"tree_param":{"num_deleted":"0","num_feature":"14","num_nodes":"1","size_leaf_vector":"1"}},{"base_weights":[-2.1204755E-3],"categories":[],"categories_nodes":[],"categories_segments":[],"categories_sizes":[],"default_left":[0],"id":127,"left_children":[-1],"loss_changes":[0E0],"parents":[2147483647],"right_children":[-1],"split_conditions":[-2.9588694E-4],"split_indices":[0],"split_type":[0],"sum_hessian":[1.145E3],"tree_param":{"num_deleted":"0","num_feature":"14","num_nodes":"1","size_leaf_vector":"1"}},{"base_weights":[3.6123146E-3],"categories":[],"categories_nodes":[],"categories_segments":[],"categories_sizes":[],"default_left":[0],"id":128,"left_children":[-1],"loss_changes":[0E0],"parents":[2147483647],"right_children":[-1],"split_conditions":[5.0405524E-4],"split_indices":[0],"split_type":[0],"sum_hessian":[1.114E3],"tree_param":{"num_deleted":"0","num_feature":"14","num_nodes":"1","size_leaf_vector":"1"}},{"base_weights":[-8.799478E-3],"categories":[],"categories_nodes":[],"categories_segments":[],"categories_sizes":[],"default_left":[0],"id":129,"left_children":[-1],"loss_changes":[0E0],"parents":[2147483647],"right_children":[-1],"split_conditions":[-1.2278617E-3],"split_indices":[0],"split_type":[0],"sum_hessian":[1.097E3],"tree_param":{"num_deleted":"0","num_feature":"14","num_nodes":"1","size_leaf_vector":"1"}},{"base_weights":[-2.909039E-3],"categories":[],"categories_nodes":[],"categories_segments":[],"categories_sizes":[],"default_left":[0],"id":130,"left_children":[-1],"loss_changes":[0E0],"parents":[2147483647],"right_children":[-1],"split_conditions":[-4.0592154E-4],"split_indices":[0],"split_type":[0],"sum_hessian":[1.121E3],"tree_param":{"num_deleted":"0","num_feature":"14","num_nodes":"1","size_leaf_vector":"1"}},{"base_weights":[-1.0969808E-3],"categories":[],"categories_nodes":[],"categories_segments":[],"categories_sizes":[],"default_left":[0],"id":131,"left_children":[-1],"loss_changes":[0E0],"parents":[2147483647],"right_children":[-1],"split_conditions":[-1.5307052E-4],"split_indices":[0],"split_type":[0],"sum_hessian":[1.078E3],"tree_param":{"num_deleted":"0","num_feature":"14","num_nodes":"1","size_leaf_vector":"1"}},{"base_weights":[4.1777566E-3],"categories":[],"categories_nodes":[],"categories_segments":[],"categories_sizes":[],"default_left":[0],"id":132,"left_children":[-1],"loss_changes":[0E0],"parents":[2147483647],"right_children":[-1],"split_conditions":[5.829559E-4],"split_indices":[0],"split_type":[0],"sum_hessian":[1.112E3],"tree_param":{"num_deleted":"0","num_feature":"14","num_nodes":"1","size_leaf_vector":"1"}},{"base_weights":[-6.3561834E-4],"categories":[],"categories_nodes":[],"categories_segments":[],"categories_sizes":[],"default_left":[0],"id":133,"left_children":[-1],"loss_changes":[0E0],"parents":[2147483647],"right_children":[-1],"split_conditions":[-8.869293E-5],"split_indices":[0],"split_type":[0],"sum_hessian":[1.075E3],"tree_param":{"num_deleted":"0","num_feature":"14","num_nodes":"1","size_leaf_vector":"1"}},{"base_weights":[-7.171455E-4],"categories":[],"categories_nodes":[],"categories_segments":[],"categories_sizes":[],"default_left":[0],"id":134,"left_children":[-1],"loss_changes":[0E0],"parents":[2147483647],"right_children":[-1],"split_conditions":[-1.0006906E-4],"split_indices":[0],"split_type":[0],"sum_hessian":[1.134E3],"tree_param":{"num_deleted":"0","num_feature":"14","num_nodes":"1","size_leaf_vector":"1"}},{"base_weights":[8.752972E-3],"categories":[],"categories_nodes":[],"categories_segments":[],"categories_sizes":[],"default_left":[0],"id":135,"left_children":[-1],"loss_changes":[0E0],"parents":[2147483647],"right_children":[-1],"split_conditions":[1.2213724E-3],"split_indices":[0],"split_type":[0],"sum_hessian":[1.135E3],"tree_param":{"num_deleted":"0","num_feature":"14","num_nodes":"1","size_leaf_vector":"1"}},{"base_weights":[-1.3692756E-2],"categories":[],"categories_nodes":[],"categories_segments":[],"categories_sizes":[],"default_left":[0],"id":136,"left_children":[-1],"loss_changes":[0E0],"parents":[2147483647],"right_children":[-1],"split_conditions":[-1.9106601E-3],"split_indices":[0],"split_type":[0],"sum_hessian":[1.078E3],"tree_param":{"num_deleted":"0","num_feature":"14","num_nodes":"1","size_leaf_vector":"1"}},{"base_weights":[-1.9804355E-4],"categories":[],"categories_nodes":[],"categories_segments":[],"categories_sizes":[],"default_left":[0],"id":137,"left_children":[-1],"loss_changes":[0E0],"parents":[2147483647],"right_children":[-1],"split_conditions":[-2.7634605E-5],"split_indices":[0],"split_type":[0],"sum_hessian":[1.129E3],"tree_param":{"num_deleted":"0","num_feature":"14","num_nodes":"1","size_leaf_vector":"1"}},{"base_weights":[2.3618108E-3],"categories":[],"categories_nodes":[],"categories_segments":[],"categories_sizes":[],"default_left":[0],"id":138,"left_children":[-1],"loss_changes":[0E0],"parents":[2147483647],"right_children":[-1],"split_conditions":[3.295624E-4],"split_indices":[0],"split_type":[0],"sum_hessian":[1.103E3],"tree_param":{"num_deleted":"0","num_feature":"14","num_nodes":"1","size_leaf_vector":"1"}},{"base_weights":[6.4925365E-3],"categories":[],"categories_nodes":[],"categories_segments":[],"categories_sizes":[],"default_left":[0],"id":139,"left_children":[-1],"loss_changes":[0E0],"parents":[2147483647],"right_children":[-1],"split_conditions":[9.059557E-4],"split_indices":[0],"split_type":[0],"sum_hessian":[1.138E3],"tree_param":{"num_deleted":"0","num_feature":"14","num_nodes":"1","size_leaf_vector":"1"}},{"base_weights":[3.8966818E-3],"categories":[],"categories_nodes":[],"categories_segments":[],"categories_sizes":[],"default_left":[0],"id":140,"left_children":[-1],"loss_changes":[0E0],"parents":[2147483647],"right_children":[-1],"split_conditions":[5.437353E-4],"split_indices":[0],"split_type":[0],"sum_hessian":[1.132E3],"tree_param":{"num_deleted":"0","num_feature":"14","num_nodes":"1","size_leaf_vector":"1"}},{"base_weights":[8.9854014E-4,-3.3244825E-4,5.525438E-2],"categories":[],"categories_nodes":[],"categories_segments":[],"categories_sizes":[],"default_left":[0,0,0],"id":141,"left_children":[1,-1,-1],"loss_changes":[1.4164788E0,0E0,0E0],"parents":[2147483647,0,0],"right_children":[2,-1,-1],"split_conditions":[1.7500002E1,-3.3244825E-4,5.525438E-2],"split_indices":[6,0,0],"split_type":[0,0,0],"sum_hessian":[1.091E3,1.083E3,8E0],"tree_param":{"num_deleted":"0","num_feature":"14","num_nodes":"3","size_leaf_vector":"1"}},{"base_weights":[-3.6170066E-4],"categories":[],"categories_nodes":[],"categories_segments":[],"categories_sizes":[],"default_left":[0],"id":142,"left_children":[-1],"loss_changes":[0E0],"parents":[2147483647],"right_children":[-1],"split_conditions":[-5.0470993E-5],"split_indices":[0],"split_type":[0],"sum_hessian":[1.081E3],"tree_param":{"num_deleted":"0","num_feature":"14","num_nodes":"1","size_leaf_vector":"1"}},{"base_weights":[-2.748825E-3],"categories":[],"categories_nodes":[],"categories_segments":[],"categories_sizes":[],"default_left":[0],"id":143,"left_children":[-1],"loss_changes":[0E0],"parents":[2147483647],"right_children":[-1],"split_conditions":[-3.8356558E-4],"split_indices":[0],"split_type":[0],"sum_hessian":[1.09E3],"tree_param":{"num_deleted":"0","num_feature":"14","num_nodes":"1","size_leaf_vector":"1"}},{"base_weights":[9.527641E-3],"categories":[],"categories_nodes":[],"categories_segments":[],"categories_sizes":[],"default_left":[0],"id":144,"left_children":[-1],"loss_changes":[0E0],"parents":[2147483647],"right_children":[-1],"split_conditions":[1.3294682E-3],"split_indices":[0],"split_type":[0],"sum_hessian":[1.117E3],"tree_param":{"num_deleted":"0","num_feature":"14","num_nodes":"1","size_leaf_vector":"1"}},{"base_weights":[5.587794E-3],"categories":[],"categories_nodes":[],"categories_segments":[],"categories_sizes":[],"default_left":[0],"id":145,"left_children":[-1],"loss_changes":[0E0],"parents":[2147483647],"right_children":[-1],"split_conditions":[7.797097E-4],"split_indices":[0],"split_type":[0],"sum_hessian":[1.093E3],"tree_param":{"num_deleted":"0","num_feature":"14","num_nodes":"1","size_leaf_vector":"1"}},{"base_weights":[1.0404288E-4],"categories":[],"categories_nodes":[],"categories_segments":[],"categories_sizes":[],"default_left":[0],"id":146,"left_children":[-1],"loss_changes":[0E0],"parents":[2147483647],"right_children":[-1],"split_conditions":[1.4517938E-5],"split_indices":[0],"split_type":[0],"sum_hessian":[1.107E3],"tree_param":{"num_deleted":"0","num_feature":"14","num_nodes":"1","size_leaf_vector":"1"}},{"base_weights":[-5.7265384E-4],"categories":[],"categories_nodes":[],"categories_segments":[],"categories_sizes":[],"default_left":[0],"id":147,"left_children":[-1],"loss_changes":[0E0],"parents":[2147483647],"right_children":[-1],"split_conditions":[-7.990698E-5],"split_indices":[0],"split_type":[0],"sum_hessian":[1.129E3],"tree_param":{"num_deleted":"0","num_feature":"14","num_nodes":"1","size_leaf_vector":"1"}},{"base_weights":[3.6533717E-3],"categories":[],"categories_nodes":[],"categories_segments":[],"categories_sizes":[],"default_left":[0],"id":148,"left_children":[-1],"loss_changes":[0E0],"parents":[2147483647],"right_children":[-1],"split_conditions":[5.0978427E-4],"split_indices":[0],"split_type":[0],"sum_hessian":[1.089E3],"tree_param":{"num_deleted":"0","num_feature":"14","num_nodes":"1","size_leaf_vector":"1"}},{"base_weights":[-3.1099436E-5],"categories":[],"categories_nodes":[],"categories_segments":[],"categories_sizes":[],"default_left":[0],"id":149,"left_children":[-1],"loss_changes":[0E0],"parents":[2147483647],"right_children":[-1],"split_conditions":[-4.339554E-6],"split_indices":[0],"split_type":[0],"sum_hessian":[1.102E3],"tree_param":{"num_deleted":"0","num_feature":"14","num_nodes":"1","size_leaf_vector":"1"}},{"base_weights":[5.263092E-3],"categories":[],"categories_nodes":[],"categories_segments":[],"categories_sizes":[],"default_left":[0],"id":150,"left_children":[-1],"loss_changes":[0E0],"parents":[2147483647],"right_children":[-1],"split_conditions":[7.3440146E-4],"split_indices":[0],"split_type":[0],"sum_hessian":[1.111E3],"tree_param":{"num_deleted":"0","num_feature":"14","num_nodes":"1","size_leaf_vector":"1"}},{"base_weights":[-6.6494374E-3],"categories":[],"categories_nodes":[],"categories_segments":[],"categories_sizes":[],"default_left":[0],"id":151,"left_children":[-1],"loss_changes":[0E0],"parents":[2147483647],"right_children":[-1],"split_conditions":[-9.278493E-4],"split_indices":[0],"split_type":[0],"sum_hessian":[1.092E3],"tree_param":{"num_deleted":"0","num_feature":"14","num_nodes":"1","size_leaf_vector":"1"}},{"base_weights":[9.231861E-4],"categories":[],"categories_nodes":[],"categories_segments":[],"categories_sizes":[],"default_left":[0],"id":152,"left_children":[-1],"loss_changes":[0E0],"parents":[2147483647],"right_children":[-1],"split_conditions":[1.2881956E-4],"split_indices":[0],"split_type":[0],"sum_hessian":[1.113E3],"tree_param":{"num_deleted":"0","num_feature":"14","num_nodes":"1","size_leaf_vector":"1"}},{"base_weights":[-6.5990334E-4],"categories":[],"categories_nodes":[],"categories_segments":[],"categories_sizes":[],"default_left":[0],"id":153,"left_children":[-1],"loss_changes":[0E0],"parents":[2147483647],"right_children":[-1],"split_conditions":[-9.20816E-5],"split_indices":[0],"split_type":[0],"sum_hessian":[1.109E3],"tree_param":{"num_deleted":"0","num_feature":"14","num_nodes":"1","size_leaf_vector":"1"}},{"base_weights":[2.200308E-3],"categories":[],"categories_nodes":[],"categories_segments":[],"categories_sizes":[],"default_left":[0],"id":154,"left_children":[-1],"loss_changes":[0E0],"parents":[2147483647],"right_children":[-1],"split_conditions":[3.070266E-4],"split_indices":[0],"split_type":[0],"sum_hessian":[1.108E3],"tree_param":{"num_deleted":"0","num_feature":"14","num_nodes":"1","size_leaf_vector":"1"}},{"base_weights":[3.0311071E-3],"categories":[],"categories_nodes":[],"categories_segments":[],"categories_sizes":[],"default_left":[0],"id":155,"left_children":[-1],"loss_changes":[0E0],"parents":[2147483647],"right_children":[-1],"split_conditions":[4.2295468E-4],"split_indices":[0],"split_type":[0],"sum_hessian":[1.122E3],"tree_param":{"num_deleted":"0","num_feature":"14","num_nodes":"1","size_leaf_vector":"1"}},{"base_weights":[7.819614E-3],"categories":[],"categories_nodes":[],"categories_segments":[],"categories_sizes":[],"default_left":[0],"id":156,"left_children":[-1],"loss_changes":[0E0],"parents":[2147483647],"right_children":[-1],"split_conditions":[1.0911335E-3],"split_indices":[0],"split_type":[0],"sum_hessian":[1.105E3],"tree_param":{"num_deleted":"0","num_feature":"14","num_nodes":"1","size_leaf_vector":"1"}},{"base_weights":[-4.5585847E-3],"categories":[],"categories_nodes":[],"categories_segments":[],"categories_sizes":[],"default_left":[0],"id":157,"left_children":[-1],"loss_changes":[0E0],"parents":[2147483647],"right_children":[-1],"split_conditions":[-6.360959E-4],"split_indices":[0],"split_type":[0],"sum_hessian":[1.148E3],"tree_param":{"num_deleted":"0","num_feature":"14","num_nodes":"1","size_leaf_vector":"1"}},{"base_weights":[-9.221194E-3],"categories":[],"categories_nodes":[],"categories_segments":[],"categories_sizes":[],"default_left":[0],"id":158,"left_children":[-1],"loss_changes":[0E0],"parents":[2147483647],"right_children":[-1],"split_conditions":[-1.2867072E-3],"split_indices":[0],"split_type":[0],"sum_hessian":[1.138E3],"tree_param":{"num_deleted":"0","num_feature":"14","num_nodes":"1","size_leaf_vector":"1"}},{"base_weights":[-8.3614106E-4],"categories":[],"categories_nodes":[],"categories_segments":[],"categories_sizes":[],"default_left":[0],"id":159,"left_children":[-1],"loss_changes":[0E0],"parents":[2147483647],"right_children":[-1],"split_conditions":[-1.16673466E-4],"split_indices":[0],"split_type":[0],"sum_hessian":[1.11E3],"tree_param":{"num_deleted":"0","num_feature":"14","num_nodes":"1","size_leaf_vector":"1"}},{"base_weights":[-4.821917E-3],"categories":[],"categories_nodes":[],"categories_segments":[],"categories_sizes":[],"default_left":[0],"id":160,"left_children":[-1],"loss_changes":[0E0],"parents":[2147483647],"right_children":[-1],"split_conditions":[-6.7284075E-4],"split_indices":[0],"split_type":[0],"sum_hessian":[1.131E3],"tree_param":{"num_deleted":"0","num_feature":"14","num_nodes":"1","size_leaf_vector":"1"}},{"base_weights":[-3.244527E-3],"categories":[],"categories_nodes":[],"categories_segments":[],"categories_sizes":[],"default_left":[0],"id":161,"left_children":[-1],"loss_changes":[0E0],"parents":[2147483647],"right_children":[-1],"split_conditions":[-4.5273485E-4],"split_indices":[0],"split_type":[0],"sum_hessian":[1.081E3],"tree_param":{"num_deleted":"0","num_feature":"14","num_nodes":"1","size_leaf_vector":"1"}},{"base_weights":[-1.3438665E-3],"categories":[],"categories_nodes":[],"categories_segments":[],"categories_sizes":[],"default_left":[0],"id":162,"left_children":[-1],"loss_changes":[0E0],"parents":[2147483647],"right_children":[-1],"split_conditions":[-1.8752046E-4],"split_indices":[0],"split_type":[0],"sum_hessian":[1.15E3],"tree_param":{"num_deleted":"0","num_feature":"14","num_nodes":"1","size_leaf_vector":"1"}},{"base_weights":[3.94807E-3],"categories":[],"categories_nodes":[],"categories_segments":[],"categories_sizes":[],"default_left":[0],"id":163,"left_children":[-1],"loss_changes":[0E0],"parents":[2147483647],"right_children":[-1],"split_conditions":[5.509059E-4],"split_indices":[0],"split_type":[0],"sum_hessian":[1.13E3],"tree_param":{"num_deleted":"0","num_feature":"14","num_nodes":"1","size_leaf_vector":"1"}},{"base_weights":[-3.0476735E-3],"categories":[],"categories_nodes":[],"categories_segments":[],"categories_sizes":[],"default_left":[0],"id":164,"left_children":[-1],"loss_changes":[0E0],"parents":[2147483647],"right_children":[-1],"split_conditions":[-4.2526633E-4],"split_indices":[0],"split_type":[0],"sum_hessian":[1.082E3],"tree_param":{"num_deleted":"0","num_feature":"14","num_nodes":"1","size_leaf_vector":"1"}},{"base_weights":[6.204621E-4],"categories":[],"categories_nodes":[],"categories_segments":[],"categories_sizes":[],"default_left":[0],"id":165,"left_children":[-1],"loss_changes":[0E0],"parents":[2147483647],"right_children":[-1],"split_conditions":[8.657805E-5],"split_indices":[0],"split_type":[0],"sum_hessian":[1.118E3],"tree_param":{"num_deleted":"0","num_feature":"14","num_nodes":"1","size_leaf_vector":"1"}},{"base_weights":[2.877744E-4],"categories":[],"categories_nodes":[],"categories_segments":[],"categories_sizes":[],"default_left":[0],"id":166,"left_children":[-1],"loss_changes":[0E0],"parents":[2147483647],"right_children":[-1],"split_conditions":[4.0155468E-5],"split_indices":[0],"split_type":[0],"sum_hessian":[1.116E3],"tree_param":{"num_deleted":"0","num_feature":"14","num_nodes":"1","size_leaf_vector":"1"}},{"base_weights":[-8.438148E-3],"categories":[],"categories_nodes":[],"categories_segments":[],"categories_sizes":[],"default_left":[0],"id":167,"left_children":[-1],"loss_changes":[0E0],"parents":[2147483647],"right_children":[-1],"split_conditions":[-1.1774424E-3],"split_indices":[0],"split_type":[0],"sum_hessian":[1.15E3],"tree_param":{"num_deleted":"0","num_feature":"14","num_nodes":"1","size_leaf_vector":"1"}},{"base_weights":[-4.243376E-3],"categories":[],"categories_nodes":[],"categories_segments":[],"categories_sizes":[],"default_left":[0],"id":168,"left_children":[-1],"loss_changes":[0E0],"parents":[2147483647],"right_children":[-1],"split_conditions":[-5.921123E-4],"split_indices":[0],"split_type":[0],"sum_hessian":[1.128E3],"tree_param":{"num_deleted":"0","num_feature":"14","num_nodes":"1","size_leaf_vector":"1"}},{"base_weights":[6.3353498E-3,-3.491693E-3,6.6084475E-3],"categories":[],"categories_nodes":[],"categories_segments":[],"categories_sizes":[],"default_left":[0,0,0],"id":169,"left_children":[1,-1,-1],"loss_changes":[1.4433053E0,0E0,0E0],"parents":[2147483647,0,0],"right_children":[2,-1,-1],"split_conditions":[2E0,-3.491693E-3,6.6084475E-3],"split_indices":[0,0,0],"split_type":[0,0,0],"sum_hessian":[1.12E3,6.35E2,4.85E2],"tree_param":{"num_deleted":"0","num_feature":"14","num_nodes":"3","size_leaf_vector":"1"}},{"base_weights":[-1.8389433E-3],"categories":[],"categories_nodes":[],"categories_segments":[],"categories_sizes":[],"default_left":[0],"id":170,"left_children":[-1],"loss_changes":[0E0],"parents":[2147483647],"right_children":[-1],"split_conditions":[-2.566025E-4],"split_indices":[0],"split_type":[0],"sum_hessian":[1.092E3],"tree_param":{"num_deleted":"0","num_feature":"14","num_nodes":"1","size_leaf_vector":"1"}},{"base_weights":[4.528973E-3],"categories":[],"categories_nodes":[],"categories_segments":[],"categories_sizes":[],"default_left":[0],"id":171,"left_children":[-1],"loss_changes":[0E0],"parents":[2147483647],"right_children":[-1],"split_conditions":[6.319639E-4],"split_indices":[0],"split_type":[0],"sum_hessian":[1.112E3],"tree_param":{"num_deleted":"0","num_feature":"14","num_nodes":"1","size_leaf_vector":"1"}},{"base_weights":[9.203913E-3],"categories":[],"categories_nodes":[],"categories_segments":[],"categories_sizes":[],"default_left":[0],"id":172,"left_children":[-1],"loss_changes":[0E0],"parents":[2147483647],"right_children":[-1],"split_conditions":[1.2842958E-3],"split_indices":[0],"split_type":[0],"sum_hessian":[1.107E3],"tree_param":{"num_deleted":"0","num_feature":"14","num_nodes":"1","size_leaf_vector":"1"}},{"base_weights":[2.4034246E-3],"categories":[],"categories_nodes":[],"categories_segments":[],"categories_sizes":[],"default_left":[0],"id":173,"left_children":[-1],"loss_changes":[0E0],"parents":[2147483647],"right_children":[-1],"split_conditions":[3.353691E-4],"split_indices":[0],"split_type":[0],"sum_hessian":[1.107E3],"tree_param":{"num_deleted":"0","num_feature":"14","num_nodes":"1","size_leaf_vector":"1"}},{"base_weights":[-1.0848851E-3],"categories":[],"categories_nodes":[],"categories_segments":[],"categories_sizes":[],"default_left":[0],"id":174,"left_children":[-1],"loss_changes":[0E0],"parents":[2147483647],"right_children":[-1],"split_conditions":[-1.5138272E-4],"split_indices":[0],"split_type":[0],"sum_hessian":[1.175E3],"tree_param":{"num_deleted":"0","num_feature":"14","num_nodes":"1","size_leaf_vector":"1"}},{"base_weights":[-8.55497E-3],"categories":[],"categories_nodes":[],"categories_segments":[],"categories_sizes":[],"default_left":[0],"id":175,"left_children":[-1],"loss_changes":[0E0],"parents":[2147483647],"right_children":[-1],"split_conditions":[-1.1937435E-3],"split_indices":[0],"split_type":[0],"sum_hessian":[1.101E3],"tree_param":{"num_deleted":"0","num_feature":"14","num_nodes":"1","size_leaf_vector":"1"}},{"base_weights":[-1.6397435E-3,8.916818E-3,-3.1038169E-3],"categories":[],"categories_nodes":[],"categories_segments":[],"categories_sizes":[],"default_left":[0,0,0],"id":176,"left_children":[1,-1,-1],"loss_changes":[1.4679734E0,0E0,0E0],"parents":[2147483647,0,0],"right_children":[2,-1,-1],"split_conditions":[-2.910333E0,8.916818E-3,-3.1038169E-3],"split_indices":[3,0,0],"split_type":[0,0,0],"sum_hessian":[1.085E3,2.59E2,8.26E2],"tree_param":{"num_deleted":"0","num_feature":"14","num_nodes":"3","size_leaf_vector":"1"}},{"base_weights":[1.7414722E-3],"categories":[],"categories_nodes":[],"categories_segments":[],"categories_sizes":[],"default_left":[0],"id":177,"left_children":[-1],"loss_changes":[0E0],"parents":[2147483647],"right_children":[-1],"split_conditions":[2.4300157E-4],"split_indices":[0],"split_type":[0],"sum_hessian":[1.103E3],"tree_param":{"num_deleted":"0","num_feature":"14","num_nodes":"1","size_leaf_vector":"1"}},{"base_weights":[-1.437435E-3],"categories":[],"categories_nodes":[],"categories_segments":[],"categories_sizes":[],"default_left":[0],"id":178,"left_children":[-1],"loss_changes":[0E0],"parents":[2147483647],"right_children":[-1],"split_conditions":[-2.0057683E-4],"split_indices":[0],"split_type":[0],"sum_hessian":[1.131E3],"tree_param":{"num_deleted":"0","num_feature":"14","num_nodes":"1","size_leaf_vector":"1"}},{"base_weights":[-3.6367949E-3],"categories":[],"categories_nodes":[],"categories_segments":[],"categories_sizes":[],"default_left":[0],"id":179,"left_children":[-1],"loss_changes":[0E0],"parents":[2147483647],"right_children":[-1],"split_conditions":[-5.0747115E-4],"split_indices":[0],"split_type":[0],"sum_hessian":[1.096E3],"tree_param":{"num_deleted":"0","num_feature":"14","num_nodes":"1","size_leaf_vector":"1"}},{"base_weights":[5.2909466E-4],"categories":[],"categories_nodes":[],"categories_segments":[],"categories_sizes":[],"default_left":[0],"id":180,"left_children":[-1],"loss_changes":[0E0],"parents":[2147483647],"right_children":[-1],"split_conditions":[7.382882E-5],"split_indices":[0],"split_type":[0],"sum_hessian":[1.14E3],"tree_param":{"num_deleted":"0","num_feature":"14","num_nodes":"1","size_leaf_vector":"1"}},{"base_weights":[7.289366E-3],"categories":[],"categories_nodes":[],"categories_segments":[],"categories_sizes":[],"default_left":[0],"id":181,"left_children":[-1],"loss_changes":[0E0],"parents":[2147483647],"right_children":[-1],"split_conditions":[1.0171437E-3],"split_indices":[0],"split_type":[0],"sum_hessian":[1.09E3],"tree_param":{"num_deleted":"0","num_feature":"14","num_nodes":"1","size_leaf_vector":"1"}},{"base_weights":[-5.720186E-3],"categories":[],"categories_nodes":[],"categories_segments":[],"categories_sizes":[],"default_left":[0],"id":182,"left_children":[-1],"loss_changes":[0E0],"parents":[2147483647],"right_children":[-1],"split_conditions":[-7.9818344E-4],"split_indices":[0],"split_type":[0],"sum_hessian":[1.124E3],"tree_param":{"num_deleted":"0","num_feature":"14","num_nodes":"1","size_leaf_vector":"1"}},{"base_weights":[-1.9739212E-3],"categories":[],"categories_nodes":[],"categories_segments":[],"categories_sizes":[],"default_left":[0],"id":183,"left_children":[-1],"loss_changes":[0E0],"parents":[2147483647],"right_children":[-1],"split_conditions":[-2.7543705E-4],"split_indices":[0],"split_type":[0],"sum_hessian":[1.108E3],"tree_param":{"num_deleted":"0","num_feature":"14","num_nodes":"1","size_leaf_vector":"1"}},{"base_weights":[-2.1246101E-3],"categories":[],"categories_nodes":[],"categories_segments":[],"categories_sizes":[],"default_left":[0],"id":184,"left_children":[-1],"loss_changes":[0E0],