{"learner":{"attributes":{"scikit_learn":"{\"_estimator_type\": \"classifier\"}"},"feature_names":["temperature_2m_mean","precipitation_sum","rain_sum","snowfall_sum","wind_speed_10m_max","wind_direction_10m_dominant","snow_load_steep","wind_snow_transport","rain_on_snow_risk","temp_elev","precip_slope_weighted"],"feature_types":["float","float","float","float","float","float","float","float","float","float","float"],"gradient_booster":{"model":{"gbtree_model_param":{"num_parallel_tree":"1","num_trees":"2180"},"iteration_indptr":[0,4,8,12,16,20,24,28,32,36,40,44,48,52,56,60,64,68,72,76,80,84,88,92,96,100,104,108,112,116,120,124,128,132,136,140,144,148,152,156,160,164,168,172,176,180,184,188,192,196,200,204,208,212,216,220,224,228,232,236,240,244,248,252,256,260,264,268,272,276,280,284,288,292,296,300,304,308,312,316,320,324,328,332,336,340,344,348,352,356,360,364,368,372,376,380,384,388,392,396,400,404,408,412,416,420,424,428,432,436,440,444,448,452,456,460,464,468,472,476,480,484,488,492,496,500,504,508,512,516,520,524,528,532,536,540,544,548,552,556,560,564,568,572,576,580,584,588,592,596,600,604,608,612,616,620,624,628,632,636,640,644,648,652,656,660,664,668,672,676,680,684,688,692,696,700,704,708,712,716,720,724,728,732,736,740,744,748,752,756,760,764,768,772,776,780,784,788,792,796,800,804,808,812,816,820,824,828,832,836,840,844,848,852,856,860,864,868,872,876,880,884,888,892,896,900,904,908,912,916,920,924,928,932,936,940,944,948,952,956,960,964,968,972,976,980,984,988,992,996,1000,1004,1008,1012,1016,1020,1024,1028,1032,1036,1040,1044,1048,1052,1056,1060,1064,1068,1072,1076,1080,1084,1088,1092,1096,1100,1104,1108,1112,1116,1120,1124,1128,1132,1136,1140,1144,1148,1152,1156,1160,1164,1168,1172,1176,1180,1184,1188,1192,1196,1200,1204,1208,1212,1216,1220,1224,1228,1232,1236,1240,1244,1248,1252,1256,1260,1264,1268,1272,1276,1280,1284,1288,1292,1296,1300,1304,1308,1312,1316,1320,1324,1328,1332,1336,1340,1344,1348,1352,1356,1360,1364,1368,1372,1376,1380,1384,1388,1392,1396,1400,1404,1408,1412,1416,1420,1424,1428,1432,1436,1440,1444,1448,1452,1456,1460,1464,1468,1472,1476,1480,1484,1488,1492,1496,1500,1504,1508,1512,1516,1520,1524,1528,1532,1536,1540,1544,1548,1552,1556,1560,1564,1568,1572,1576,1580,1584,1588,1592,1596,1600,1604,1608,1612,1616,1620,1624,1628,1632,1636,1640,1644,1648,1652,1656,1660,1664,1668,1672,1676,1680,1684,1688,1692,1696,1700,1704,1708,1712,1716,1720,1724,1728,1732,1736,1740,1744,1748,1752,1756,1760,1764,1768,1772,1776,1780,1784,1788,1792,1796,1800,1804,1808,1812,1816,1820,1824,1828,1832,1836,1840,1844,1848,1852,1856,1860,1864,1868,1872,1876,1880,1884,1888,1892,1896,1900,1904,1908,1912,1916,1920,1924,1928,1932,1936,1940,1944,1948,1952,1956,1960,1964,1968,1972,1976,1980,1984,1988,1992,1996,2000,2004,2008,2012,2016,2020,2024,2028,2032,2036,2040,2044,2048,2052,2056,2060,2064,2068,2072,2076,2080,2084,2088,2092,2096,2100,2104,2108,2112,2116,2120,2124,2128,2132,2136,2140,2144,2148,2152,2156,2160,2164,2168,2172,2176,2180],"tree_info":[0,1,2,3,0,1,2,3,0,1,2,3,0,1,2,3,0,1,2,3,0,1,2,3,0,1,2,3,0,1,2,3,0,1,2,3,0,1,2,3,0,1,2,3,0,1,2,3,0,1,2,3,0,1,2,3,0,1,2,3,0,1,2,3,0,1,2,3,0,1,2,3,0,1,2,3,0,1,2,3,0,1,2,3,0,1,2,3,0,1,2,3,0,1,2,3,0,1,2,3,0,1,2,3,0,1,2,3,0,1,2,3,0,1,2,3,0,1,2,3,0,1,2,3,0,1,2,3,0,1,2,3,0,1,2,3,0,1,2,3,0,1,2,3,0,1,2,3,0,1,2,3,0,1,2,3,0,1,2,3,0,1,2,3,0,1,2,3,0,1,2,3,0,1,2,3,0,1,2,3,0,1,2,3,0,1,2,3,0,1,2,3,0,1,2,3,0,1,2,3,0,1,2,3,0,1,2,3,0,1,2,3,0,1,2,3,0,1,2,3,0,1,2,3,0,1,2,3,0,1,2,3,0,1,2,3,0,1,2,3,0,1,2,3,0,1,2,3,0,1,2,3,0,1,2,3,0,1,2,3,0,1,2,3,0,1,2,3,0,1,2,3,0,1,2,3,0,1,2,3,0,1,2,3,0,1,2,3,0,1,2,3,0,1,2,3,0,1,2,3,0,1,2,3,0,1,2,3,0,1,2,3,0,1,2,3,0,1,2,3,0,1,2,3,0,1,2,3,0,1,2,3,0,1,2,3,0,1,2,3,0,1,2,3,0,1,2,3,0,1,2,3,0,1,2,3,0,1,2,3,0,1,2,3,0,1,2,3,0,1,2,3,0,1,2,3,0,1,2,3,0,1,2,3,0,1,2,3,0,1,2,3,0,1,2,3,0,1,2,3,0,1,2,3,0,1,2,3,0,1,2,3,0,1,2,3,0,1,2,3,0,1,2,3,0,1,2,3,0,1,2,3,0,1,2,3,0,1,2,3,0,1,2,3,0,1,2,3,0,1,2,3,0,1,2,3,0,1,2,3,0,1,2,3,0,1,2,3,0,1,2,3,0,1,2,3,0,1,2,3,0,1,2,3,0,1,2,3,0,1,2,3,0,1,2,3,0,1,2,3,0,1,2,3,0,1,2,3,0,1,2,3,0,1,2,3,0,1,2,3,0,1,2,3,0,1,2,3,0,1,2,3,0,1,2,3,0,1,2,3,0,1,2,3,0,1,2,3,0,1,2,3,0,1,2,3,0,1,2,3,0,1,2,3,0,1,2,3,0,1,2,3,0,1,2,3,0,1,2,3,0,1,2,3,0,1,2,3,0,1,2,3,0,1,2,3,0,1,2,3,0,1,2,3,0,1,2,3,0,1,2,3,0,1,2,3,0,1,2,3,0,1,2,3,0,1,2,3,0,1,2,3,0,1,2,3,0,1,2,3,0,1,2,3,0,1,2,3,0,1,2,3,0,1,2,3,0,1,2,3,0,1,2,3,0,1,2,3,0,1,2,3,0,1,2,3,0,1,2,3,0,1,2,3,0,1,2,3,0,1,2,3,0,1,2,3,0,1,2,3,0,1,2,3,0,1,2,3,0,1,2,3,0,1,2,3,0,1,2,3,0,1,2,3,0,1,2,3,0,1,2,3,0,1,2,3,0,1,2,3,0,1,2,3,0,1,2,3,0,1,2,3,0,1,2,3,0,1,2,3,0,1,2,3,0,1,2,3,0,1,2,3,0,1,2,3,0,1,2,3,0,1,2,3,0,1,2,3,0,1,2,3,0,1,2,3,0,1,2,3,0,1,2,3,0,1,2,3,0,1,2,3,0,1,2,3,0,1,2,3,0,1,2,3,0,1,2,3,0,1,2,3,0,1,2,3,0,1,2,3,0,1,2,3,0,1,2,3,0,1,2,3,0,1,2,3,0,1,2,3,0,1,2,3,0,1,2,3,0,1,2,3,0,1,2,3,0,1,2,3,0,1,2,3,0,1,2,3,0,1,2,3,0,1,2,3,0,1,2,3,0,1,2,3,0,1,2,3,0,1,2,3,0,1,2,3,0,1,2,3,0,1,2,3,0,1,2,3,0,1,2,3,0,1,2,3,0,1,2,3,0,1,2,3,0,1,2,3,0,1,2,3,0,1,2,3,0,1,2,3,0,1,2,3,0,1,2,3,0,1,2,3,0,1,2,3,0,1,2,3,0,1,2,3,0,1,2,3,0,1,2,3,0,1,2,3,0,1,2,3,0,1,2,3,0,1,2,3,0,1,2,3,0,1,2,3,0,1,2,3,0,1,2,3,0,1,2,3,0,1,2,3,0,1,2,3,0,1,2,3,0,1,2,3,0,1,2,3,0,1,2,3,0,1,2,3,0,1,2,3,0,1,2,3,0,1,2,3,0,1,2,3,0,1,2,3,0,1,2,3,0,1,2,3,0,1,2,3,0,1,2,3,0,1,2,3,0,1,2,3,0,1,2,3,0,1,2,3,0,1,2,3,0,1,2,3,0,1,2,3,0,1,2,3,0,1,2,3,0,1,2,3,0,1,2,3,0,1,2,3,0,1,2,3,0,1,2,3,0,1,2,3,0,1,2,3,0,1,2,3,0,1,2,3,0,1,2,3,0,1,2,3,0,1,2,3,0,1,2,3,0,1,2,3,0,1,2,3,0,1,2,3,0,1,2,3,0,1,2,3,0,1,2,3,0,1,2,3,0,1,2,3,0,1,2,3,0,1,2,3,0,1,2,3,0,1,2,3,0,1,2,3,0,1,2,3,0,1,2,3,0,1,2,3,0,1,2,3,0,1,2,3,0,1,2,3,0,1,2,3,0,1,2,3,0,1,2,3,0,1,2,3,0,1,2,3,0,1,2,3,0,1,2,3,0,1,2,3,0,1,2,3,0,1,2,3,0,1,2,3,0,1,2,3,0,1,2,3,0,1,2,3,0,1,2,3,0,1,2,3,0,1,2,3,0,1,2,3,0,1,2,3,0,1,2,3,0,1,2,3,0,1,2,3,0,1,2,3,0,1,2,3,0,1,2,3,0,1,2,3,0,1,2,3,0,1,2,3,0,1,2,3,0,1,2,3,0,1,2,3,0,1,2,3,0,1,2,3,0,1,2,3,0,1,2,3,0,1,2,3,0,1,2,3,0,1,2,3,0,1,2,3,0,1,2,3,0,1,2,3,0,1,2,3,0,1,2,3,0,1,2,3,0,1,2,3,0,1,2,3,0,1,2,3,0,1,2,3,0,1,2,3,0,1,2,3,0,1,2,3,0,1,2,3,0,1,2,3,0,1,2,3,0,1,2,3,0,1,2,3,0,1,2,3,0,1,2,3,0,1,2,3,0,1,2,3,0,1,2,3,0,1,2,3,0,1,2,3,0,1,2,3,0,1,2,3,0,1,2,3,0,1,2,3,0,1,2,3,0,1,2,3,0,1,2,3,0,1,2,3,0,1,2,3,0,1,2,3,0,1,2,3,0,1,2,3,0,1,2,3,0,1,2,3,0,1,2,3,0,1,2,3,0,1,2,3,0,1,2,3,0,1,2,3,0,1,2,3,0,1,2,3,0,1,2,3,0,1,2,3,0,1,2,3,0,1,2,3,0,1,2,3,0,1,2,3,0,1,2,3,0,1,2,3,0,1,2,3,0,1,2,3,0,1,2,3,0,1,2,3,0,1,2,3,0,1,2,3,0,1,2,3,0,1,2,3,0,1,2,3,0,1,2,3,0,1,2,3,0,1,2,3,0,1,2,3,0,1,2,3,0,1,2,3,0,1,2,3,0,1,2,3,0,1,2,3,0,1,2,3,0,1,2,3,0,1,2,3,0,1,2,3,0,1,2,3,0,1,2,3,0,1,2,3,0,1,2,3,0,1,2,3,0,1,2,3,0,1,2,3,0,1,2,3,0,1,2,3,0,1,2,3,0,1,2,3,0,1,2,3,0,1,2,3,0,1,2,3,0,1,2,3,0,1,2,3,0,1,2,3,0,1,2,3,0,1,2,3,0,1,2,3,0,1,2,3,0,1,2,3,0,1,2,3,0,1,2,3,0,1,2,3,0,1,2,3,0,1,2,3,0,1,2,3,0,1,2,3,0,1,2,3,0,1,2,3,0,1,2,3,0,1,2,3,0,1,2,3,0,1,2,3,0,1,2,3,0,1,2,3,0,1,2,3,0,1,2,3,0,1,2,3,0,1,2,3,0,1,2,3,0,1,2,3,0,1,2,3,0,1,2,3,0,1,2,3,0,1,2,3,0,1,2,3,0,1,2,3,0,1,2,3,0,1,2,3,0,1,2,3,0,1,2,3,0,1,2,3,0,1,2,3,0,1,2,3,0,1,2,3,0,1,2,3,0,1,2,3,0,1,2,3,0,1,2,3,0,1,2,3,0,1,2,3,0,1,2,3,0,1,2,3,0,1,2,3,0,1,2,3,0,1,2,3,0,1,2,3,0,1,2,3,0,1,2,3,0,1,2,3,0,1,2,3,0,1,2,3,0,1,2,3,0,1,2,3,0,1,2,3,0,1,2,3,0,1,2,3,0,1,2,3,0,1,2,3,0,1,2,3,0,1,2,3,0,1,2,3,0,1,2,3,0,1,2,3,0,1,2,3,0,1,2,3,0,1,2,3,0,1,2,3,0,1,2,3,0,1,2,3,0,1,2,3,0,1,2,3,0,1,2,3,0,1,2,3,0,1,2,3,0,1,2,3,0,1,2,3,0,1,2,3,0,1,2,3,0,1,2,3,0,1,2,3,0,1,2,3,0,1,2,3,0,1,2,3,0,1,2,3,0,1,2,3,0,1,2,3,0,1,2,3,0,1,2,3,0,1,2,3,0,1,2,3,0,1,2,3,0,1,2,3,0,1,2,3,0,1,2,3],"trees":[{"base_weights":[5.6245434E-1,-1.2225519E-1,1.6456174E0,-3.8379943E-1,5.0247647E-2,1.1075697E0,3.0809957E-1,1.8394228E-2,-8.8244505E-2,-7.464325E-2,2.0950714E-1],"categories":[],"categories_nodes":[],"categories_segments":[],"categories_sizes":[],"default_left":[0,0,0,0,0,0,0,0,0,0,0],"id":0,"left_children":[1,3,5,7,-1,9,-1,-1,-1,-1,-1],"loss_changes":[2.5403159E2,2.297034E1,8.64502E0,8.341293E0,0E0,5.9876366E0,0E0,0E0,0E0,0E0,0E0],"parents":[2147483647,0,0,1,1,2,2,3,3,5,5],"right_children":[2,4,6,8,-1,10,-1,-1,-1,-1,-1],"split_conditions":[2.1125E0,-3.4395835E0,4.8312497E0,1.3607347E2,5.0247647E-2,8.073557E1,3.0809957E-1,1.8394228E-2,-8.8244505E-2,-7.464325E-2,2.0950714E-1],"split_indices":[0,0,0,5,0,5,0,0,0,0,0],"split_type":[0,0,0,0,0,0,0,0,0,0,0],"sum_hessian":[3.4125E2,2.09625E2,1.31625E2,1.28625E2,8.1E1,3.0375E1,1.0125E2,2.7E1,1.01625E2,1.875E0,2.85E1],"tree_param":{"num_deleted":"0","num_feature":"11","num_nodes":"11","size_leaf_vector":"1"}},{"base_weights":[-1.8343854E-1,-5.725766E-2,-9.1884784E-2,1.2598227E-2,-7.69124E-2],"categories":[],"categories_nodes":[],"categories_segments":[],"categories_sizes":[],"default_left":[0,0,0,0,0],"id":1,"left_children":[1,3,-1,-1,-1],"loss_changes":[1.4911126E1,1.2737083E1,0E0,0E0,0E0],"parents":[2147483647,0,0,1,1],"right_children":[2,4,-1,-1,-1],"split_conditions":[3.3E0,5.7791667E0,-9.1884784E-2,1.2598227E-2,-7.69124E-2],"split_indices":[1,0,0,0,0],"split_type":[0,0,0,0,0],"sum_hessian":[3.35625E2,2.47875E2,8.775E1,1.86375E2,6.15E1],"tree_param":{"num_deleted":"0","num_feature":"11","num_nodes":"5","size_leaf_vector":"1"}},{"base_weights":[5.2990157E-2,6.5315664E-1,-5.106072E-1,7.2240806E-1,-4.6985958E-2,-1.2413793E-1,-1.04748204E-1,8.396947E-1,3.2752612E-1,1.5107793E-1,-5.538047E-2,8.2153365E-2,1.7597862E-1,-5.377911E-2,9.717705E-2],"categories":[],"categories_nodes":[],"categories_segments":[],"categories_sizes":[],"default_left":[0,0,0,0,0,0,0,0,0,0,0,0,0,0,0],"id":2,"left_children":[1,3,5,7,-1,9,-1,11,13,-1,-1,-1,-1,-1,-1],"loss_changes":[1.12041306E2,1.0491379E1,6.4970856E0,6.648979E0,0E0,7.507186E0,0E0,7.1826324E0,5.6602063E0,0E0,0E0,0E0,0E0,0E0,0E0],"parents":[2147483647,0,0,1,1,2,2,3,3,5,5,7,7,8,8],"right_children":[2,4,6,8,-1,10,-1,12,14,-1,-1,-1,-1,-1,-1],"split_conditions":[-8.958333E-1,9.2E0,1.8479165E0,-4.0375E0,-4.6985958E-2,8.78872E0,-1.04748204E-1,9.531505E0,1.1966954E1,1.5107793E-1,-5.538047E-2,8.2153365E-2,1.7597862E-1,-5.377911E-2,9.717705E-2],"split_indices":[0,1,0,0,0,4,0,4,4,0,0,0,0,0,0],"split_type":[0,0,0,0,0,0,0,0,0,0,0,0,0,0,0],"sum_hessian":[3.2925E2,1.59375E2,1.69875E2,1.485E2,1.0875E1,3.525E1,1.34625E2,1.13625E2,3.4875E1,5.25E0,3E1,3.975E1,7.3875E1,9.375E0,2.55E1],"tree_param":{"num_deleted":"0","num_feature":"11","num_nodes":"15","size_leaf_vector":"1"}},{"base_weights":[-5.036603E-1,-9.464718E-2,8.583973E-2],"categories":[],"categories_nodes":[],"categories_segments":[],"categories_sizes":[],"default_left":[0,0,0],"id":3,"left_children":[1,-1,-1],"loss_changes":[1.6604729E1,0E0,0E0],"parents":[2147483647,0,0],"right_children":[2,-1,-1],"split_conditions":[6.5800004E0,-9.464718E-2,8.583973E-2],"split_indices":[3,0,0],"split_type":[0,0,0],"sum_hessian":[3.405E2,3.255E2,1.5E1],"tree_param":{"num_deleted":"0","num_feature":"11","num_nodes":"3","size_leaf_vector":"1"}},{"base_weights":[4.565056E-1,-1.5575646E-1,1.2327131E0,-3.818546E-1,3.6938764E-2,4.3745795E-1,2.203988E-1,1.8700967E-2,-8.638932E-2,-9.8092705E-2,1.9566314E-1],"categories":[],"categories_nodes":[],"categories_segments":[],"categories_sizes":[],"default_left":[0,0,0,0,0,0,0,0,0,0,0],"id":4,"left_children":[1,3,5,7,-1,9,-1,-1,-1,-1,-1],"loss_changes":[1.6751437E2,1.6663113E1,5.7480927E0,7.391794E0,0E0,8.367372E0,0E0,0E0,0E0,0E0,0E0],"parents":[2147483647,0,0,1,1,2,2,3,3,5,5],"right_children":[2,4,6,8,-1,10,-1,-1,-1,-1,-1],"split_conditions":[2.1125E0,-3.0145836E0,7.928177E0,1.324625E2,3.6938764E-2,4.7000003E0,2.203988E-1,1.8700967E-2,-8.638932E-2,-9.8092705E-2,1.9566314E-1],"split_indices":[0,0,4,5,0,0,0,0,0,0,0],"split_type":[0,0,0,0,0,0,0,0,0,0,0],"sum_hessian":[3.51078E2,1.9671288E2,1.5436514E2,1.2219667E2,7.4516205E1,9.891752E0,1.4447339E2,2.4244118E1,9.7952545E1,4.1361675E0,5.7555847E0],"tree_param":{"num_deleted":"0","num_feature":"11","num_nodes":"11","size_leaf_vector":"1"}},{"base_weights":[-1.3227624E-1,1.41511485E-2,-6.6325344E-2,2.282106E-2,-6.6535115E-2],"categories":[],"categories_nodes":[],"categories_segments":[],"categories_sizes":[],"default_left":[0,0,0,0,0],"id":5,"left_children":[1,3,-1,-1,-1],"loss_changes":[1.245689E1,1.0228551E1,0E0,0E0,0E0],"parents":[2147483647,0,0,1,1],"right_children":[2,4,-1,-1,-1],"split_conditions":[1.6E0,5.7791667E0,-6.6325344E-2,2.282106E-2,-6.6535115E-2],"split_indices":[1,0,0,0,0],"split_type":[0,0,0,0,0],"sum_hessian":[3.337086E2,2.1229495E2,1.21413635E2,1.6436441E2,4.7930534E1],"tree_param":{"num_deleted":"0","num_feature":"11","num_nodes":"5","size_leaf_vector":"1"}},{"base_weights":[1.0611022E-1,5.749042E-1,-8.624521E-2,7.9673195E-1,5.9824035E-2,-5.187618E-2,1.495764E-1],"categories":[],"categories_nodes":[],"categories_segments":[],"categories_sizes":[],"default_left":[0,0,0,0,0,0,0],"id":6,"left_children":[1,3,-1,5,-1,-1,-1],"loss_changes":[9.869923E1,9.534073E0,0E0,8.279995E0,0E0,0E0,0E0],"parents":[2147483647,0,0,1,1,3,3],"right_children":[2,4,-1,6,-1,-1,-1],"split_conditions":[3.8749996E-1,-6.5083327E0,-8.624521E-2,6.6823E1,5.9824035E-2,-5.187618E-2,1.495764E-1],"split_indices":[0,0,0,5,0,0,0],"split_type":[0,0,0,0,0,0,0],"sum_hessian":[3.4399942E2,1.943323E2,1.4966711E2,9.689385E1,9.743845E1,5.9595466E0,9.093431E1],"tree_param":{"num_deleted":"0","num_feature":"11","num_nodes":"7","size_leaf_vector":"1"}},{"base_weights":[-4.9042353E-1,-9.223929E-2,9.648303E-2],"categories":[],"categories_nodes":[],"categories_segments":[],"categories_sizes":[],"default_left":[0,0,0],"id":7,"left_children":[1,-1,-1],"loss_changes":[1.609391E1,0E0,0E0],"parents":[2147483647,0,0],"right_children":[2,-1,-1],"split_conditions":[7.49E0,-9.223929E-2,9.648303E-2],"split_indices":[3,0,0],"split_type":[0,0,0],"sum_hessian":[3.1926794E2,3.0612888E2,1.3139076E1],"tree_param":{"num_deleted":"0","num_feature":"11","num_nodes":"3","size_leaf_vector":"1"}},{"base_weights":[3.782101E-1,-7.603793E-2,1.6916682E-1,-5.0156057E-2,2.5019944E-1,5.6405556E-1,1.0662954E-2,-5.8475308E-2,1.3763721E-1],"categories":[],"categories_nodes":[],"categories_segments":[],"categories_sizes":[],"default_left":[0,0,0,0,0,0,0,0,0],"id":8,"left_children":[1,3,-1,-1,5,7,-1,-1,-1],"loss_changes":[1.0038011E2,1.4806242E1,0E0,0E0,4.9123926E0,6.998354E0,0E0,0E0,0E0],"parents":[2147483647,0,0,1,1,4,4,5,5],"right_children":[2,4,-1,-1,6,8,-1,-1,-1],"split_conditions":[2.4437497E0,-2.5020833E0,1.6916682E-1,-5.0156057E-2,2.4150443E2,1.13101585E2,1.0662954E-2,-5.8475308E-2,1.3763721E-1],"split_indices":[0,0,0,0,5,5,0,0,0],"split_type":[0,0,0,0,0,0,0,0,0],"sum_hessian":[3.6268994E2,2.0797002E2,1.5471992E2,1.2516239E2,8.280763E1,3.0280756E1,5.252687E1,6.2096686E0,2.4071087E1],"tree_param":{"num_deleted":"0","num_feature":"11","num_nodes":"9","size_leaf_vector":"1"}},{"base_weights":[-1.13579154E-1,4.958703E-2,-8.2477525E-2,2.5456155E-2,-5.4951273E-2],"categories":[],"categories_nodes":[],"categories_segments":[],"categories_sizes":[],"default_left":[0,0,0,0,0],"id":9,"left_children":[1,3,-1,-1,-1],"loss_changes":[1.9179981E1,8.161912E0,0E0,0E0,0E0],"parents":[2147483647,0,0,1,1],"right_children":[2,4,-1,-1,-1],"split_conditions":[2.2999997E0,3.1826072E0,-8.2477525E-2,2.5456155E-2,-5.4951273E-2],"split_indices":[1,9,0,0,0],"split_type":[0,0,0,0,0],"sum_hessian":[3.1904105E2,2.2141994E2,9.762111E1,1.7523605E2,4.6183887E1],"tree_param":{"num_deleted":"0","num_feature":"11","num_nodes":"5","size_leaf_vector":"1"}},{"base_weights":[8.8154264E-2,4.9306107E-1,-4.0086195E-1,1.089504E-1,2.542396E-1,-6.0206544E-2,-9.457695E-2,-6.5687196E-3,1.1921589E-1,1.1534527E-1,-3.9939392E-2],"categories":[],"categories_nodes":[],"categories_segments":[],"categories_sizes":[],"default_left":[0,0,0,0,0,0,0,0,0,0,0],"id":10,"left_children":[1,3,5,-1,7,9,-1,-1,-1,-1,-1],"loss_changes":[6.6942635E1,6.0877113E0,7.798544E0,0E0,9.098162E0,6.212418E0,0E0,0E0,0E0,0E0,0E0],"parents":[2147483647,0,0,1,1,2,2,4,4,5,5],"right_children":[2,4,6,-1,8,10,-1,-1,-1,-1,-1],"split_conditions":[-7.895834E-1,-5.6729164E0,2.3895838E0,1.089504E-1,1.6904673E1,9.1641035E0,-9.457695E-2,-6.5687196E-3,1.1921589E-1,1.1534527E-1,-3.9939392E-2],"split_indices":[0,0,0,0,4,4,0,0,0,0,0],"split_type":[0,0,0,0,0,0,0,0,0,0,0],"sum_hessian":[3.360857E2,1.8384952E2,1.5223619E2,1.1439067E2,6.945884E1,4.6975716E1,1.0526047E2,4.2277645E1,2.7181196E1,8.403197E0,3.8572517E1],"tree_param":{"num_deleted":"0","num_feature":"11","num_nodes":"11","size_leaf_vector":"1"}},{"base_weights":[-4.4684896E-1,-8.596542E-2,5.696195E-2],"categories":[],"categories_nodes":[],"categories_segments":[],"categories_sizes":[],"default_left":[0,0,0],"id":11,"left_children":[1,-1,-1],"loss_changes":[1.296489E1,0E0,0E0],"parents":[2147483647,0,0],"right_children":[2,-1,-1],"split_conditions":[5.320001E0,-8.596542E-2,5.696195E-2],"split_indices":[3,0,0],"split_type":[0,0,0],"sum_hessian":[3.040546E2,2.8470923E2,1.9345373E1],"tree_param":{"num_deleted":"0","num_feature":"11","num_nodes":"3","size_leaf_vector":"1"}},{"base_weights":[3.4961715E-1,-3.5823908E-2,1.3803622E-1,-2.5001E-1,3.6133435E-2,7.405257E-2,-7.852622E-2],"categories":[],"categories_nodes":[],"categories_segments":[],"categories_sizes":[],"default_left":[0,0,0,0,0,0,0],"id":12,"left_children":[1,3,-1,5,-1,-1,-1],"loss_changes":[6.3754715E1,1.04879055E1,0E0,1.5212588E1,0E0,0E0,0E0],"parents":[2147483647,0,0,1,1,3,3],"right_children":[2,4,-1,6,-1,-1,-1],"split_conditions":[2.0083334E0,-4.327083E0,1.3803622E-1,1.3046388E2,3.6133435E-2,7.405257E-2,-7.852622E-2],"split_indices":[0,0,0,5,0,0,0],"split_type":[0,0,0,0,0,0,0],"sum_hessian":[3.6283386E2,1.9681483E2,1.6601901E2,1.05261055E2,9.155379E1,2.4310936E1,8.095012E1],"tree_param":{"num_deleted":"0","num_feature":"11","num_nodes":"7","size_leaf_vector":"1"}},{"base_weights":[-1.1420968E-1,-4.8918277E-3,-6.2037643E-2,7.7694155E-2,-8.308373E-2,4.8302695E-2,1.7346135E-1,2.42815E-2,-4.888885E-2],"categories":[],"categories_nodes":[],"categories_segments":[],"categories_sizes":[],"default_left":[0,0,0,0,0,0,0,0,0],"id":13,"left_children":[1,3,-1,5,-1,7,-1,-1,-1],"loss_changes":[8.626185E0,8.837438E0,0E0,5.175563E0,0E0,5.8039856E0,0E0,0E0,0E0],"parents":[2147483647,0,0,1,1,3,3,5,5],"right_children":[2,4,-1,6,-1,8,-1,-1,-1],"split_conditions":[3.2375E0,3.36E0,-6.2037643E-2,3.6379437E0,-8.308373E-2,2.21848E0,1.7346135E-1,2.42815E-2,-4.888885E-2],"split_indices":[0,3,0,7,0,7,0,0,0],"split_type":[0,0,0,0,0,0,0,0,0],"sum_hessian":[3.18345E2,2.2142468E2,9.692032E1,1.8958012E2,3.1844568E1,1.8480809E2,4.772021E0,1.4487415E2,3.993396E1],"tree_param":{"num_deleted":"0","num_feature":"11","num_nodes":"9","size_leaf_vector":"1"}},{"base_weights":[6.763542E-2,6.483232E-2,-4.4388E-1,7.004978E-2,-8.810631E-2],"categories":[],"categories_nodes":[],"categories_segments":[],"categories_sizes":[],"default_left":[0,0,0,0,0],"id":14,"left_children":[1,-1,3,-1,-1],"loss_changes":[5.272364E1,0E0,7.622608E0,0E0,0E0],"parents":[2147483647,0,0,2,2],"right_children":[2,-1,4,-1,-1],"split_conditions":[5.9791666E-1,6.483232E-2,7.9932976E0,7.004978E-2,-8.810631E-2],"split_indices":[0,0,4,0,0],"split_type":[0,0,0,0,0],"sum_hessian":[3.304373E2,2.0590915E2,1.24528114E2,9.00306E0,1.15525055E2],"tree_param":{"num_deleted":"0","num_feature":"11","num_nodes":"5","size_leaf_vector":"1"}},{"base_weights":[-3.9696163E-1,-8.054303E-2,3.5399246E-1,-2.393789E-2,1.2973699E-1],"categories":[],"categories_nodes":[],"categories_segments":[],"categories_sizes":[],"default_left":[0,0,0,0,0],"id":15,"left_children":[1,-1,3,-1,-1],"loss_changes":[1.5495403E1,0E0,5.1337566E0,0E0,0E0],"parents":[2147483647,0,0,2,2],"right_children":[2,-1,4,-1,-1],"split_conditions":[5.39E0,-8.054303E-2,1.7873556E1,-2.393789E-2,1.2973699E-1],"split_indices":[3,0,4,0,0],"split_type":[0,0,0,0,0],"sum_hessian":[2.8178494E2,2.574159E2,2.4369047E1,1.1228946E1,1.3140102E1],"tree_param":{"num_deleted":"0","num_feature":"11","num_nodes":"5","size_leaf_vector":"1"}},{"base_weights":[3.2656527E-1,-2.2649493E-2,1.2118497E-1,-2.3323295E-1,4.2378996E-2,-4.6504803E-2,1.9096252E-1],"categories":[],"categories_nodes":[],"categories_segments":[],"categories_sizes":[],"default_left":[0,0,0,0,0,0,0],"id":16,"left_children":[1,3,-1,5,-1,-1,-1],"loss_changes":[4.9407913E1,1.1130444E1,0E0,5.8757825E0,0E0,0E0,0E0],"parents":[2147483647,0,0,1,1,3,3],"right_children":[2,4,-1,6,-1,-1,-1],"split_conditions":[2.1125E0,-3.2708333E0,1.2118497E-1,4E-1,4.2378996E-2,-4.6504803E-2,1.9096252E-1],"split_indices":[0,0,0,2,0,0,0],"split_type":[0,0,0,0,0,0,0],"sum_hessian":[3.7187607E2,1.9410965E2,1.7776642E2,1.090409E2,8.506875E1,1.0684992E2,2.1909811E0],"tree_param":{"num_deleted":"0","num_feature":"11","num_nodes":"7","size_leaf_vector":"1"}},{"base_weights":[-8.665673E-2,7.095356E-2,-6.773333E-2,2.0515494E-2,-8.666208E-2],"categories":[],"categories_nodes":[],"categories_segments":[],"categories_sizes":[],"default_left":[0,0,0,0,0],"id":17,"left_children":[1,3,-1,-1,-1],"loss_changes":[1.5004959E1,5.7896914E0,0E0,0E0,0E0],"parents":[2147483647,0,0,1,1],"right_children":[2,4,-1,-1,-1],"split_conditions":[1.5000002E0,1.0202085E1,-6.773333E-2,2.0515494E-2,-8.666208E-2],"split_indices":[1,0,0,0,0],"split_type":[0,0,0,0,0],"sum_hessian":[3.07647E2,2.0398915E2,1.0365786E2,1.888576E2,1.51315565E1],"tree_param":{"num_deleted":"0","num_feature":"11","num_nodes":"5","size_leaf_vector":"1"}},{"base_weights":[7.057119E-2,4.9359955E-2,-8.9107834E-2],"categories":[],"categories_nodes":[],"categories_segments":[],"categories_sizes":[],"default_left":[0,0,0],"id":18,"left_children":[1,-1,-1],"loss_changes":[4.2674038E1,0E0,0E0],"parents":[2147483647,0,0],"right_children":[2,-1,-1],"split_conditions":[2.5020833E0,4.9359955E-2,-8.9107834E-2],"split_indices":[0,0,0],"split_type":[0,0,0],"sum_hessian":[3.3145874E2,2.4267928E2,8.877946E1],"tree_param":{"num_deleted":"0","num_feature":"11","num_nodes":"3","size_leaf_vector":"1"}},{"base_weights":[-4.4014257E-1,-8.8245474E-2,3.2750275E-2],"categories":[],"categories_nodes":[],"categories_segments":[],"categories_sizes":[],"default_left":[0,0,0],"id":19,"left_children":[1,-1,-1],"loss_changes":[1.2344898E1,0E0,0E0],"parents":[2147483647,0,0],"right_children":[2,-1,-1],"split_conditions":[4.06E0,-8.8245474E-2,3.2750275E-2],"split_indices":[3,0,0],"split_type":[0,0,0],"sum_hessian":[2.6177768E2,2.345056E2,2.7272078E1],"tree_param":{"num_deleted":"0","num_feature":"11","num_nodes":"3","size_leaf_vector":"1"}},{"base_weights":[2.3077779E-1,-4.1623797E-2,5.1184344E-1,4.2047746E-2,1.2337181E-1],"categories":[],"categories_nodes":[],"categories_segments":[],"categories_sizes":[],"default_left":[0,0,0,0,0],"id":20,"left_children":[1,-1,3,-1,-1],"loss_changes":[4.8209846E1,0E0,1.2360165E1,0E0,0E0],"parents":[2147483647,0,0,2,2],"right_children":[2,-1,4,-1,-1],"split_conditions":[-2.1145835E0,-4.1623797E-2,4.8312497E0,4.2047746E-2,1.2337181E-1],"split_indices":[0,0,0,0,0],"split_type":[0,0,0,0,0],"sum_hessian":[3.6052454E2,1.3439014E2,2.261344E2,9.966357E1,1.2647084E2],"tree_param":{"num_deleted":"0","num_feature":"11","num_nodes":"5","size_leaf_vector":"1"}},{"base_weights":[-5.0426222E-2,4.286552E-2,-5.567748E-2,-1.7216189E-2,4.022643E-2],"categories":[],"categories_nodes":[],"categories_segments":[],"categories_sizes":[],"default_left":[0,0,0,0,0],"id":21,"left_children":[1,3,-1,-1,-1],"loss_changes":[7.909049E0,6.3640943E0,0E0,0E0,0E0],"parents":[2147483647,0,0,1,1],"right_children":[2,4,-1,-1,-1],"split_conditions":[4.135417E0,2.832665E2,-5.567748E-2,-1.7216189E-2,4.022643E-2],"split_indices":[0,5,0,0,0],"split_type":[0,0,0,0,0],"sum_hessian":[3.0799374E2,2.303682E2,7.762555E1,1.3208366E2,9.828452E1],"tree_param":{"num_deleted":"0","num_feature":"11","num_nodes":"5","size_leaf_vector":"1"}},{"base_weights":[2.9388636E-2,4.9114104E-2,-3.5950005E-1,4.011972E-2,-7.952352E-2],"categories":[],"categories_nodes":[],"categories_segments":[],"categories_sizes":[],"default_left":[0,0,0,0,0],"id":22,"left_children":[1,-1,3,-1,-1],"loss_changes":[3.259493E1,0E0,8.097338E0,0E0,0E0],"parents":[2147483647,0,0,2,2],"right_children":[2,-1,4,-1,-1],"split_conditions":[-7.895834E-1,4.9114104E-2,9.085988E0,4.011972E-2,-7.952352E-2],"split_indices":[0,0,4,0,0],"split_type":[0,0,0,0,0],"sum_hessian":[3.244922E2,1.9562888E2,1.2886331E2,1.899031E1,1.0987299E2],"tree_param":{"num_deleted":"0","num_feature":"11","num_nodes":"5","size_leaf_vector":"1"}},{"base_weights":[-3.8267905E-1,-8.031632E-2,2.661083E-1,-2.9721757E-2,1.2471574E-1],"categories":[],"categories_nodes":[],"categories_segments":[],"categories_sizes":[],"default_left":[0,0,0,0,0],"id":23,"left_children":[1,-1,3,-1,-1],"loss_changes":[1.3648285E1,0E0,5.99724E0,0E0,0E0],"parents":[2147483647,0,0,2,2],"right_children":[2,-1,4,-1,-1],"split_conditions":[4.06E0,-8.031632E-2,1.6904673E1,-2.9721757E-2,1.2471574E-1],"split_indices":[3,0,4,0,0],"split_type":[0,0,0,0,0],"sum_hessian":[2.4380551E2,2.1576678E2,2.8038729E1,1.4667557E1,1.3371172E1],"tree_param":{"num_deleted":"0","num_feature":"11","num_nodes":"5","size_leaf_vector":"1"}},{"base_weights":[2.3412144E-1,-1.0347617E-2,9.589017E-2],"categories":[],"categories_nodes":[],"categories_segments":[],"categories_sizes":[],"default_left":[0,0,0],"id":24,"left_children":[1,-1,-1],"loss_changes":[3.4138023E1,0E0,0E0],"parents":[2147483647,0,0],"right_children":[2,-1,-1],"split_conditions":[1.8479165E0,-1.0347617E-2,9.589017E-2],"split_indices":[0,0,0],"split_type":[0,0,0],"sum_hessian":[3.5608548E2,1.8710858E2,1.6897688E2],"tree_param":{"num_deleted":"0","num_feature":"11","num_nodes":"3","size_leaf_vector":"1"}},{"base_weights":[-6.540236E-2,2.7334215E-3,-3.4762418E-1,1.827842E-1,-6.904404E-2],"categories":[],"categories_nodes":[],"categories_segments":[],"categories_sizes":[],"default_left":[0,0,0,0,0],"id":25,"left_children":[1,-1,3,-1,-1],"loss_changes":[6.8379965E0,0E0,5.561405E0,0E0,0E0],"parents":[2147483647,0,0,2,2],"right_children":[2,-1,4,-1,-1],"split_conditions":[5.2465836E1,2.7334215E-3,7.928177E0,1.827842E-1,-6.904404E-2],"split_indices":[10,0,4,0,0],"split_type":[0,0,0,0,0],"sum_hessian":[2.9669244E2,2.3105582E2,6.563662E1,1.7520211E0,6.38846E1],"tree_param":{"num_deleted":"0","num_feature":"11","num_nodes":"5","size_leaf_vector":"1"}},{"base_weights":[6.0648464E-2,2.3337445E-1,-7.077368E-2,1.710543E-1,3.4255862E-2],"categories":[],"categories_nodes":[],"categories_segments":[],"categories_sizes":[],"default_left":[0,0,0,0,0],"id":26,"left_children":[1,3,-1,-1,-1],"loss_changes":[2.610872E1,5.840543E0,0E0,0E0,0E0],"parents":[2147483647,0,0,1,1],"right_children":[2,4,-1,-1,-1],"split_conditions":[1.3812503E0,-1.871875E1,-7.077368E-2,1.710543E-1,3.4255862E-2],"split_indices":[0,0,0,0,0],"split_type":[0,0,0,0,0],"sum_hessian":[3.17466E2,2.3290338E2,8.4562614E1,8.683311E0,2.2422008E2],"tree_param":{"num_deleted":"0","num_feature":"11","num_nodes":"5","size_leaf_vector":"1"}},{"base_weights":[-3.6274028E-1,-7.820266E-2,-1.3866583E-3],"categories":[],"categories_nodes":[],"categories_segments":[],"categories_sizes":[],"default_left":[0,0,0],"id":27,"left_children":[1,-1,-1],"loss_changes":[7.8339405E0,0E0,0E0],"parents":[2147483647,0,0],"right_children":[2,-1,-1],"split_conditions":[1.7500004E0,-7.820266E-2,-1.3866583E-3],"split_indices":[3,0,0],"split_type":[0,0,0],"sum_hessian":[2.3719682E2,1.8778926E2,4.940756E1],"tree_param":{"num_deleted":"0","num_feature":"11","num_nodes":"3","size_leaf_vector":"1"}},{"base_weights":[1.97141E-1,-4.6075534E-2,3.71037E-1,3.1862684E-2,9.655521E-2],"categories":[],"categories_nodes":[],"categories_segments":[],"categories_sizes":[],"default_left":[0,0,0,0,0],"id":28,"left_children":[1,-1,3,-1,-1],"loss_changes":[2.9100687E1,0E0,9.166954E0,0E0,0E0],"parents":[2147483647,0,0,2,2],"right_children":[2,-1,4,-1,-1],"split_conditions":[-4.1645837E0,-4.6075534E-2,4.5291667E0,3.1862684E-2,9.655521E-2],"split_indices":[0,0,0,0,0],"split_type":[0,0,0,0,0],"sum_hessian":[3.5724872E2,9.700951E1,2.6023923E2,1.3316963E2,1.2706958E2],"tree_param":{"num_deleted":"0","num_feature":"11","num_nodes":"5","size_leaf_vector":"1"}},{"base_weights":[-4.6103604E-2,8.155701E-3,-6.193876E-2],"categories":[],"categories_nodes":[],"categories_segments":[],"categories_sizes":[],"default_left":[0,0,0],"id":29,"left_children":[1,-1,-1],"loss_changes":[8.695838E0,0E0,0E0],"parents":[2147483647,0,0],"right_children":[2,-1,-1],"split_conditions":[3.3E0,8.155701E-3,-6.193876E-2],"split_indices":[1,0,0],"split_type":[0,0,0],"sum_hessian":[2.9362592E2,2.269599E2,6.666602E1],"tree_param":{"num_deleted":"0","num_feature":"11","num_nodes":"3","size_leaf_vector":"1"}},{"base_weights":[6.821763E-2,3.0799577E-2,-9.126807E-2],"categories":[],"categories_nodes":[],"categories_segments":[],"categories_sizes":[],"default_left":[0,0,0],"id":30,"left_children":[1,-1,-1],"loss_changes":[2.2061146E1,0E0,0E0],"parents":[2147483647,0,0],"right_children":[2,-1,-1],"split_conditions":[4.5291667E0,3.0799577E-2,-9.126807E-2],"split_indices":[0,0,0],"split_type":[0,0,0],"sum_hessian":[3.2836026E2,2.776051E2,5.0755173E1],"tree_param":{"num_deleted":"0","num_feature":"11","num_nodes":"3","size_leaf_vector":"1"}},{"base_weights":[-3.0834126E-1,-6.935945E-2,5.339073E-2],"categories":[],"categories_nodes":[],"categories_segments":[],"categories_sizes":[],"default_left":[0,0,0],"id":31,"left_children":[1,-1,-1],"loss_changes":[1.30638275E1,0E0,0E0],"parents":[2147483647,0,0],"right_children":[2,-1,-1],"split_conditions":[3.1479248E-1,-6.935945E-2,5.339073E-2],"split_indices":[6,0,0],"split_type":[0,0,0],"sum_hessian":[2.1737366E2,1.885909E2,2.878275E1],"tree_param":{"num_deleted":"0","num_feature":"11","num_nodes":"3","size_leaf_vector":"1"}},{"base_weights":[1.9309631E-1,-1.0859218E-2,9.998372E-2,-3.5231672E-2,2.3017326E-2],"categories":[],"categories_nodes":[],"categories_segments":[],"categories_sizes":[],"default_left":[0,0,0,0,0],"id":32,"left_children":[1,3,-1,-1,-1],"loss_changes":[2.7581259E1,6.4747796E0,0E0,0E0,0E0],"parents":[2147483647,0,0,1,1],"right_children":[2,4,-1,-1,-1],"split_conditions":[4.5291667E0,-3.4395835E0,9.998372E-2,-3.5231672E-2,2.3017326E-2],"split_indices":[0,0,0,0,0],"split_type":[0,0,0,0,0],"sum_hessian":[3.4630106E2,2.2788191E2,1.1841913E2,9.716431E1,1.307176E2],"tree_param":{"num_deleted":"0","num_feature":"11","num_nodes":"5","size_leaf_vector":"1"}},{"base_weights":[-3.794645E-2,9.531273E-3,-5.2733943E-2],"categories":[],"categories_nodes":[],"categories_segments":[],"categories_sizes":[],"default_left":[0,0,0],"id":33,"left_children":[1,-1,-1],"loss_changes":[7.4159536E0,0E0,0E0],"parents":[2147483647,0,0],"right_children":[2,-1,-1],"split_conditions":[3.770982E1,9.531273E-3,-5.2733943E-2],"split_indices":[10,0,0],"split_type":[0,0,0],"sum_hessian":[2.9304672E2,2.1811708E2,7.492964E1],"tree_param":{"num_deleted":"0","num_feature":"11","num_nodes":"3","size_leaf_vector":"1"}},{"base_weights":[5.5235617E-2,2.7336838E-2,-9.293625E-2],"categories":[],"categories_nodes":[],"categories_segments":[],"categories_sizes":[],"default_left":[0,0,0],"id":34,"left_children":[1,-1,-1],"loss_changes":[1.937787E1,0E0,0E0],"parents":[2147483647,0,0],"right_children":[2,-1,-1],"split_conditions":[4.7000003E0,2.7336838E-2,-9.293625E-2],"split_indices":[0,0,0],"split_type":[0,0,0],"sum_hessian":[3.099495E2,2.645631E2,4.538639E1],"tree_param":{"num_deleted":"0","num_feature":"11","num_nodes":"3","size_leaf_vector":"1"}},{"base_weights":[-2.9893434E-1,-6.1621934E-2,7.3543034E-2],"categories":[],"categories_nodes":[],"categories_segments":[],"categories_sizes":[],"default_left":[0,0,0],"id":35,"left_children":[1,-1,-1],"loss_changes":[9.296217E0,0E0,0E0],"parents":[2147483647,0,0],"right_children":[2,-1,-1],"split_conditions":[4.123338E-1,-6.1621934E-2,7.3543034E-2],"split_indices":[6,0,0],"split_type":[0,0,0],"sum_hessian":[2.0849876E2,1.9307677E2,1.5421989E1],"tree_param":{"num_deleted":"0","num_feature":"11","num_nodes":"3","size_leaf_vector":"1"}},{"base_weights":[1.5496293E-1,-2.3406584E-2,8.752082E-2,-7.9026446E-2,6.088078E-3],"categories":[],"categories_nodes":[],"categories_segments":[],"categories_sizes":[],"default_left":[0,0,0,0,0],"id":36,"left_children":[1,3,-1,-1,-1],"loss_changes":[2.1119675E1,5.7491813E0,0E0,0E0,0E0],"parents":[2147483647,0,0,1,1],"right_children":[2,4,-1,-1,-1],"split_conditions":[4.24375E0,-1.0647916E1,8.752082E-2,-7.9026446E-2,6.088078E-3],"split_indices":[0,0,0,0,0],"split_type":[0,0,0,0,0],"sum_hessian":[3.3250467E2,2.2189435E2,1.1061033E2,2.5538027E1,1.9635632E2],"tree_param":{"num_deleted":"0","num_feature":"11","num_nodes":"5","size_leaf_vector":"1"}},{"base_weights":[-2.2880582E-2,1.667272E-2,-5.2264724E-2],"categories":[],"categories_nodes":[],"categories_segments":[],"categories_sizes":[],"default_left":[0,0,0],"id":37,"left_children":[1,-1,-1],"loss_changes":[9.622574E0,0E0,0E0],"parents":[2147483647,0,0],"right_children":[2,-1,-1],"split_conditions":[1.6000003E0,1.667272E-2,-5.2264724E-2],"split_indices":[1,0,0],"split_type":[0,0,0],"sum_hessian":[2.8294257E2,1.9884904E2,8.409351E1],"tree_param":{"num_deleted":"0","num_feature":"11","num_nodes":"3","size_leaf_vector":"1"}},{"base_weights":[4.827429E-2,2.6736308E-2,-7.299859E-2],"categories":[],"categories_nodes":[],"categories_segments":[],"categories_sizes":[],"default_left":[0,0,0],"id":38,"left_children":[1,-1,-1],"loss_changes":[1.6190216E1,0E0,0E0],"parents":[2147483647,0,0],"right_children":[2,-1,-1],"split_conditions":[2.3895838E0,2.6736308E-2,-7.299859E-2],"split_indices":[0,0,0],"split_type":[0,0,0],"sum_hessian":[3.159047E2,2.5801672E2,5.788796E1],"tree_param":{"num_deleted":"0","num_feature":"11","num_nodes":"3","size_leaf_vector":"1"}},{"base_weights":[-2.818389E-1,-7.058666E-2,-7.2917426E-3],"categories":[],"categories_nodes":[],"categories_segments":[],"categories_sizes":[],"default_left":[0,0,0],"id":39,"left_children":[1,-1,-1],"loss_changes":[5.6552525E0,0E0,0E0],"parents":[2147483647,0,0],"right_children":[2,-1,-1],"split_conditions":[5.6E-1,-7.058666E-2,-7.2917426E-3],"split_indices":[3,0,0],"split_type":[0,0,0],"sum_hessian":[1.8226527E2,1.1786972E2,6.4395546E1],"tree_param":{"num_deleted":"0","num_feature":"11","num_nodes":"3","size_leaf_vector":"1"}},{"base_weights":[1.9714577E-1,-1.1961106E-1,3.3413583E-1,3.1254846E-1,-4.5823593E-2,3.3500038E-2,8.497901E-2,-5.623356E-2,1.0412927E-1],"categories":[],"categories_nodes":[],"categories_segments":[],"categories_sizes":[],"default_left":[0,0,0,0,0,0,0,0,0],"id":40,"left_children":[1,3,5,7,-1,-1,-1,-1,-1],"loss_changes":[1.4225161E1,6.413054E0,5.011818E0,5.041772E0,0E0,0E0,0E0,0E0,0E0],"parents":[2147483647,0,0,1,1,2,2,3,3],"right_children":[2,4,6,8,-1,-1,-1,-1,-1],"split_conditions":[-3.0145836E0,1.324625E2,4.5291667E0,-9.85625E0,-4.5823593E-2,3.3500038E-2,8.497901E-2,-5.623356E-2,1.0412927E-1],"split_indices":[0,5,0,0,0,0,0,0,0],"split_type":[0,0,0,0,0,0,0,0,0],"sum_hessian":[3.2590396E2,9.843149E1,2.2747247E2,2.473668E1,7.369482E1,1.2320973E2,1.0426275E2,7.74946E0,1.6987219E1],"tree_param":{"num_deleted":"0","num_feature":"11","num_nodes":"9","size_leaf_vector":"1"}},{"base_weights":[-1.7467963E-2,2.5497537E-2,-2.5418751E-2],"categories":[],"categories_nodes":[],"categories_segments":[],"categories_sizes":[],"default_left":[0,0,0],"id":41,"left_children":[1,-1,-1],"loss_changes":[5.8963013E0,0E0,0E0],"parents":[2147483647,0,0],"right_children":[2,-1,-1],"split_conditions":[2E-1,2.5497537E-2,-2.5418751E-2],"split_indices":[1,0,0],"split_type":[0,0,0],"sum_hessian":[2.7000067E2,1.1882838E2,1.511723E2],"tree_param":{"num_deleted":"0","num_feature":"11","num_nodes":"3","size_leaf_vector":"1"}},{"base_weights":[2.318501E-2,3.9911203E-2,-4.8531406E-2],"categories":[],"categories_nodes":[],"categories_segments":[],"categories_sizes":[],"default_left":[0,0,0],"id":42,"left_children":[1,-1,-1],"loss_changes":[1.9777466E1,0E0,0E0],"parents":[2147483647,0,0],"right_children":[2,-1,-1],"split_conditions":[-2.6354167E0,3.9911203E-2,-4.8531406E-2],"split_indices":[0,0,0],"split_type":[0,0,0],"sum_hessian":[3.0692007E2,1.8237279E2,1.2454728E2],"tree_param":{"num_deleted":"0","num_feature":"11","num_nodes":"3","size_leaf_vector":"1"}},{"base_weights":[-3.3921877E-1,-2.2210972E-2,-8.6848974E-2],"categories":[],"categories_nodes":[],"categories_segments":[],"categories_sizes":[],"default_left":[0,0,0],"id":43,"left_children":[1,-1,-1],"loss_changes":[6.069147E0,0E0,0E0],"parents":[2147483647,0,0],"right_children":[2,-1,-1],"split_conditions":[-3.6229165E0,-2.2210972E-2,-8.6848974E-2],"split_indices":[0,0,0],"split_type":[0,0,0],"sum_hessian":[1.744115E2,7.79897E1,9.642179E1],"tree_param":{"num_deleted":"0","num_feature":"11","num_nodes":"3","size_leaf_vector":"1"}},{"base_weights":[1.0029305E-1,-1.1170964E-2,6.0341034E-2],"categories":[],"categories_nodes":[],"categories_segments":[],"categories_sizes":[],"default_left":[0,0,0],"id":44,"left_children":[1,-1,-1],"loss_changes":[1.3158095E1,0E0,0E0],"parents":[2147483647,0,0],"right_children":[2,-1,-1],"split_conditions":[2.5020833E0,-1.1170964E-2,6.0341034E-2],"split_indices":[0,0,0],"split_type":[0,0,0],"sum_hessian":[3.1523798E2,1.905399E2,1.24698074E2],"tree_param":{"num_deleted":"0","num_feature":"11","num_nodes":"3","size_leaf_vector":"1"}},{"base_weights":[-4.0365916E-2,2.1150693E-2,-2.8689893E-2],"categories":[],"categories_nodes":[],"categories_segments":[],"categories_sizes":[],"default_left":[0,0,0],"id":45,"left_children":[1,-1,-1],"loss_changes":[5.65887E0,0E0,0E0],"parents":[2147483647,0,0],"right_children":[2,-1,-1],"split_conditions":[3.2791152E0,2.1150693E-2,-2.8689893E-2],"split_indices":[10,0,0],"split_type":[0,0,0],"sum_hessian":[2.709687E2,1.183144E2,1.5265428E2],"tree_param":{"num_deleted":"0","num_feature":"11","num_nodes":"3","size_leaf_vector":"1"}},{"base_weights":[5.265291E-2,1.8937364E-2,-8.871717E-2],"categories":[],"categories_nodes":[],"categories_segments":[],"categories_sizes":[],"default_left":[0,0,0],"id":46,"left_children":[1,-1,-1],"loss_changes":[1.0175554E1,0E0,0E0],"parents":[2147483647,0,0],"right_children":[2,-1,-1],"split_conditions":[5.7791667E0,1.8937364E-2,-8.871717E-2],"split_indices":[0,0,0],"split_type":[0,0,0],"sum_hessian":[3.0722238E2,2.79708E2,2.7514395E1],"tree_param":{"num_deleted":"0","num_feature":"11","num_nodes":"3","size_leaf_vector":"1"}},{"base_weights":[-2.2720595E-1,-6.767527E-2,1.4984533E-1,-8.329088E-3,1.0902365E-1],"categories":[],"categories_nodes":[],"categories_segments":[],"categories_sizes":[],"default_left":[0,0,0,0,0],"id":47,"left_children":[1,-1,3,-1,-1],"loss_changes":[1.0737351E1,0E0,5.1106024E0,0E0,0E0],"parents":[2147483647,0,0,2,2],"right_children":[2,-1,4,-1,-1],"split_conditions":[1.61E0,-6.767527E-2,2.266857E1,-8.329088E-3,1.0902365E-1],"split_indices":[3,0,4,0,0],"split_type":[0,0,0,0,0],"sum_hessian":[1.6859445E2,1.1681404E2,5.178041E1,3.739315E1,1.438726E1],"tree_param":{"num_deleted":"0","num_feature":"11","num_nodes":"5","size_leaf_vector":"1"}},{"base_weights":[1.20486245E-1,-1.0732779E-3,6.550752E-2],"categories":[],"categories_nodes":[],"categories_segments":[],"categories_sizes":[],"default_left":[0,0,0],"id":48,"left_children":[1,-1,-1],"loss_changes":[1.0102331E1,0E0,0E0],"parents":[2147483647,0,0],"right_children":[2,-1,-1],"split_conditions":[4.385417E0,-1.0732779E-3,6.550752E-2],"split_indices":[0,0,0],"split_type":[0,0,0],"sum_hessian":[3.042353E2,2.0546973E2,9.876557E1],"tree_param":{"num_deleted":"0","num_feature":"11","num_nodes":"3","size_leaf_vector":"1"}},{"base_weights":[-2.7334087E-2,2.5230333E-2,-2.4321012E-2],"categories":[],"categories_nodes":[],"categories_segments":[],"categories_sizes":[],"default_left":[0,0,0],"id":49,"left_children":[1,-1,-1],"loss_changes":[5.4633284E0,0E0,0E0],"parents":[2147483647,0,0],"right_children":[2,-1,-1],"split_conditions":[1E-1,2.5230333E-2,-2.4321012E-2],"split_indices":[1,0,0],"split_type":[0,0,0],"sum_hessian":[2.7211612E2,1.0767776E2,1.6443835E2],"tree_param":{"num_deleted":"0","num_feature":"11","num_nodes":"3","size_leaf_vector":"1"}},{"base_weights":[1.24227395E-2,1.086664E-2,-8.223573E-2],"categories":[],"categories_nodes":[],"categories_segments":[],"categories_sizes":[],"default_left":[0,0,0],"id":50,"left_children":[1,-1,-1],"loss_changes":[7.707624E0,0E0,0E0],"parents":[2147483647,0,0],"right_children":[2,-1,-1],"split_conditions":[4.7000003E0,1.086664E-2,-8.223573E-2],"split_indices":[0,0,0],"split_type":[0,0,0],"sum_hessian":[3.0608362E2,2.7815945E2,2.7924156E1],"tree_param":{"num_deleted":"0","num_feature":"11","num_nodes":"3","size_leaf_vector":"1"}},{"base_weights":[-2.2315437E-1,-5.601276E-2,5.8004916E-2],"categories":[],"categories_nodes":[],"categories_segments":[],"categories_sizes":[],"default_left":[0,0,0],"id":51,"left_children":[1,-1,-1],"loss_changes":[9.611741E0,0E0,0E0],"parents":[2147483647,0,0],"right_children":[2,-1,-1],"split_conditions":[4.4100003E0,-5.601276E-2,5.8004916E-2],"split_indices":[3,0,0],"split_type":[0,0,0],"sum_hessian":[1.6325368E2,1.3826132E2,2.499236E1],"tree_param":{"num_deleted":"0","num_feature":"11","num_nodes":"3","size_leaf_vector":"1"}},{"base_weights":[1.3479388E-1,7.322986E-3,7.258213E-2],"categories":[],"categories_nodes":[],"categories_segments":[],"categories_sizes":[],"default_left":[0,0,0],"id":52,"left_children":[1,-1,-1],"loss_changes":[7.797519E0,0E0,0E0],"parents":[2147483647,0,0],"right_children":[2,-1,-1],"split_conditions":[5.7791667E0,7.322986E-3,7.258213E-2],"split_indices":[0,0,0],"split_type":[0,0,0],"sum_hessian":[2.9354367E2,2.2326059E2,7.028309E1],"tree_param":{"num_deleted":"0","num_feature":"11","num_nodes":"3","size_leaf_vector":"1"}},{"base_weights":[-6.176794E-2],"categories":[],"categories_nodes":[],"categories_segments":[],"categories_sizes":[],"default_left":[0],"id":53,"left_children":[-1],"loss_changes":[0E0],"parents":[2147483647],"right_children":[-1],"split_conditions":[-1.0604287E-2],"split_indices":[0],"split_type":[0],"sum_hessian":[2.6062772E2],"tree_param":{"num_deleted":"0","num_feature":"11","num_nodes":"1","size_leaf_vector":"1"}},{"base_weights":[2.7351974E-2,2.1582697E-2,-4.891677E-2],"categories":[],"categories_nodes":[],"categories_segments":[],"categories_sizes":[],"default_left":[0,0,0],"id":54,"left_children":[1,-1,-1],"loss_changes":[9.022775E0,0E0,0E0],"parents":[2147483647,0,0],"right_children":[2,-1,-1],"split_conditions":[3.8749996E-1,2.1582697E-2,-4.891677E-2],"split_indices":[0,0,0],"split_type":[0,0,0],"sum_hessian":[2.9157172E2,2.2218509E2,6.938662E1],"tree_param":{"num_deleted":"0","num_feature":"11","num_nodes":"3","size_leaf_vector":"1"}},{"base_weights":[-2.4108729E-1,-7.344981E-2,-1.9569432E-3],"categories":[],"categories_nodes":[],"categories_segments":[],"categories_sizes":[],"default_left":[0,0,0],"id":55,"left_children":[1,-1,-1],"loss_changes":[6.477791E0,0E0,0E0],"parents":[2147483647,0,0],"right_children":[2,-1,-1],"split_conditions":[4.2E-1,-7.344981E-2,-1.9569432E-3],"split_indices":[3,0,0],"split_type":[0,0,0],"sum_hessian":[1.5013615E2,8.233368E1,6.7802475E1],"tree_param":{"num_deleted":"0","num_feature":"11","num_nodes":"3","size_leaf_vector":"1"}},{"base_weights":[1.1732509E-1,-2.732713E-3,6.7802824E-2],"categories":[],"categories_nodes":[],"categories_segments":[],"categories_sizes":[],"default_left":[0,0,0],"id":56,"left_children":[1,-1,-1],"loss_changes":[1.1057639E1,0E0,0E0],"parents":[2147483647,0,0],"right_children":[2,-1,-1],"split_conditions":[3.3583329E0,-2.732713E-3,6.7802824E-2],"split_indices":[0,0,0],"split_type":[0,0,0],"sum_hessian":[2.9776654E2,2.0183632E2,9.593021E1],"tree_param":{"num_deleted":"0","num_feature":"11","num_nodes":"3","size_leaf_vector":"1"}},{"base_weights":[2.5282351E-2],"categories":[],"categories_nodes":[],"categories_segments":[],"categories_sizes":[],"default_left":[0],"id":57,"left_children":[-1],"loss_changes":[0E0],"parents":[2147483647],"right_children":[-1],"split_conditions":[4.3404605E-3],"split_indices":[0],"split_type":[0],"sum_hessian":[2.5983575E2],"tree_param":{"num_deleted":"0","num_feature":"11","num_nodes":"1","size_leaf_vector":"1"}},{"base_weights":[4.1048475E-2,2.6236463E-2,-1.686279E-1,9.170788E-2,-4.015919E-2],"categories":[],"categories_nodes":[],"categories_segments":[],"categories_sizes":[],"default_left":[0,0,0,0,0],"id":58,"left_children":[1,-1,3,-1,-1],"loss_changes":[7.203851E0,0E0,5.033744E0,0E0,0E0],"parents":[2147483647,0,0,2,2],"right_children":[2,-1,4,-1,-1],"split_conditions":[-2.6354167E0,2.6236463E-2,7.754637E0,9.170788E-2,-4.015919E-2],"split_indices":[0,0,4,0,0],"split_type":[0,0,0,0,0],"sum_hessian":[3.0527985E2,1.9930556E2,1.059743E2,8.397796E0,9.75765E1],"tree_param":{"num_deleted":"0","num_feature":"11","num_nodes":"5","size_leaf_vector":"1"}},{"base_weights":[-2.247281E-1,-5.7678215E-2,6.231595E-2],"categories":[],"categories_nodes":[],"categories_segments":[],"categories_sizes":[],"default_left":[0,0,0],"id":59,"left_children":[1,-1,-1],"loss_changes":[9.766239E0,0E0,0E0],"parents":[2147483647,0,0],"right_children":[2,-1,-1],"split_conditions":[5.320001E0,-5.7678215E-2,6.231595E-2],"split_indices":[3,0,0],"split_type":[0,0,0],"sum_hessian":[1.4652399E2,1.2356493E2,2.2959051E1],"tree_param":{"num_deleted":"0","num_feature":"11","num_nodes":"3","size_leaf_vector":"1"}},{"base_weights":[2.8097779E-2,-2.692313E-2,1.6129965E-1,2.0355394E-1,-8.395519E-2,-6.1385084E-2,4.4611238E-2],"categories":[],"categories_nodes":[],"categories_segments":[],"categories_sizes":[],"default_left":[0,0,0,0,0,0,0],"id":60,"left_children":[1,-1,3,5,-1,-1,-1],"loss_changes":[7.470134E0,0E0,4.940912E0,5.3412285E0,0E0,0E0,0E0],"parents":[2147483647,0,0,2,2,3,3],"right_children":[2,-1,4,6,-1,-1,-1],"split_conditions":[-9.6875006E-1,-2.692313E-2,3.2155692E2,1.13101585E2,-8.395519E-2,-6.1385084E-2,4.4611238E-2],"split_indices":[0,0,5,5,0,0,0],"split_type":[0,0,0,0,0,0,0],"sum_hessian":[3.012466E2,1.26061775E2,1.7518483E2,1.6514183E2,1.0042991E1,1.4570411E1,1.5057143E2],"tree_param":{"num_deleted":"0","num_feature":"11","num_nodes":"7","size_leaf_vector":"1"}},{"base_weights":[-5.143279E-2,5.119485E-3,-5.5120997E-2],"categories":[],"categories_nodes":[],"categories_segments":[],"categories_sizes":[],"default_left":[0,0,0],"id":61,"left_children":[1,-1,-1],"loss_changes":[5.8056374E0,0E0,0E0],"parents":[2147483647,0,0],"right_children":[2,-1,-1],"split_conditions":[1.9319628E1,5.119485E-3,-5.5120997E-2],"split_indices":[4,0,0],"split_type":[0,0,0],"sum_hessian":[2.635551E2,2.0320908E2,6.0346035E1],"tree_param":{"num_deleted":"0","num_feature":"11","num_nodes":"3","size_leaf_vector":"1"}},{"base_weights":[8.368153E-3,3.3704847E-2,-1.9811796E-2],"categories":[],"categories_nodes":[],"categories_segments":[],"categories_sizes":[],"default_left":[0,0,0],"id":62,"left_children":[1,-1,-1],"loss_changes":[6.7886653E0,0E0,0E0],"parents":[2147483647,0,0],"right_children":[2,-1,-1],"split_conditions":[-6.2104163E0,3.3704847E-2,-1.9811796E-2],"split_indices":[0,0,0],"split_type":[0,0,0],"sum_hessian":[2.8984897E2,1.148499E2,1.7499907E2],"tree_param":{"num_deleted":"0","num_feature":"11","num_nodes":"3","size_leaf_vector":"1"}},{"base_weights":[-2.2950602E-1,-6.551997E-2,1.3307616E-2],"categories":[],"categories_nodes":[],"categories_segments":[],"categories_sizes":[],"default_left":[0,0,0],"id":63,"left_children":[1,-1,-1],"loss_changes":[6.4512386E0,0E0,0E0],"parents":[2147483647,0,0],"right_children":[2,-1,-1],"split_conditions":[1.6100001E0,-6.551997E-2,1.3307616E-2],"split_indices":[3,0,0],"split_type":[0,0,0],"sum_hessian":[1.3648334E2,9.109883E1,4.5384506E1],"tree_param":{"num_deleted":"0","num_feature":"11","num_nodes":"3","size_leaf_vector":"1"}},{"base_weights":[4.478174E-2,-3.7511485E-3,6.590468E-2],"categories":[],"categories_nodes":[],"categories_segments":[],"categories_sizes":[],"default_left":[0,0,0],"id":64,"left_children":[1,-1,-1],"loss_changes":[6.7398343E0,0E0,0E0],"parents":[2147483647,0,0],"right_children":[2,-1,-1],"split_conditions":[7.1750007E0,-3.7511485E-3,6.590468E-2],"split_indices":[0,0,0],"split_type":[0,0,0],"sum_hessian":[2.9692078E2,2.4894077E2,4.798E1],"tree_param":{"num_deleted":"0","num_feature":"11","num_nodes":"3","size_leaf_vector":"1"}},{"base_weights":[8.3177455E-2],"categories":[],"categories_nodes":[],"categories_segments":[],"categories_sizes":[],"default_left":[0],"id":65,"left_children":[-1],"loss_changes":[0E0],"parents":[2147483647],"right_children":[-1],"split_conditions":[1.4279861E-2],"split_indices":[0],"split_type":[0],"sum_hessian":[2.6706897E2],"tree_param":{"num_deleted":"0","num_feature":"11","num_nodes":"1","size_leaf_vector":"1"}},{"base_weights":[5.231942E-2,1.5003694E-2,-8.4733576E-2],"categories":[],"categories_nodes":[],"categories_segments":[],"categories_sizes":[],"default_left":[0,0,0],"id":66,"left_children":[1,-1,-1],"loss_changes":[5.839406E0,0E0,0E0],"parents":[2147483647,0,0],"right_children":[2,-1,-1],"split_conditions":[5.7791667E0,1.5003694E-2,-8.4733576E-2],"split_indices":[0,0,0],"split_type":[0,0,0],"sum_hessian":[3.0173773E2,2.8430984E2,1.7427877E1],"tree_param":{"num_deleted":"0","num_feature":"11","num_nodes":"3","size_leaf_vector":"1"}},{"base_weights":[-2.0443295E-1,-6.357357E-2,9.813602E-2,2.762356E-1,5.0005247E-3],"categories":[],"categories_nodes":[],"categories_segments":[],"categories_sizes":[],"default_left":[0,0,0,0,0],"id":67,"left_children":[1,-1,3,-1,-1],"loss_changes":[6.8097677E0,0E0,5.0182757E0,0E0,0E0],"parents":[2147483647,0,0,2,2],"right_children":[2,-1,4,-1,-1],"split_conditions":[1.5400002E0,-6.357357E-2,2.3999999E0,2.762356E-1,5.0005247E-3],"split_indices":[3,0,1,0,0],"split_type":[0,0,0,0,0],"sum_hessian":[1.3396274E2,8.638299E1,4.7579758E1,1.103504E0,4.6476254E1],"tree_param":{"num_deleted":"0","num_feature":"11","num_nodes":"5","size_leaf_vector":"1"}},{"base_weights":[7.123297E-2,-9.672138E-3,5.2196022E-2],"categories":[],"categories_nodes":[],"categories_segments":[],"categories_sizes":[],"default_left":[0,0,0],"id":68,"left_children":[1,-1,-1],"loss_changes":[8.571509E0,0E0,0E0],"parents":[2147483647,0,0],"right_children":[2,-1,-1],"split_conditions":[3E-1,-9.672138E-3,5.2196022E-2],"split_indices":[2,0,0],"split_type":[0,0,0],"sum_hessian":[2.8704126E2,1.859181E2,1.0112317E2],"tree_param":{"num_deleted":"0","num_feature":"11","num_nodes":"3","size_leaf_vector":"1"}},{"base_weights":[2.4414042E-2],"categories":[],"categories_nodes":[],"categories_segments":[],"categories_sizes":[],"default_left":[0],"id":69,"left_children":[-1],"loss_changes":[0E0],"parents":[2147483647],"right_children":[-1],"split_conditions":[4.19139E-3],"split_indices":[0],"split_type":[0],"sum_hessian":[2.6096964E2],"tree_param":{"num_deleted":"0","num_feature":"11","num_nodes":"1","size_leaf_vector":"1"}},{"base_weights":[4.3118436E-2,1.3700866E-2,-8.472732E-2],"categories":[],"categories_nodes":[],"categories_segments":[],"categories_sizes":[],"default_left":[0,0,0],"id":70,"left_children":[1,-1,-1],"loss_changes":[6.0113297E0,0E0,0E0],"parents":[2147483647,0,0],"right_children":[2,-1,-1],"split_conditions":[4.7000003E0,1.3700866E-2,-8.472732E-2],"split_indices":[0,0,0],"split_type":[0,0,0],"sum_hessian":[3.023385E2,2.83789E2,1.8549511E1],"tree_param":{"num_deleted":"0","num_feature":"11","num_nodes":"3","size_leaf_vector":"1"}},{"base_weights":[-1.6409357E-1,1.1253909E-2,-6.333827E-2],"categories":[],"categories_nodes":[],"categories_segments":[],"categories_sizes":[],"default_left":[0,0,0],"id":71,"left_children":[1,-1,-1],"loss_changes":[6.384611E0,0E0,0E0],"parents":[2147483647,0,0],"right_children":[2,-1,-1],"split_conditions":[-3.2708333E0,1.1253909E-2,-6.333827E-2],"split_indices":[0,0,0],"split_type":[0,0,0],"sum_hessian":[1.3421169E2,6.3595207E1,7.061648E1],"tree_param":{"num_deleted":"0","num_feature":"11","num_nodes":"3","size_leaf_vector":"1"}},{"base_weights":[6.82399E-2],"categories":[],"categories_nodes":[],"categories_segments":[],"categories_sizes":[],"default_left":[0],"id":72,"left_children":[-1],"loss_changes":[0E0],"parents":[2147483647],"right_children":[-1],"split_conditions":[1.1715389E-2],"split_indices":[0],"split_type":[0],"sum_hessian":[2.764619E2],"tree_param":{"num_deleted":"0","num_feature":"11","num_nodes":"1","size_leaf_vector":"1"}},{"base_weights":[-1.8063093E-2],"categories":[],"categories_nodes":[],"categories_segments":[],"categories_sizes":[],"default_left":[0],"id":73,"left_children":[-1],"loss_changes":[0E0],"parents":[2147483647],"right_children":[-1],"split_conditions":[-3.101062E-3],"split_indices":[0],"split_type":[0],"sum_hessian":[2.5408623E2],"tree_param":{"num_deleted":"0","num_feature":"11","num_nodes":"1","size_leaf_vector":"1"}},{"base_weights":[-2.1996139E-2],"categories":[],"categories_nodes":[],"categories_segments":[],"categories_sizes":[],"default_left":[0],"id":74,"left_children":[-1],"loss_changes":[0E0],"parents":[2147483647],"right_children":[-1],"split_conditions":[-3.7762853E-3],"split_indices":[0],"split_type":[0],"sum_hessian":[2.8915854E2],"tree_param":{"num_deleted":"0","num_feature":"11","num_nodes":"1","size_leaf_vector":"1"}},{"base_weights":[-1.3925138E-1,-1.9296302E-1,1.2949723E-1,1.8689204E-2,-6.218751E-2],"categories":[],"categories_nodes":[],"categories_segments":[],"categories_sizes":[],"default_left":[0,0,0,0,0],"id":75,"left_children":[1,3,-1,-1,-1],"loss_changes":[6.3117228E0,6.271746E0,0E0,0E0,0E0],"parents":[2147483647,0,0,1,1],"right_children":[2,4,-1,-1,-1],"split_conditions":[9.029999E0,-5.483333E0,1.2949723E-1,1.8689204E-2,-6.218751E-2],"split_indices":[3,0,0,0,0],"split_type":[0,0,0,0,0],"sum_hessian":[1.2747816E2,1.2098946E2,6.488692E0,4.3600815E1,7.738865E1],"tree_param":{"num_deleted":"0","num_feature":"11","num_nodes":"5","size_leaf_vector":"1"}},{"base_weights":[6.0603388E-2,-1.5243538E-1,2.5098834E-2,6.2242943E-1,-4.8428986E-2,1.517712E-2,2.4445648E-1],"categories":[],"categories_nodes":[],"categories_segments":[],"categories_sizes":[],"default_left":[0,0,0,0,0,0,0],"id":76,"left_children":[1,3,-1,5,-1,-1,-1],"loss_changes":[5.166589E0,8.348299E0,0E0,4.9985065E0,0E0,0E0,0E0],"parents":[2147483647,0,0,1,1,3,3],"right_children":[2,4,-1,6,-1,-1,-1],"split_conditions":[-3.6229165E0,6.792466E0,2.5098834E-2,3E-1,-4.8428986E-2,1.517712E-2,2.4445648E-1],"split_indices":[0,4,0,1,0,0,0],"split_type":[0,0,0,0,0,0,0],"sum_hessian":[2.8111884E2,8.034934E1,2.007695E2,1.0972521E1,6.937682E1,7.2513003E0,3.72122E0],"tree_param":{"num_deleted":"0","num_feature":"11","num_nodes":"7","size_leaf_vector":"1"}},{"base_weights":[7.187124E-2],"categories":[],"categories_nodes":[],"categories_segments":[],"categories_sizes":[],"default_left":[0],"id":77,"left_children":[-1],"loss_changes":[0E0],"parents":[2147483647],"right_children":[-1],"split_conditions":[1.2338817E-2],"split_indices":[0],"split_type":[0],"sum_hessian":[2.5286652E2],"tree_param":{"num_deleted":"0","num_feature":"11","num_nodes":"1","size_leaf_vector":"1"}},{"base_weights":[-2.619574E-2],"categories":[],"categories_nodes":[],"categories_segments":[],"categories_sizes":[],"default_left":[0],"id":78,"left_children":[-1],"loss_changes":[0E0],"parents":[2147483647],"right_children":[-1],"split_conditions":[-4.4972706E-3],"split_indices":[0],"split_type":[0],"sum_hessian":[3.009298E2],"tree_param":{"num_deleted":"0","num_feature":"11","num_nodes":"1","size_leaf_vector":"1"}},{"base_weights":[-1.7471164E-1],"categories":[],"categories_nodes":[],"categories_segments":[],"categories_sizes":[],"default_left":[0],"id":79,"left_children":[-1],"loss_changes":[0E0],"parents":[2147483647],"right_children":[-1],"split_conditions":[-2.9994402E-2],"split_indices":[0],"split_type":[0],"sum_hessian":[1.20701935E2],"tree_param":{"num_deleted":"0","num_feature":"11","num_nodes":"1","size_leaf_vector":"1"}},{"base_weights":[8.119187E-2,-5.9077144E-4,6.163817E-2],"categories":[],"categories_nodes":[],"categories_segments":[],"categories_sizes":[],"default_left":[0,0,0],"id":80,"left_children":[1,-1,-1],"loss_changes":[6.8746343E0,0E0,0E0],"parents":[2147483647,0,0],"right_children":[2,-1,-1],"split_conditions":[4.8312497E0,-5.9077144E-4,6.163817E-2],"split_indices":[0,0,0],"split_type":[0,0,0],"sum_hessian":[2.9130695E2,2.2404712E2,6.7259834E1],"tree_param":{"num_deleted":"0","num_feature":"11","num_nodes":"3","size_leaf_vector":"1"}},{"base_weights":[-8.981494E-3],"categories":[],"categories_nodes":[],"categories_segments":[],"categories_sizes":[],"default_left":[0],"id":81,"left_children":[-1],"loss_changes":[0E0],"parents":[2147483647],"right_children":[-1],"split_conditions":[-1.5419382E-3],"split_indices":[0],"split_type":[0],"sum_hessian":[2.4951353E2],"tree_param":{"num_deleted":"0","num_feature":"11","num_nodes":"1","size_leaf_vector":"1"}},{"base_weights":[4.4293202E-2],"categories":[],"categories_nodes":[],"categories_segments":[],"categories_sizes":[],"default_left":[0],"id":82,"left_children":[-1],"loss_changes":[0E0],"parents":[2147483647],"right_children":[-1],"split_conditions":[7.6042335E-3],"split_indices":[0],"split_type":[0],"sum_hessian":[2.8614676E2],"tree_param":{"num_deleted":"0","num_feature":"11","num_nodes":"1","size_leaf_vector":"1"}},{"base_weights":[-1.2812507E-1,-4.0033877E-2,3.568794E-1,1.6818191E-1,-9.758298E-3],"categories":[],"categories_nodes":[],"categories_segments":[],"categories_sizes":[],"default_left":[0,0,0,0,0],"id":83,"left_children":[1,-1,3,-1,-1],"loss_changes":[6.317689E0,0E0,5.7701674E0,0E0,0E0],"parents":[2147483647,0,0,2,2],"right_children":[2,-1,4,-1,-1],"split_conditions":[2.3444265E1,-4.0033877E-2,-3.6229165E0,1.6818191E-1,-9.758298E-3],"split_indices":[4,0,0,0,0],"split_type":[0,0,0,0,0],"sum_hessian":[1.2134813E2,1.00168274E2,2.1179853E1,7.90822E0,1.3271633E1],"tree_param":{"num_deleted":"0","num_feature":"11","num_nodes":"5","size_leaf_vector":"1"}},{"base_weights":[3.389083E-2,-3.5469302E-3,6.679222E-2],"categories":[],"categories_nodes":[],"categories_segments":[],"categories_sizes":[],"default_left":[0,0,0],"id":84,"left_children":[1,-1,-1],"loss_changes":[5.3274693E0,0E0,0E0],"parents":[2147483647,0,0],"right_children":[2,-1,-1],"split_conditions":[2.0000002E0,-3.5469302E-3,6.679222E-2],"split_indices":[2,0,0],"split_type":[0,0,0],"sum_hessian":[2.7355984E2,2.3795322E2,3.5606632E1],"tree_param":{"num_deleted":"0","num_feature":"11","num_nodes":"3","size_leaf_vector":"1"}},{"base_weights":[3.9584808E-2],"categories":[],"categories_nodes":[],"categories_segments":[],"categories_sizes":[],"default_left":[0],"id":85,"left_children":[-1],"loss_changes":[0E0],"parents":[2147483647],"right_children":[-1],"split_conditions":[6.7958985E-3],"split_indices":[0],"split_type":[0],"sum_hessian":[2.5041425E2],"tree_param":{"num_deleted":"0","num_feature":"11","num_nodes":"1","size_leaf_vector":"1"}},{"base_weights":[3.6973037E-2],"categories":[],"categories_nodes":[],"categories_segments":[],"categories_sizes":[],"default_left":[0],"id":86,"left_children":[-1],"loss_changes":[0E0],"parents":[2147483647],"right_children":[-1],"split_conditions":[6.3475114E-3],"split_indices":[0],"split_type":[0],"sum_hessian":[2.8746387E2],"tree_param":{"num_deleted":"0","num_feature":"11","num_nodes":"1","size_leaf_vector":"1"}},{"base_weights":[-1.2338245E-1,-6.688029E-2,1.9432757E-2],"categories":[],"categories_nodes":[],"categories_segments":[],"categories_sizes":[],"default_left":[0,0,0],"id":87,"left_children":[1,-1,-1],"loss_changes":[7.2868147E0,0E0,0E0],"parents":[2147483647,0,0],"right_children":[2,-1,-1],"split_conditions":[4.9E-1,-6.688029E-2,1.9432757E-2],"split_indices":[3,0,0],"split_type":[0,0,0],"sum_hessian":[1.1401493E2,5.3345932E1,6.0668995E1],"tree_param":{"num_deleted":"0","num_feature":"11","num_nodes":"3","size_leaf_vector":"1"}},{"base_weights":[3.359096E-2],"categories":[],"categories_nodes":[],"categories_segments":[],"categories_sizes":[],"default_left":[0],"id":88,"left_children":[-1],"loss_changes":[0E0],"parents":[2147483647],"right_children":[-1],"split_conditions":[5.7668784E-3],"split_indices":[0],"split_type":[0],"sum_hessian":[2.6754114E2],"tree_param":{"num_deleted":"0","num_feature":"11","num_nodes":"1","size_leaf_vector":"1"}},{"base_weights":[-1.3744523E-2],"categories":[],"categories_nodes":[],"categories_segments":[],"categories_sizes":[],"default_left":[0],"id":89,"left_children":[-1],"loss_changes":[0E0],"parents":[2147483647],"right_children":[-1],"split_conditions":[-2.3596524E-3],"split_indices":[0],"split_type":[0],"sum_hessian":[2.621324E2],"tree_param":{"num_deleted":"0","num_feature":"11","num_nodes":"1","size_leaf_vector":"1"}},{"base_weights":[5.0888427E-2],"categories":[],"categories_nodes":[],"categories_segments":[],"categories_sizes":[],"default_left":[0],"id":90,"left_children":[-1],"loss_changes":[0E0],"parents":[2147483647],"right_children":[-1],"split_conditions":[8.736498E-3],"split_indices":[0],"split_type":[0],"sum_hessian":[2.9239624E2],"tree_param":{"num_deleted":"0","num_feature":"11","num_nodes":"1","size_leaf_vector":"1"}},{"base_weights":[-8.497514E-2,-3.0911097E-2,7.538846E-2],"categories":[],"categories_nodes":[],"categories_segments":[],"categories_sizes":[],"default_left":[0,0,0],"id":91,"left_children":[1,-1,-1],"loss_changes":[5.5438237E0,0E0,0E0],"parents":[2147483647,0,0],"right_children":[2,-1,-1],"split_conditions":[2.3444265E1,-3.0911097E-2,7.538846E-2],"split_indices":[4,0,0],"split_type":[0,0,0],"sum_hessian":[1.0866973E2,9.2538826E1,1.6130903E1],"tree_param":{"num_deleted":"0","num_feature":"11","num_nodes":"3","size_leaf_vector":"1"}},{"base_weights":[6.996537E-2],"categories":[],"categories_nodes":[],"categories_segments":[],"categories_sizes":[],"default_left":[0],"id":92,"left_children":[-1],"loss_changes":[0E0],"parents":[2147483647],"right_children":[-1],"split_conditions":[1.2011617E-2],"split_indices":[0],"split_type":[0],"sum_hessian":[2.7329236E2],"tree_param":{"num_deleted":"0","num_feature":"11","num_nodes":"1","size_leaf_vector":"1"}},{"base_weights":[2.9545177E-2],"categories":[],"categories_nodes":[],"categories_segments":[],"categories_sizes":[],"default_left":[0],"id":93,"left_children":[-1],"loss_changes":[0E0],"parents":[2147483647],"right_children":[-1],"split_conditions":[5.0723003E-3],"split_indices":[0],"split_type":[0],"sum_hessian":[2.504185E2],"tree_param":{"num_deleted":"0","num_feature":"11","num_nodes":"1","size_leaf_vector":"1"}},{"base_weights":[-1.3916859E-2],"categories":[],"categories_nodes":[],"categories_segments":[],"categories_sizes":[],"default_left":[0],"id":94,"left_children":[-1],"loss_changes":[0E0],"parents":[2147483647],"right_children":[-1],"split_conditions":[-2.389239E-3],"split_indices":[0],"split_type":[0],"sum_hessian":[2.8062427E2],"tree_param":{"num_deleted":"0","num_feature":"11","num_nodes":"1","size_leaf_vector":"1"}},{"base_weights":[-6.258893E-2,-4.744791E-2,4.3594602E-2],"categories":[],"categories_nodes":[],"categories_segments":[],"categories_sizes":[],"default_left":[0,0,0],"id":95,"left_children":[1,-1,-1],"loss_changes":[7.429422E0,0E0,0E0],"parents":[2147483647,0,0],"right_children":[2,-1,-1],"split_conditions":[1.6099999E0,-4.744791E-2,4.3594602E-2],"split_indices":[3,0,0],"split_type":[0,0,0],"sum_hessian":[1.0775615E2,6.439128E1,4.3364872E1],"tree_param":{"num_deleted":"0","num_feature":"11","num_nodes":"3","size_leaf_vector":"1"}},{"base_weights":[4.0188074E-2,-9.449226E-3,5.6756083E-2],"categories":[],"categories_nodes":[],"categories_segments":[],"categories_sizes":[],"default_left":[0,0,0],"id":96,"left_children":[1,-1,-1],"loss_changes":[7.6807275E0,0E0,0E0],"parents":[2147483647,0,0],"right_children":[2,-1,-1],"split_conditions":[4.0812497E0,-9.449226E-3,5.6756083E-2],"split_indices":[0,0,0],"split_type":[0,0,0],"sum_hessian":[2.7607867E2,2.0851433E2,6.756434E1],"tree_param":{"num_deleted":"0","num_feature":"11","num_nodes":"3","size_leaf_vector":"1"}},{"base_weights":[9.257636E-2],"categories":[],"categories_nodes":[],"categories_segments":[],"categories_sizes":[],"default_left":[0],"id":97,"left_children":[-1],"loss_changes":[0E0],"parents":[2147483647],"right_children":[-1],"split_conditions":[1.5893461E-2],"split_indices":[0],"split_type":[0],"sum_hessian":[2.6832016E2],"tree_param":{"num_deleted":"0","num_feature":"11","num_nodes":"1","size_leaf_vector":"1"}},{"base_weights":[-3.4005277E-2,2.5536668E-2,-2.5057366E-2],"categories":[],"categories_nodes":[],"categories_segments":[],"categories_sizes":[],"default_left":[0,0,0],"id":98,"left_children":[1,-1,-1],"loss_changes":[5.6233897E0,0E0,0E0],"parents":[2147483647,0,0],"right_children":[2,-1,-1],"split_conditions":[-6.2104163E0,2.5536668E-2,-2.5057366E-2],"split_indices":[0,0,0],"split_type":[0,0,0],"sum_hessian":[2.7280215E2,1.0350559E2,1.6929657E2],"tree_param":{"num_deleted":"0","num_feature":"11","num_nodes":"3","size_leaf_vector":"1"}},{"base_weights":[-1.0889649E-1,-7.92488E-2,1.7036546E-2],"categories":[],"categories_nodes":[],"categories_segments":[],"categories_sizes":[],"default_left":[0,0,0],"id":99,"left_children":[1,-1,-1],"loss_changes":[8.170532E0,0E0,0E0],"parents":[2147483647,0,0],"right_children":[2,-1,-1],"split_conditions":[1.4E-1,-7.92488E-2,1.7036546E-2],"split_indices":[3,0,0],"split_type":[0,0,0],"sum_hessian":[1.0967531E2,4.0248943E1,6.942636E1],"tree_param":{"num_deleted":"0","num_feature":"11","num_nodes":"3","size_leaf_vector":"1"}},{"base_weights":[2.1287458E-2],"categories":[],"categories_nodes":[],"categories_segments":[],"categories_sizes":[],"default_left":[0],"id":100,"left_children":[-1],"loss_changes":[0E0],"parents":[2147483647],"right_children":[-1],"split_conditions":[3.6546194E-3],"split_indices":[0],"split_type":[0],"sum_hessian":[2.783347E2],"tree_param":{"num_deleted":"0","num_feature":"11","num_nodes":"1","size_leaf_vector":"1"}},{"base_weights":[1.858392E-2],"categories":[],"categories_nodes":[],"categories_segments":[],"categories_sizes":[],"default_left":[0],"id":101,"left_children":[-1],"loss_changes":[0E0],"parents":[2147483647],"right_children":[-1],"split_conditions":[3.1904774E-3],"split_indices":[0],"split_type":[0],"sum_hessian":[2.5372293E2],"tree_param":{"num_deleted":"0","num_feature":"11","num_nodes":"1","size_leaf_vector":"1"}},{"base_weights":[3.0369174E-3],"categories":[],"categories_nodes":[],"categories_segments":[],"categories_sizes":[],"default_left":[0],"id":102,"left_children":[-1],"loss_changes":[0E0],"parents":[2147483647],"right_children":[-1],"split_conditions":[5.213764E-4],"split_indices":[0],"split_type":[0],"sum_hessian":[2.9157486E2],"tree_param":{"num_deleted":"0","num_feature":"11","num_nodes":"1","size_leaf_vector":"1"}},{"base_weights":[-1.2114017E-1],"categories":[],"categories_nodes":[],"categories_segments":[],"categories_sizes":[],"default_left":[0],"id":103,"left_children":[-1],"loss_changes":[0E0],"parents":[2147483647],"right_children":[-1],"split_conditions":[-2.0797279E-2],"split_indices":[0],"split_type":[0],"sum_hessian":[1.07329636E2],"tree_param":{"num_deleted":"0","num_feature":"11","num_nodes":"1","size_leaf_vector":"1"}},{"base_weights":[6.5581542E-3],"categories":[],"categories_nodes":[],"categories_segments":[],"categories_sizes":[],"default_left":[0],"id":104,"left_children":[-1],"loss_changes":[0E0],"parents":[2147483647],"right_children":[-1],"split_conditions":[1.1259004E-3],"split_indices":[0],"split_type":[0],"sum_hessian":[2.7117526E2],"tree_param":{"num_deleted":"0","num_feature":"11","num_nodes":"1","size_leaf_vector":"1"}},{"base_weights":[9.069369E-3],"categories":[],"categories_nodes":[],"categories_segments":[],"categories_sizes":[],"default_left":[0],"id":105,"left_children":[-1],"loss_changes":[0E0],"parents":[2147483647],"right_children":[-1],"split_conditions":[1.5570244E-3],"split_indices":[0],"split_type":[0],"sum_hessian":[2.609733E2],"tree_param":{"num_deleted":"0","num_feature":"11","num_nodes":"1","size_leaf_vector":"1"}},{"base_weights":[6.128692E-3],"categories":[],"categories_nodes":[],"categories_segments":[],"categories_sizes":[],"default_left":[0],"id":106,"left_children":[-1],"loss_changes":[0E0],"parents":[2147483647],"right_children":[-1],"split_conditions":[1.0521706E-3],"split_indices":[0],"split_type":[0],"sum_hessian":[2.798925E2],"tree_param":{"num_deleted":"0","num_feature":"11","num_nodes":"1","size_leaf_vector":"1"}},{"base_weights":[-3.5692085E-2],"categories":[],"categories_nodes":[],"categories_segments":[],"categories_sizes":[],"default_left":[0],"id":107,"left_children":[-1],"loss_changes":[0E0],"parents":[2147483647],"right_children":[-1],"split_conditions":[-6.127598E-3],"split_indices":[0],"split_type":[0],"sum_hessian":[9.736621E1],"tree_param":{"num_deleted":"0","num_feature":"11","num_nodes":"1","size_leaf_vector":"1"}},{"base_weights":[1.0031425E-2,-8.531064E-3,6.9765925E-2],"categories":[],"categories_nodes":[],"categories_segments":[],"categories_sizes":[],"default_left":[0,0,0],"id":108,"left_children":[1,-1,-1],"loss_changes":[6.229248E0,0E0,0E0],"parents":[2147483647,0,0],"right_children":[2,-1,-1],"split_conditions":[7.729166E0,-8.531064E-3,6.9765925E-2],"split_indices":[0,0,0],"split_type":[0,0,0],"sum_hessian":[2.613085E2,2.2784938E2,3.345914E1],"tree_param":{"num_deleted":"0","num_feature":"11","num_nodes":"3","size_leaf_vector":"1"}},{"base_weights":[-2.4058647E-2],"categories":[],"categories_nodes":[],"categories_segments":[],"categories_sizes":[],"default_left":[0],"id":109,"left_children":[-1],"loss_changes":[0E0],"parents":[2147483647],"right_children":[-1],"split_conditions":[-4.1303756E-3],"split_indices":[0],"split_type":[0],"sum_hessian":[2.6347836E2],"tree_param":{"num_deleted":"0","num_feature":"11","num_nodes":"1","size_leaf_vector":"1"}},{"base_weights":[5.928436E-3],"categories":[],"categories_nodes":[],"categories_segments":[],"categories_sizes":[],"default_left":[0],"id":110,"left_children":[-1],"loss_changes":[0E0],"parents":[2147483647],"right_children":[-1],"split_conditions":[1.0177908E-3],"split_indices":[0],"split_type":[0],"sum_hessian":[2.7800986E2],"tree_param":{"num_deleted":"0","num_feature":"11","num_nodes":"1","size_leaf_vector":"1"}},{"base_weights":[-1.14491455E-1,2.1151254E-2,-6.182164E-2],"categories":[],"categories_nodes":[],"categories_segments":[],"categories_sizes":[],"default_left":[0,0,0],"id":111,"left_children":[1,-1,-1],"loss_changes":[6.183758E0,0E0,0E0],"parents":[2147483647,0,0],"right_children":[2,-1,-1],"split_conditions":[-3.2708333E0,2.1151254E-2,-6.182164E-2],"split_indices":[0,0,0],"split_type":[0,0,0],"sum_hessian":[1.0416378E2,5.3188026E1,5.0975758E1],"tree_param":{"num_deleted":"0","num_feature":"11","num_nodes":"3","size_leaf_vector":"1"}},{"base_weights":[-3.9543938E-2],"categories":[],"categories_nodes":[],"categories_segments":[],"categories_sizes":[],"default_left":[0],"id":112,"left_children":[-1],"loss_changes":[0E0],"parents":[2147483647],"right_children":[-1],"split_conditions":[-6.788882E-3],"split_indices":[0],"split_type":[0],"sum_hessian":[2.726112E2],"tree_param":{"num_deleted":"0","num_feature":"11","num_nodes":"1","size_leaf_vector":"1"}},{"base_weights":[3.0296253E-2],"categories":[],"categories_nodes":[],"categories_segments":[],"categories_sizes":[],"default_left":[0],"id":113,"left_children":[-1],"loss_changes":[0E0],"parents":[2147483647],"right_children":[-1],"split_conditions":[5.2012447E-3],"split_indices":[0],"split_type":[0],"sum_hessian":[2.4832686E2],"tree_param":{"num_deleted":"0","num_feature":"11","num_nodes":"1","size_leaf_vector":"1"}},{"base_weights":[3.686848E-2],"categories":[],"categories_nodes":[],"categories_segments":[],"categories_sizes":[],"default_left":[0],"id":114,"left_children":[-1],"loss_changes":[0E0],"parents":[2147483647],"right_children":[-1],"split_conditions":[6.3295607E-3],"split_indices":[0],"split_type":[0],"sum_hessian":[2.948594E2],"tree_param":{"num_deleted":"0","num_feature":"11","num_nodes":"1","size_leaf_vector":"1"}},{"base_weights":[-4.6516273E-2],"categories":[],"categories_nodes":[],"categories_segments":[],"categories_sizes":[],"default_left":[0],"id":115,"left_children":[-1],"loss_changes":[0E0],"parents":[2147483647],"right_children":[-1],"split_conditions":[-7.985889E-3],"split_indices":[0],"split_type":[0],"sum_hessian":[1.0649527E2],"tree_param":{"num_deleted":"0","num_feature":"11","num_nodes":"1","size_leaf_vector":"1"}},{"base_weights":[6.875754E-2],"categories":[],"categories_nodes":[],"categories_segments":[],"categories_sizes":[],"default_left":[0],"id":116,"left_children":[-1],"loss_changes":[0E0],"parents":[2147483647],"right_children":[-1],"split_conditions":[1.1804258E-2],"split_indices":[0],"split_type":[0],"sum_hessian":[2.648323E2],"tree_param":{"num_deleted":"0","num_feature":"11","num_nodes":"1","size_leaf_vector":"1"}},{"base_weights":[-6.410534E-3,-2.101209E-2,4.0894996E-2],"categories":[],"categories_nodes":[],"categories_segments":[],"categories_sizes":[],"default_left":[0,0,0],"id":117,"left_children":[1,-1,-1],"loss_changes":[7.4162154E0,0E0,0E0],"parents":[2147483647,0,0],"right_children":[2,-1,-1],"split_conditions":[4.8749995E-1,-2.101209E-2,4.0894996E-2],"split_indices":[0,0,0],"split_type":[0,0,0],"sum_hessian":[2.593757E2,1.7629013E2,8.3085556E1],"tree_param":{"num_deleted":"0","num_feature":"11","num_nodes":"3","size_leaf_vector":"1"}},{"base_weights":[1.928243E-2],"categories":[],"categories_nodes":[],"categories_segments":[],"categories_sizes":[],"default_left":[0],"id":118,"left_children":[-1],"loss_changes":[0E0],"parents":[2147483647],"right_children":[-1],"split_conditions":[3.3103973E-3],"split_indices":[0],"split_type":[0],"sum_hessian":[2.8483044E2],"tree_param":{"num_deleted":"0","num_feature":"11","num_nodes":"1","size_leaf_vector":"1"}},{"base_weights":[-8.9815356E-2],"categories":[],"categories_nodes":[],"categories_segments":[],"categories_sizes":[],"default_left":[0],"id":119,"left_children":[-1],"loss_changes":[0E0],"parents":[2147483647],"right_children":[-1],"split_conditions":[-1.5419452E-2],"split_indices":[0],"split_type":[0],"sum_hessian":[1.0501187E2],"tree_param":{"num_deleted":"0","num_feature":"11","num_nodes":"1","size_leaf_vector":"1"}},{"base_weights":[1.1152357E-2],"categories":[],"categories_nodes":[],"categories_segments":[],"categories_sizes":[],"default_left":[0],"id":120,"left_children":[-1],"loss_changes":[0E0],"parents":[2147483647],"right_children":[-1],"split_conditions":[1.9146306E-3],"split_indices":[0],"split_type":[0],"sum_hessian":[2.6881497E2],"tree_param":{"num_deleted":"0","num_feature":"11","num_nodes":"1","size_leaf_vector":"1"}},{"base_weights":[9.559646E-3],"categories":[],"categories_nodes":[],"categories_segments":[],"categories_sizes":[],"default_left":[0],"id":121,"left_children":[-1],"loss_changes":[0E0],"parents":[2147483647],"right_children":[-1],"split_conditions":[1.6411949E-3],"split_indices":[0],"split_type":[0],"sum_hessian":[2.5871933E2],"tree_param":{"num_deleted":"0","num_feature":"11","num_nodes":"1","size_leaf_vector":"1"}},{"base_weights":[-4.7694433E-2],"categories":[],"categories_nodes":[],"categories_segments":[],"categories_sizes":[],"default_left":[0],"id":122,"left_children":[-1],"loss_changes":[0E0],"parents":[2147483647],"right_children":[-1],"split_conditions":[-8.188155E-3],"split_indices":[0],"split_type":[0],"sum_hessian":[2.8442358E2],"tree_param":{"num_deleted":"0","num_feature":"11","num_nodes":"1","size_leaf_vector":"1"}},{"base_weights":[-2.0323249E-2,-4.9551938E-2,2.6437106E-2],"categories":[],"categories_nodes":[],"categories_segments":[],"categories_sizes":[],"default_left":[0,0,0],"id":123,"left_children":[1,-1,-1],"loss_changes":[4.8631735E0,0E0,0E0],"parents":[2147483647,0,0],"right_children":[2,-1,-1],"split_conditions":[3.5E-1,-4.9551938E-2,2.6437106E-2],"split_indices":[3,0,0],"split_type":[0,0,0],"sum_hessian":[1.0203073E2,3.992372E1,6.210701E1],"tree_param":{"num_deleted":"0","num_feature":"11","num_nodes":"3","size_leaf_vector":"1"}},{"base_weights":[2.6008451E-2],"categories":[],"categories_nodes":[],"categories_segments":[],"categories_sizes":[],"default_left":[0],"id":124,"left_children":[-1],"loss_changes":[0E0],"parents":[2147483647],"right_children":[-1],"split_conditions":[4.465117E-3],"split_indices":[0],"split_type":[0],"sum_hessian":[2.7883914E2],"tree_param":{"num_deleted":"0","num_feature":"11","num_nodes":"1","size_leaf_vector":"1"}},{"base_weights":[-1.8052617E-2],"categories":[],"categories_nodes":[],"categories_segments":[],"categories_sizes":[],"default_left":[0],"id":125,"left_children":[-1],"loss_changes":[0E0],"parents":[2147483647],"right_children":[-1],"split_conditions":[-3.0992636E-3],"split_indices":[0],"split_type":[0],"sum_hessian":[2.4301044E2],"tree_param":{"num_deleted":"0","num_feature":"11","num_nodes":"1","size_leaf_vector":"1"}},{"base_weights":[6.598155E-2],"categories":[],"categories_nodes":[],"categories_segments":[],"categories_sizes":[],"default_left":[0],"id":126,"left_children":[-1],"loss_changes":[0E0],"parents":[2147483647],"right_children":[-1],"split_conditions":[1.1327677E-2],"split_indices":[0],"split_type":[0],"sum_hessian":[2.876396E2],"tree_param":{"num_deleted":"0","num_feature":"11","num_nodes":"1","size_leaf_vector":"1"}},{"base_weights":[-8.6384684E-2],"categories":[],"categories_nodes":[],"categories_segments":[],"categories_sizes":[],"default_left":[0],"id":127,"left_children":[-1],"loss_changes":[0E0],"parents":[2147483647],"right_children":[-1],"split_conditions":[-1.4830477E-2],"split_indices":[0],"split_type":[0],"sum_hessian":[1.0344979E2],"tree_param":{"num_deleted":"0","num_feature":"11","num_nodes":"1","size_leaf_vector":"1"}},{"base_weights":[-4.955812E-2],"categories":[],"categories_nodes":[],"categories_segments":[],"categories_sizes":[],"default_left":[0],"id":128,"left_children":[-1],"loss_changes":[0E0],"parents":[2147483647],"right_children":[-1],"split_conditions":[-8.508112E-3],"split_indices":[0],"split_type":[0],"sum_hessian":[2.809092E2],"tree_param":{"num_deleted":"0","num_feature":"11","num_nodes":"1","size_leaf_vector":"1"}},{"base_weights":[-6.130372E-3],"categories":[],"categories_nodes":[],"categories_segments":[],"categories_sizes":[],"default_left":[0],"id":129,"left_children":[-1],"loss_changes":[0E0],"parents":[2147483647],"right_children":[-1],"split_conditions":[-1.052459E-3],"split_indices":[0],"split_type":[0],"sum_hessian":[2.4987886E2],"tree_param":{"num_deleted":"0","num_feature":"11","num_nodes":"1","size_leaf_vector":"1"}},{"base_weights":[3.873088E-2],"categories":[],"categories_nodes":[],"categories_segments":[],"categories_sizes":[],"default_left":[0],"id":130,"left_children":[-1],"loss_changes":[0E0],"parents":[2147483647],"right_children":[-1],"split_conditions":[6.6492967E-3],"split_indices":[0],"split_type":[0],"sum_hessian":[2.890276E2],"tree_param":{"num_deleted":"0","num_feature":"11","num_nodes":"1","size_leaf_vector":"1"}},{"base_weights":[6.713397E-3,2.0594545E-2,-7.636232E-2],"categories":[],"categories_nodes":[],"categories_segments":[],"categories_sizes":[],"default_left":[0,0,0],"id":131,"left_children":[1,-1,-1],"loss_changes":[4.9132643E0,0E0,0E0],"parents":[2147483647,0,0],"right_children":[2,-1,-1],"split_conditions":[1.2583333E0,2.0594545E-2,-7.636232E-2],"split_indices":[0,0,0],"split_type":[0,0,0],"sum_hessian":[9.40471E1,7.577564E1,1.827145E1],"tree_param":{"num_deleted":"0","num_feature":"11","num_nodes":"3","size_leaf_vector":"1"}},{"base_weights":[3.597838E-2,-2.968908E-3,7.871111E-2],"categories":[],"categories_nodes":[],"categories_segments":[],"categories_sizes":[],"default_left":[0,0,0],"id":132,"left_children":[1,-1,-1],"loss_changes":[5.7815323E0,0E0,0E0],"parents":[2147483647,0,0],"right_children":[2,-1,-1],"split_conditions":[3.8E0,-2.968908E-3,7.871111E-2],"split_indices":[2,0,0],"split_type":[0,0,0],"sum_hessian":[2.555222E2,2.2776323E2,2.7758966E1],"tree_param":{"num_deleted":"0","num_feature":"11","num_nodes":"3","size_leaf_vector":"1"}},{"base_weights":[-6.120346E-3],"categories":[],"categories_nodes":[],"categories_segments":[],"categories_sizes":[],"default_left":[0],"id":133,"left_children":[-1],"loss_changes":[0E0],"parents":[2147483647],"right_children":[-1],"split_conditions":[-1.0507377E-3],"split_indices":[0],"split_type":[0],"sum_hessian":[2.497503E2],"tree_param":{"num_deleted":"0","num_feature":"11","num_nodes":"1","size_leaf_vector":"1"}},{"base_weights":[5.401754E-3],"categories":[],"categories_nodes":[],"categories_segments":[],"categories_sizes":[],"default_left":[0],"id":134,"left_children":[-1],"loss_changes":[0E0],"parents":[2147483647],"right_children":[-1],"split_conditions":[9.273702E-4],"split_indices":[0],"split_type":[0],"sum_hessian":[2.8557217E2],"tree_param":{"num_deleted":"0","num_feature":"11","num_nodes":"1","size_leaf_vector":"1"}},{"base_weights":[-4.8351303E-2],"categories":[],"categories_nodes":[],"categories_segments":[],"categories_sizes":[],"default_left":[0],"id":135,"left_children":[-1],"loss_changes":[0E0],"parents":[2147483647],"right_children":[-1],"split_conditions":[-8.300926E-3],"split_indices":[0],"split_type":[0],"sum_hessian":[9.845585E1],"tree_param":{"num_deleted":"0","num_feature":"11","num_nodes":"1","size_leaf_vector":"1"}},{"base_weights":[5.398311E-2],"categories":[],"categories_nodes":[],"categories_segments":[],"categories_sizes":[],"default_left":[0],"id":136,"left_children":[-1],"loss_changes":[0E0],"parents":[2147483647],"right_children":[-1],"split_conditions":[9.267792E-3],"split_indices":[0],"split_type":[0],"sum_hessian":[2.552877E2],"tree_param":{"num_deleted":"0","num_feature":"11","num_nodes":"1","size_leaf_vector":"1"}},{"base_weights":[5.59053E-2],"categories":[],"categories_nodes":[],"categories_segments":[],"categories_sizes":[],"default_left":[0],"id":137,"left_children":[-1],"loss_changes":[0E0],"parents":[2147483647],"right_children":[-1],"split_conditions":[9.597792E-3],"split_indices":[0],"split_type":[0],"sum_hessian":[2.5746207E2],"tree_param":{"num_deleted":"0","num_feature":"11","num_nodes":"1","size_leaf_vector":"1"}},{"base_weights":[-5.6803334E-3,1.280318E-2,-4.0479105E-2],"categories":[],"categories_nodes":[],"categories_segments":[],"categories_sizes":[],"default_left":[0,0,0],"id":138,"left_children":[1,-1,-1],"loss_changes":[5.420152E0,0E0,0E0],"parents":[2147483647,0,0],"right_children":[2,-1,-1],"split_conditions":[-7.895834E-1,1.280318E-2,-4.0479105E-2],"split_indices":[0,0,0],"split_type":[0,0,0],"sum_hessian":[2.9154913E2,2.1665796E2,7.4891174E1],"tree_param":{"num_deleted":"0","num_feature":"11","num_nodes":"3","size_leaf_vector":"1"}},{"base_weights":[-1.0402991E-1],"categories":[],"categories_nodes":[],"categories_segments":[],"categories_sizes":[],"default_left":[0],"id":139,"left_children":[-1],"loss_changes":[0E0],"parents":[2147483647],"right_children":[-1],"split_conditions":[-1.78598E-2],"split_indices":[0],"split_type":[0],"sum_hessian":[9.665102E1],"tree_param":{"num_deleted":"0","num_feature":"11","num_nodes":"1","size_leaf_vector":"1"}},{"base_weights":[1.4334104E-2],"categories":[],"categories_nodes":[],"categories_segments":[],"categories_sizes":[],"default_left":[0],"id":140,"left_children":[-1],"loss_changes":[0E0],"parents":[2147483647],"right_children":[-1],"split_conditions":[2.4608714E-3],"split_indices":[0],"split_type":[0],"sum_hessian":[2.7187103E2],"tree_param":{"num_deleted":"0","num_feature":"11","num_nodes":"1","size_leaf_vector":"1"}},{"base_weights":[2.1177918E-2],"categories":[],"categories_nodes":[],"categories_segments":[],"categories_sizes":[],"default_left":[0],"id":141,"left_children":[-1],"loss_changes":[0E0],"parents":[2147483647],"right_children":[-1],"split_conditions":[3.6358137E-3],"split_indices":[0],"split_type":[0],"sum_hessian":[2.5665674E2],"tree_param":{"num_deleted":"0","num_feature":"11","num_nodes":"1","size_leaf_vector":"1"}},{"base_weights":[-5.380461E-3],"categories":[],"categories_nodes":[],"categories_segments":[],"categories_sizes":[],"default_left":[0],"id":142,"left_children":[-1],"loss_changes":[0E0],"parents":[2147483647],"right_children":[-1],"split_conditions":[-9.2371466E-4],"split_indices":[0],"split_type":[0],"sum_hessian":[2.7318155E2],"tree_param":{"num_deleted":"0","num_feature":"11","num_nodes":"1","size_leaf_vector":"1"}},{"base_weights":[-7.7085E-2],"categories":[],"categories_nodes":[],"categories_segments":[],"categories_sizes":[],"default_left":[0],"id":143,"left_children":[-1],"loss_changes":[0E0],"parents":[2147483647],"right_children":[-1],"split_conditions":[-1.3233912E-2],"split_indices":[0],"split_type":[0],"sum_hessian":[9.429433E1],"tree_param":{"num_deleted":"0","num_feature":"11","num_nodes":"1","size_leaf_vector":"1"}},{"base_weights":[4.2229656E-2],"categories":[],"categories_nodes":[],"categories_segments":[],"categories_sizes":[],"default_left":[0],"id":144,"left_children":[-1],"loss_changes":[0E0],"parents":[2147483647],"right_children":[-1],"split_conditions":[7.249965E-3],"split_indices":[0],"split_type":[0],"sum_hessian":[2.7410013E2],"tree_param":{"num_deleted":"0","num_feature":"11","num_nodes":"1","size_leaf_vector":"1"}},{"base_weights":[-2.5213685E-2],"categories":[],"categories_nodes":[],"categories_segments":[],"categories_sizes":[],"default_left":[0],"id":145,"left_children":[-1],"loss_changes":[0E0],"parents":[2147483647],"right_children":[-1],"split_conditions":[-4.328672E-3],"split_indices":[0],"split_type":[0],"sum_hessian":[2.41788E2],"tree_param":{"num_deleted":"0","num_feature":"11","num_nodes":"1","size_leaf_vector":"1"}},{"base_weights":[-2.5699192E-3],"categories":[],"categories_nodes":[],"categories_segments":[],"categories_sizes":[],"default_left":[0],"id":146,"left_children":[-1],"loss_changes":[0E0],"parents":[2147483647],"right_children":[-1],"split_conditions":[-4.4120237E-4],"split_indices":[0],"split_type":[0],"sum_hessian":[2.8088306E2],"tree_param":{"num_deleted":"0","num_feature":"11","num_nodes":"1","size_leaf_vector":"1"}},{"base_weights":[-2.6918018E-2],"categories":[],"categories_nodes":[],"categories_segments":[],"categories_sizes":[],"default_left":[0],"id":147,"left_children":[-1],"loss_changes":[0E0],"parents":[2147483647],"right_children":[-1],"split_conditions":[-4.621271E-3],"split_indices":[0],"split_type":[0],"sum_hessian":[9.515833E1],"tree_param":{"num_deleted":"0","num_feature":"11","num_nodes":"1","size_leaf_vector":"1"}},{"base_weights":[-8.746299E-3],"categories":[],"categories_nodes":[],"categories_segments":[],"categories_sizes":[],"default_left":[0],"id":148,"left_children":[-1],"loss_changes":[0E0],"parents":[2147483647],"right_children":[-1],"split_conditions":[-1.50156E-3],"split_indices":[0],"split_type":[0],"sum_hessian":[2.6272726E2],"tree_param":{"num_deleted":"0","num_feature":"11","num_nodes":"1","size_leaf_vector":"1"}},{"base_weights":[6.474205E-2],"categories":[],"categories_nodes":[],"categories_segments":[],"categories_sizes":[],"default_left":[0],"id":149,"left_children":[-1],"loss_changes":[0E0],"parents":[2147483647],"right_children":[-1],"split_conditions":[1.111488E-2],"split_indices":[0],"split_type":[0],"sum_hessian":[2.5239394E2],"tree_param":{"num_deleted":"0","num_feature":"11","num_nodes":"1","size_leaf_vector":"1"}},{"base_weights":[1.6350432E-3],"categories":[],"categories_nodes":[],"categories_segments":[],"categories_sizes":[],"default_left":[0],"id":150,"left_children":[-1],"loss_changes":[0E0],"parents":[2147483647],"right_children":[-1],"split_conditions":[2.8070333E-4],"split_indices":[0],"split_type":[0],"sum_hessian":[2.764989E2],"tree_param":{"num_deleted":"0","num_feature":"11","num_nodes":"1","size_leaf_vector":"1"}},{"base_weights":[-3.6458764E-2],"categories":[],"categories_nodes":[],"categories_segments":[],"categories_sizes":[],"default_left":[0],"id":151,"left_children":[-1],"loss_changes":[0E0],"parents":[2147483647],"right_children":[-1],"split_conditions":[-6.259221E-3],"split_indices":[0],"split_type":[0],"sum_hessian":[9.012322E1],"tree_param":{"num_deleted":"0","num_feature":"11","num_nodes":"1","size_leaf_vector":"1"}},{"base_weights":[3.3006344E-2,5.8348525E-1,-1.2648348E-3,1.6889504E-1,-5.8558736E-2],"categories":[],"categories_nodes":[],"categories_segments":[],"categories_sizes":[],"default_left":[0,0,0,0,0],"id":152,"left_children":[1,3,-1,-1,-1],"loss_changes":[5.8170333E0,6.9545035E0,0E0,0E0,0E0],"parents":[2147483647,0,0,1,1],"right_children":[2,4,-1,-1,-1],"split_conditions":[6.792466E0,5.9791666E-1,-1.2648348E-3,1.6889504E-1,-5.8558736E-2],"split_indices":[4,0,0,0,0],"split_type":[0,0,0,0,0],"sum_hessian":[2.6054147E2,1.6883953E1,2.4365752E2,1.1737971E1,5.145982E0],"tree_param":{"num_deleted":"0","num_feature":"11","num_nodes":"5","size_leaf_vector":"1"}},{"base_weights":[2.7182199E-2],"categories":[],"categories_nodes":[],"categories_segments":[],"categories_sizes":[],"default_left":[0],"id":153,"left_children":[-1],"loss_changes":[0E0],"parents":[2147483647],"right_children":[-1],"split_conditions":[4.6666255E-3],"split_indices":[0],"split_type":[0],"sum_hessian":[2.6122412E2],"tree_param":{"num_deleted":"0","num_feature":"11","num_nodes":"1","size_leaf_vector":"1"}},{"base_weights":[-3.902998E-2],"categories":[],"categories_nodes":[],"categories_segments":[],"categories_sizes":[],"default_left":[0],"id":154,"left_children":[-1],"loss_changes":[0E0],"parents":[2147483647],"right_children":[-1],"split_conditions":[-6.7006457E-3],"split_indices":[0],"split_type":[0],"sum_hessian":[2.7903073E2],"tree_param":{"num_deleted":"0","num_feature":"11","num_nodes":"1","size_leaf_vector":"1"}},{"base_weights":[1.0018721E-2,3.6642402E-2,-4.4701166E-2],"categories":[],"categories_nodes":[],"categories_segments":[],"categories_sizes":[],"default_left":[0,0,0],"id":155,"left_children":[1,-1,-1],"loss_changes":[5.1469226E0,0E0,0E0],"parents":[2147483647,0,0],"right_children":[2,-1,-1],"split_conditions":[-3.2708333E0,3.6642402E-2,-4.4701166E-2],"split_indices":[0,0,0],"split_type":[0,0,0],"sum_hessian":[9.156557E1,5.2374886E1,3.9190678E1],"tree_param":{"num_deleted":"0","num_feature":"11","num_nodes":"3","size_leaf_vector":"1"}},{"base_weights":[6.099005E-3],"categories":[],"categories_nodes":[],"categories_segments":[],"categories_sizes":[],"default_left":[0],"id":156,"left_children":[-1],"loss_changes":[0E0],"parents":[2147483647],"right_children":[-1],"split_conditions":[1.047074E-3],"split_indices":[0],"split_type":[0],"sum_hessian":[2.6820367E2],"tree_param":{"num_deleted":"0","num_feature":"11","num_nodes":"1","size_leaf_vector":"1"}},{"base_weights":[-4.3446943E-3],"categories":[],"categories_nodes":[],"categories_segments":[],"categories_sizes":[],"default_left":[0],"id":157,"left_children":[-1],"loss_changes":[0E0],"parents":[2147483647],"right_children":[-1],"split_conditions":[-7.458948E-4],"split_indices":[0],"split_type":[0],"sum_hessian":[2.6965704E2],"tree_param":{"num_deleted":"0","num_feature":"11","num_nodes":"1","size_leaf_vector":"1"}},{"base_weights":[3.8104102E-2],"categories":[],"categories_nodes":[],"categories_segments":[],"categories_sizes":[],"default_left":[0],"id":158,"left_children":[-1],"loss_changes":[0E0],"parents":[2147483647],"right_children":[-1],"split_conditions":[6.5416917E-3],"split_indices":[0],"split_type":[0],"sum_hessian":[2.9100095E2],"tree_param":{"num_deleted":"0","num_feature":"11","num_nodes":"1","size_leaf_vector":"1"}},{"base_weights":[-7.901757E-2],"categories":[],"categories_nodes":[],"categories_segments":[],"categories_sizes":[],"default_left":[0],"id":159,"left_children":[-1],"loss_changes":[0E0],"parents":[2147483647],"right_children":[-1],"split_conditions":[-1.3565695E-2],"split_indices":[0],"split_type":[0],"sum_hessian":[8.933743E1],"tree_param":{"num_deleted":"0","num_feature":"11","num_nodes":"1","size_leaf_vector":"1"}},{"base_weights":[-2.0628465E-2],"categories":[],"categories_nodes":[],"categories_segments":[],"categories_sizes":[],"default_left":[0],"id":160,"left_children":[-1],"loss_changes":[0E0],"parents":[2147483647],"right_children":[-1],"split_conditions":[-3.541484E-3],"split_indices":[0],"split_type":[0],"sum_hessian":[2.6865652E2],"tree_param":{"num_deleted":"0","num_feature":"11","num_nodes":"1","size_leaf_vector":"1"}},{"base_weights":[2.4051666E-2],"categories":[],"categories_nodes":[],"categories_segments":[],"categories_sizes":[],"default_left":[0],"id":161,"left_children":[-1],"loss_changes":[0E0],"parents":[2147483647],"right_children":[-1],"split_conditions":[4.1291774E-3],"split_indices":[0],"split_type":[0],"sum_hessian":[2.488454E2],"tree_param":{"num_deleted":"0","num_feature":"11","num_nodes":"1","size_leaf_vector":"1"}},{"base_weights":[-3.765156E-6],"categories":[],"categories_nodes":[],"categories_segments":[],"categories_sizes":[],"default_left":[0],"id":162,"left_children":[-1],"loss_changes":[0E0],"parents":[2147483647],"right_children":[-1],"split_conditions":[-6.4639994E-7],"split_indices":[0],"split_type":[0],"sum_hessian":[2.924482E2],"tree_param":{"num_deleted":"0","num_feature":"11","num_nodes":"1","size_leaf_vector":"1"}},{"base_weights":[-1.675255E-1],"categories":[],"categories_nodes":[],"categories_segments":[],"categories_sizes":[],"default_left":[0],"id":163,"left_children":[-1],"loss_changes":[0E0],"parents":[2147483647],"right_children":[-1],"split_conditions":[-2.8760688E-2],"split_indices":[0],"split_type":[0],"sum_hessian":[9.256694E1],"tree_param":{"num_deleted":"0","num_feature":"11","num_nodes":"1","size_leaf_vector":"1"}},{"base_weights":[-2.7856033E-2],"categories":[],"categories_nodes":[],"categories_segments":[],"categories_sizes":[],"default_left":[0],"id":164,"left_children":[-1],"loss_changes":[0E0],"parents":[2147483647],"right_children":[-1],"split_conditions":[-4.782309E-3],"split_indices":[0],"split_type":[0],"sum_hessian":[2.6252997E2],"tree_param":{"num_deleted":"0","num_feature":"11","num_nodes":"1","size_leaf_vector":"1"}},{"base_weights":[-4.243849E-2,-3.2880552E-2,8.681506E-2,1.9874156E-1,-4.3373495E-2,-1.6093459E-2,5.0283325E-1,1.5954022E-1,4.3594215E-2],"categories":[],"categories_nodes":[],"categories_segments":[],"categories_sizes":[],"default_left":[0,0,0,0,0,0,0,0,0],"id":165,"left_children":[1,-1,3,5,-1,-1,7,-1,-1],"loss_changes":[5.1462026E0,0E0,5.493677E0,9.67992E0,0E0,0E0,5.4169903E0,0E0,0E0],"parents":[2147483647,0,0,2,2,3,3,6,6],"right_children":[2,-1,4,6,-1,-1,8,-1,-1],"split_conditions":[-3.8770838E0,-3.2880552E-2,1.9562946E1,2.4419135E2,-4.3373495E-2,-1.6093459E-2,2.871124E2,1.5954022E-1,4.3594215E-2],"split_indices":[0,0,4,5,0,0,5,0,0],"split_type":[0,0,0,0,0,0,0,0,0],"sum_hessian":[2.651992E2,1.2292849E2,1.422707E2,1.0730457E2,3.4966125E1,5.5048912E1,5.225566E1,1.82514E1,3.400426E1],"tree_param":{"num_deleted":"0","num_feature":"11","num_nodes":"9","size_leaf_vector":"1"}},{"base_weights":[1.5649006E-2],"categories":[],"categories_nodes":[],"categories_segments":[],"categories_sizes":[],"default_left":[0],"id":166,"left_children":[-1],"loss_changes":[0E0],"parents":[2147483647],"right_children":[-1],"split_conditions":[2.686613E-3],"split_indices":[0],"split_type":[0],"sum_hessian":[2.9332468E2],"tree_param":{"num_deleted":"0","num_feature":"11","num_nodes":"1","size_leaf_vector":"1"}},{"base_weights":[-4.424728E-2],"categories":[],"categories_nodes":[],"categories_segments":[],"categories_sizes":[],"default_left":[0],"id":167,"left_children":[-1],"loss_changes":[0E0],"parents":[2147483647],"right_children":[-1],"split_conditions":[-7.59635E-3],"split_indices":[0],"split_type":[0],"sum_hessian":[9.208914E1],"tree_param":{"num_deleted":"0","num_feature":"11","num_nodes":"1","size_leaf_vector":"1"}},{"base_weights":[-5.309989E-2],"categories":[],"categories_nodes":[],"categories_segments":[],"categories_sizes":[],"default_left":[0],"id":168,"left_children":[-1],"loss_changes":[0E0],"parents":[2147483647],"right_children":[-1],"split_conditions":[-9.116161E-3],"split_indices":[0],"split_type":[0],"sum_hessian":[2.6761264E2],"tree_param":{"num_deleted":"0","num_feature":"11","num_nodes":"1","size_leaf_vector":"1"}},{"base_weights":[1.0625815E-2],"categories":[],"categories_nodes":[],"categories_segments":[],"categories_sizes":[],"default_left":[0],"id":169,"left_children":[-1],"loss_changes":[0E0],"parents":[2147483647],"right_children":[-1],"split_conditions":[1.8242343E-3],"split_indices":[0],"split_type":[0],"sum_hessian":[2.5727856E2],"tree_param":{"num_deleted":"0","num_feature":"11","num_nodes":"1","size_leaf_vector":"1"}},{"base_weights":[-3.064298E-3],"categories":[],"categories_nodes":[],"categories_segments":[],"categories_sizes":[],"default_left":[0],"id":170,"left_children":[-1],"loss_changes":[0E0],"parents":[2147483647],"right_children":[-1],"split_conditions":[-5.2607706E-4],"split_indices":[0],"split_type":[0],"sum_hessian":[2.817881E2],"tree_param":{"num_deleted":"0","num_feature":"11","num_nodes":"1","size_leaf_vector":"1"}},{"base_weights":[-1.8077964E-2,-3.9395206E-2,5.946455E-2],"categories":[],"categories_nodes":[],"categories_segments":[],"categories_sizes":[],"default_left":[0,0,0],"id":171,"left_children":[1,-1,-1],"loss_changes":[6.8205843E0,0E0,0E0],"parents":[2147483647,0,0],"right_children":[2,-1,-1],"split_conditions":[1.7057314E1,-3.9395206E-2,5.946455E-2],"split_indices":[4,0,0],"split_type":[0,0,0],"sum_hessian":[8.650004E1,5.4980125E1,3.1519915E1],"tree_param":{"num_deleted":"0","num_feature":"11","num_nodes":"3","size_leaf_vector":"1"}},{"base_weights":[2.0393575E-2],"categories":[],"categories_nodes":[],"categories_segments":[],"categories_sizes":[],"default_left":[0],"id":172,"left_children":[-1],"loss_changes":[0E0],"parents":[2147483647],"right_children":[-1],"split_conditions":[3.501158E-3],"split_indices":[0],"split_type":[0],"sum_hessian":[2.6887354E2],"tree_param":{"num_deleted":"0","num_feature":"11","num_nodes":"1","size_leaf_vector":"1"}},{"base_weights":[1.8752813E-2],"categories":[],"categories_nodes":[],"categories_segments":[],"categories_sizes":[],"default_left":[0],"id":173,"left_children":[-1],"loss_changes":[0E0],"parents":[2147483647],"right_children":[-1],"split_conditions":[3.219473E-3],"split_indices":[0],"split_type":[0],"sum_hessian":[2.5708716E2],"tree_param":{"num_deleted":"0","num_feature":"11","num_nodes":"1","size_leaf_vector":"1"}},{"base_weights":[-2.779623E-2],"categories":[],"categories_nodes":[],"categories_segments":[],"categories_sizes":[],"default_left":[0],"id":174,"left_children":[-1],"loss_changes":[0E0],"parents":[2147483647],"right_children":[-1],"split_conditions":[-4.772042E-3],"split_indices":[0],"split_type":[0],"sum_hessian":[3.0244055E2],"tree_param":{"num_deleted":"0","num_feature":"11","num_nodes":"1","size_leaf_vector":"1"}},{"base_weights":[-2.4747433E-2],"categories":[],"categories_nodes":[],"categories_segments":[],"categories_sizes":[],"default_left":[0],"id":175,"left_children":[-1],"loss_changes":[0E0],"parents":[2147483647],"right_children":[-1],"split_conditions":[-4.248626E-3],"split_indices":[0],"split_type":[0],"sum_hessian":[8.8462616E1],"tree_param":{"num_deleted":"0","num_feature":"11","num_nodes":"1","size_leaf_vector":"1"}},{"base_weights":[1.4664693E-2,-1.043182E-1,2.9727498E-2,3.966531E-2,-3.6390662E-2],"categories":[],"categories_nodes":[],"categories_segments":[],"categories_sizes":[],"default_left":[0,0,0,0,0],"id":176,"left_children":[1,3,-1,-1,-1],"loss_changes":[4.935589E0,5.4488287E0,0E0,0E0,0E0],"parents":[2147483647,0,0,1,1],"right_children":[2,4,-1,-1,-1],"split_conditions":[1.1494733E-1,1.8119345E2,2.9727498E-2,3.966531E-2,-3.6390662E-2],"split_indices":[8,5,0,0,0],"split_type":[0,0,0,0,0],"sum_hessian":[2.5976782E2,1.4857317E2,1.1119464E2,3.5824295E1,1.1274888E2],"tree_param":{"num_deleted":"0","num_feature":"11","num_nodes":"5","size_leaf_vector":"1"}},{"base_weights":[-7.142962E-3],"categories":[],"categories_nodes":[],"categories_segments":[],"categories_sizes":[],"default_left":[0],"id":177,"left_children":[-1],"loss_changes":[0E0],"parents":[2147483647],"right_children":[-1],"split_conditions":[-1.2262999E-3],"split_indices":[0],"split_type":[0],"sum_hessian":[2.545242E2],"tree_param":{"num_deleted":"0","num_feature":"11","num_nodes":"1","size_leaf_vector":"1"}},{"base_weights":[1.034279E-3],"categories":[],"categories_nodes":[],"categories_segments":[],"categories_sizes":[],